{
  "learner": {
    "attributes": { "best_iteration": "1", "best_score": "18.794559478759766" },
    "feature_names": [
      "month_num",
      "year",
      "sku_id",
      "lag_1",
      "lag_2",
      "lag_3",
      "month_sin",
      "month_cos"
    ],
    "feature_types": [],
    "gradient_booster": {
      "model": {
        "gbtree_model_param": { "num_parallel_tree": "1", "num_trees": "52" },
        "iteration_indptr": [
          0, 1, 2, 3, 4, 5, 6, 7, 8, 9, 10, 11, 12, 13, 14, 15, 16, 17, 18, 19,
          20, 21, 22, 23, 24, 25, 26, 27, 28, 29, 30, 31, 32, 33, 34, 35, 36,
          37, 38, 39, 40, 41, 42, 43, 44, 45, 46, 47, 48, 49, 50, 51, 52
        ],
        "tree_info": [
          0, 0, 0, 0, 0, 0, 0, 0, 0, 0, 0, 0, 0, 0, 0, 0, 0, 0, 0, 0, 0, 0, 0,
          0, 0, 0, 0, 0, 0, 0, 0, 0, 0, 0, 0, 0, 0, 0, 0, 0, 0, 0, 0, 0, 0, 0,
          0, 0, 0, 0, 0, 0
        ],
        "trees": [
          {
            "base_weights": [
              -4.682552e-1, -1.4346155e1, 1.962963e1, -3.190625, -5.8875012,
              7.366666, 2.7966666, 8.7291664e-1, -8.4814825, -6.944453e-1,
              1.2972221, -1.4433335, -8.333343e-2, -4.270834e-1, 3.229166e-1
            ],
            "categories": [],
            "categories_nodes": [],
            "categories_segments": [],
            "categories_sizes": [],
            "default_left": [0, 0, 0, 0, 0, 0, 0, 0, 0, 0, 0, 0, 0, 0, 0],
            "id": 0,
            "left_children": [
              1, 3, 5, -1, 7, 9, -1, -1, 11, 13, -1, -1, -1, -1, -1
            ],
            "loss_changes": [
              6.1388545e3, 1.743104e3, 7.1410986e2, 0, 4.5318988e2, 2.3494354e2,
              0, 0, 3.9765808e2, 5.588831e1, 0, 0, 0, 0, 0
            ],
            "parents": [2147483647, 0, 0, 1, 1, 2, 2, 4, 4, 5, 5, 8, 8, 9, 9],
            "right_children": [
              2, 4, 6, -1, 8, 10, -1, -1, 12, 14, -1, -1, -1, -1, -1
            ],
            "split_conditions": [
              5e1, 2, 8.660254e-1, -3.190625, 2.024e3, 5.7e1, 2.7966666,
              8.7291664e-1, 4.3e1, 3, 1.2972221, -1.4433335, -8.333343e-2,
              -4.270834e-1, 3.229166e-1
            ],
            "split_indices": [3, 3, 7, 0, 1, 5, 0, 0, 5, 0, 0, 0, 0, 0, 0],
            "split_type": [0, 0, 0, 0, 0, 0, 0, 0, 0, 0, 0, 0, 0, 0, 0],
            "sum_hessian": [2e1, 1.2e1, 8, 3, 9, 4, 4, 1, 8, 2, 2, 4, 4, 1, 1],
            "tree_param": {
              "num_deleted": "0",
              "num_feature": "8",
              "num_nodes": "15",
              "size_leaf_vector": "1"
            }
          },
          {
            "base_weights": [
              -3.1938088, -2.6055384e1, 4.60415, -3.2493541, 3.067707e-1,
              -6.5758815, 1.4205763e1, 5.04236, -1.0615716e1, 6.74986, 1.805139,
              8.292708e-1, -7.29168e-2, -1.297528, 1.7708321e-1, -8.576406e-2,
              1.2107407
            ],
            "categories": [],
            "categories_nodes": [],
            "categories_segments": [],
            "categories_sizes": [],
            "default_left": [1, 1, 0, 0, 0, 0, 0, 0, 0, 0, 0, 0, 0, 0, 0, 0, 0],
            "id": 1,
            "left_children": [
              1, 3, 5, -1, -1, 7, 9, 11, 13, 15, -1, -1, -1, -1, -1, -1, -1
            ],
            "loss_changes": [
              4.2202563e3, 1.2246755e3, 2.0256495e3, 0, 0, 4.7595023e2,
              1.6488184e2, 6.2325188e1, 2.2756494e2, 2.1417152e2, 0, 0, 0, 0, 0,
              0, 0
            ],
            "parents": [
              2147483647, 0, 0, 1, 1, 2, 2, 5, 5, 6, 6, 7, 7, 8, 8, 9, 9
            ],
            "right_children": [
              2, 4, 6, -1, -1, 8, 10, 12, 14, 16, -1, -1, -1, -1, -1, -1, -1
            ],
            "split_conditions": [
              2, 3, 5e-1, -3.2493541, 3.067707e-1, 2.2e1, 8.660254e-1, 2.024e3,
              7.1e1, 5.7e1, 1.805139, 8.292708e-1, -7.29168e-2, -1.297528,
              1.7708321e-1, -8.576406e-2, 1.2107407
            ],
            "split_indices": [
              5, 4, 7, 0, 0, 4, 7, 1, 5, 5, 0, 0, 0, 0, 0, 0, 0
            ],
            "split_type": [0, 0, 0, 0, 0, 0, 0, 0, 0, 0, 0, 0, 0, 0, 0, 0, 0],
            "sum_hessian": [
              2.2e1, 5, 1.7e1, 4, 1, 8, 9, 2, 6, 4, 5, 1, 1, 5, 1, 2, 2
            ],
            "tree_param": {
              "num_deleted": "0",
              "num_feature": "8",
              "num_nodes": "17",
              "size_leaf_vector": "1"
            }
          },
          {
            "base_weights": [
              -7.915219e-1, -1.6922245e1, 1.8644497e1, -2.3408169e1, 1.9016485,
              6.213697e-1, 2.5896082, -6.5338725e-1, -2.7295988, -6.92709e-2,
              2.9973373e-1
            ],
            "categories": [],
            "categories_nodes": [],
            "categories_segments": [],
            "categories_sizes": [],
            "default_left": [0, 1, 0, 0, 0, 0, 0, 0, 0, 0, 0],
            "id": 2,
            "left_children": [1, 3, 5, 7, 9, -1, -1, -1, -1, -1, -1],
            "loss_changes": [
              6.8993643e3, 1.5095984e3, 7.405198e2, 4.1208887e2, 1.3446716e1, 0,
              0, 0, 0, 0, 0
            ],
            "parents": [2147483647, 0, 0, 1, 1, 2, 2, 3, 3, 4, 4],
            "right_children": [2, 4, 6, 8, 10, -1, -1, -1, -1, -1, -1],
            "split_conditions": [
              5e1, 4.3e1, 2.024e3, -5e-1, 2.9e1, 6.213697e-1, 2.5896082,
              -6.5338725e-1, -2.7295988, -6.92709e-2, 2.9973373e-1
            ],
            "split_indices": [3, 5, 1, 6, 3, 0, 0, 0, 0, 0, 0],
            "split_type": [0, 0, 0, 0, 0, 0, 0, 0, 0, 0, 0],
            "sum_hessian": [2e1, 1.1e1, 9, 8, 3, 4, 5, 2, 6, 1, 2],
            "tree_param": {
              "num_deleted": "0",
              "num_feature": "8",
              "num_nodes": "11",
              "size_leaf_vector": "1"
            }
          },
          {
            "base_weights": [
              -2.0635948, -2.771038, 4.451281, -3.9335651, 1.1669207e1,
              9.2428726e-1, -6.4245996, 2.603638e-1, 1.23154e1, -1.0887451,
              -6.76828e-2, 1.3676459, 4.5807788e-1
            ],
            "categories": [],
            "categories_nodes": [],
            "categories_segments": [],
            "categories_sizes": [],
            "default_left": [0, 0, 0, 0, 0, 0, 0, 0, 0, 0, 0, 0, 0],
            "id": 3,
            "left_children": [1, -1, 3, 5, 7, -1, 9, -1, 11, -1, -1, -1, -1],
            "loss_changes": [
              4.1334014e3, 0, 1.2563256e3, 3.8761136e2, 3.2374268e1, 0,
              2.2349414e2, 0, 4.26239e1, 0, 0, 0, 0
            ],
            "parents": [2147483647, 0, 0, 2, 2, 3, 3, 4, 4, 6, 6, 8, 8],
            "right_children": [2, -1, 4, 6, 8, -1, 10, -1, 12, -1, -1, -1, -1],
            "split_conditions": [
              3, -2.771038, 5e1, 2.024e3, 2e1, 9.2428726e-1, 4.3e1, 2.603638e-1,
              8.660254e-1, -1.0887451, -6.76828e-2, 1.3676459, 4.5807788e-1
            ],
            "split_indices": [3, 0, 3, 1, 4, 0, 5, 0, 6, 0, 0, 0, 0],
            "split_type": [0, 0, 0, 0, 0, 0, 0, 0, 0, 0, 0, 0, 0],
            "sum_hessian": [2.3e1, 4, 1.9e1, 9, 1e1, 1, 8, 1, 9, 4, 4, 7, 2],
            "tree_param": {
              "num_deleted": "0",
              "num_feature": "8",
              "num_nodes": "13",
              "size_leaf_vector": "1"
            }
          },
          {
            "base_weights": [
              -2.51605e-1, -1.245027e1, 1.4187872e1, -2.549355, -3.8206396,
              7.5456686, 2.3925312, 8.780729e-1, -6.493402, 1.1429056e1,
              -2.7363293, -8.1918e-1, 2.697691e-1, 3.3027562e-1, 1.4666518,
              -5.538252e-1, 1.4337578e-1
            ],
            "categories": [],
            "categories_nodes": [],
            "categories_segments": [],
            "categories_sizes": [],
            "default_left": [0, 0, 0, 0, 0, 0, 0, 0, 0, 0, 0, 0, 0, 0, 0, 0, 0],
            "id": 4,
            "left_children": [
              1, 3, 5, -1, 7, 9, -1, -1, 11, 13, 15, -1, -1, -1, -1, -1, -1
            ],
            "loss_changes": [
              4.2279165e3, 1.365861e3, 5.309258e2, 0, 3.6014093e2, 3.5070554e2,
              0, 0, 1.4698001e2, 1.0941162e2, 4.2993294e1, 0, 0, 0, 0, 0, 0
            ],
            "parents": [
              2147483647, 0, 0, 1, 1, 2, 2, 4, 4, 5, 5, 8, 8, 9, 9, 10, 10
            ],
            "right_children": [
              2, 4, 6, -1, 8, 10, -1, -1, 12, 14, 16, -1, -1, -1, -1, -1, -1
            ],
            "split_conditions": [
              5e1, 3, 7.5e1, -2.549355, 2.024e3, 5.7e1, 2.3925312, 8.780729e-1,
              1e1, -5e-1, 3, -8.1918e-1, 2.697691e-1, 3.3027562e-1, 1.4666518,
              -5.538252e-1, 1.4337578e-1
            ],
            "split_indices": [
              3, 3, 3, 0, 1, 4, 0, 0, 0, 6, 0, 0, 0, 0, 0, 0, 0
            ],
            "split_type": [0, 0, 0, 0, 0, 0, 0, 0, 0, 0, 0, 0, 0, 0, 0, 0, 0],
            "sum_hessian": [
              2.2e1, 1.2e1, 1e1, 4, 8, 7, 3, 1, 7, 5, 2, 6, 1, 2, 3, 1, 1
            ],
            "tree_param": {
              "num_deleted": "0",
              "num_feature": "8",
              "num_nodes": "17",
              "size_leaf_vector": "1"
            }
          },
          {
            "base_weights": [
              -1.3466169, -1.2692425e1, 1.21844845e1, -2.207227, -4.070988,
              2.005118, 1.771482e1, 8.8171005e-1, -9.244114e-1, 5.137067e-1,
              -5.2613395e-1, 6.3750014, 2.097575, -1.5562592e-1, 3.0257758e-1,
              8.200432e-1, 1.3620701e-1
            ],
            "categories": [],
            "categories_nodes": [],
            "categories_segments": [],
            "categories_sizes": [],
            "default_left": [0, 0, 0, 0, 0, 0, 0, 0, 0, 0, 0, 0, 0, 0, 0, 0, 0],
            "id": 5,
            "left_children": [
              1, 3, 5, -1, 7, 9, 11, 13, -1, -1, -1, 15, -1, -1, -1, -1, -1
            ],
            "loss_changes": [
              3.68564e3, 9.6142456e2, 5.8372815e2, 0, 2.1311807e2, 1.4081871e2,
              1.2512793e2, 3.0844725e1, 0, 0, 0, 1.6282707e1, 0, 0, 0, 0, 0
            ],
            "parents": [
              2147483647, 0, 0, 1, 1, 2, 2, 4, 4, 5, 5, 6, 6, 7, 7, 11, 11
            ],
            "right_children": [
              2, 4, 6, -1, 8, 10, 12, 14, -1, -1, -1, 16, -1, -1, -1, -1, -1
            ],
            "split_conditions": [
              5e1, 2.2e1, 8.660254e-1, -2.207227, 3.6e1, 2.024e3, 2.024e3,
              3.3e1, -9.244114e-1, 5.137067e-1, -5.2613395e-1, 5.7e1, 2.097575,
              -1.5562592e-1, 3.0257758e-1, 8.200432e-1, 1.3620701e-1
            ],
            "split_indices": [
              3, 3, 7, 0, 3, 1, 1, 3, 0, 0, 0, 4, 0, 0, 0, 0, 0
            ],
            "split_type": [0, 0, 0, 0, 0, 0, 0, 0, 0, 0, 0, 0, 0, 0, 0, 0, 0],
            "sum_hessian": [
              2.2e1, 1.2e1, 1e1, 5, 7, 4, 6, 4, 3, 3, 1, 2, 4, 2, 2, 1, 1
            ],
            "tree_param": {
              "num_deleted": "0",
              "num_feature": "8",
              "num_nodes": "17",
              "size_leaf_vector": "1"
            }
          },
          {
            "base_weights": [
              -1.3924726, -2.1688285, 4.021818, -2.6533742, 9.11772,
              9.445305e-1, -5.346372, 5.1744823, 1.1541337, -8.518777e-1,
              -4.4273376e-3, 1.802121e-1, 1.1018145
            ],
            "categories": [],
            "categories_nodes": [],
            "categories_segments": [],
            "categories_sizes": [],
            "default_left": [0, 0, 0, 0, 0, 0, 0, 0, 0, 0, 0, 0, 0],
            "id": 6,
            "left_children": [1, -1, 3, 5, 7, -1, 9, 11, -1, -1, -1, -1, -1],
            "loss_changes": [
              2.6146372e3, 0, 6.7049896e2, 3.4373355e2, 4.5405396e1, 0,
              1.3418607e2, 9.8385635e1, 0, 0, 0, 0, 0
            ],
            "parents": [2147483647, 0, 0, 2, 2, 3, 3, 4, 4, 6, 6, 7, 7],
            "right_children": [2, -1, 4, 6, 8, -1, 10, 12, -1, -1, -1, -1, -1],
            "split_conditions": [
              3, -2.1688285, 5e1, 2.024e3, 8.660254e-1, 9.445305e-1, 4.3e1,
              2.025e3, 1.1541337, -8.518777e-1, -4.4273376e-3, 1.802121e-1,
              1.1018145
            ],
            "split_indices": [3, 0, 3, 1, 7, 0, 5, 1, 0, 0, 0, 0, 0],
            "split_type": [0, 0, 0, 0, 0, 0, 0, 0, 0, 0, 0, 0, 0],
            "sum_hessian": [2.2e1, 4, 1.8e1, 8, 1e1, 1, 7, 5, 5, 4, 3, 4, 1],
            "tree_param": {
              "num_deleted": "0",
              "num_feature": "8",
              "num_nodes": "13",
              "size_leaf_vector": "1"
            }
          },
          {
            "base_weights": [
              2.864059, -5.835384, 1.2093991e1, 8.97304e-1, -7.997335,
              6.4486694, 2.0361137, -1.2505378e1, -8.660736e-2, 8.82373,
              -5.088379e-1, -3.8983983e-1, -1.516849, -4.3224183e-1, 2.05295e-1,
              9.6381587e-1, 1.9685803e-1
            ],
            "categories": [],
            "categories_nodes": [],
            "categories_segments": [],
            "categories_sizes": [],
            "default_left": [0, 0, 0, 0, 1, 0, 0, 0, 0, 0, 0, 0, 0, 0, 0, 0, 0],
            "id": 7,
            "left_children": [
              1, 3, 5, -1, 7, 9, -1, 11, 13, 15, -1, -1, -1, -1, -1, -1, -1
            ],
            "loss_changes": [
              1.8370691e3, 4.5594144e2, 3.8207532e2, 0, 3.9119788e2, 2.64108e2,
              0, 1.0131665e2, 5.418751e1, 2.0107727e1, 0, 0, 0, 0, 0, 0, 0
            ],
            "parents": [
              2147483647, 0, 0, 1, 1, 2, 2, 4, 4, 5, 5, 7, 7, 8, 8, 9, 9
            ],
            "right_children": [
              2, 4, 6, -1, 8, 10, -1, 12, 14, 16, -1, -1, -1, -1, -1, -1, -1
            ],
            "split_conditions": [
              5e1, 3, 7.5e1, 8.97304e-1, 4.3e1, 7.1e1, 2.0361137, 2.9e1, 4,
              6.2e1, -5.088379e-1, -3.8983983e-1, -1.516849, -4.3224183e-1,
              2.05295e-1, 9.6381587e-1, 1.9685803e-1
            ],
            "split_indices": [
              3, 5, 3, 0, 5, 3, 0, 5, 0, 5, 0, 0, 0, 0, 0, 0, 0
            ],
            "split_type": [0, 0, 0, 0, 0, 0, 0, 0, 0, 0, 0, 0, 0, 0, 0, 0, 0],
            "sum_hessian": [
              2.1e1, 1.1e1, 1e1, 1, 1e1, 7, 3, 6, 4, 6, 1, 2, 4, 1, 3, 5, 1
            ],
            "tree_param": {
              "num_deleted": "0",
              "num_feature": "8",
              "num_nodes": "17",
              "size_leaf_vector": "1"
            }
          },
          {
            "base_weights": [
              3.1621101e-1, -1.9705403, 5.860203, 1.2807394, 1.7510661,
              -5.8443594, 4.7152147, -8.1675166e-1, 1.7241345e-1, 6.202342e-1,
              9.3394e-2
            ],
            "categories": [],
            "categories_nodes": [],
            "categories_segments": [],
            "categories_sizes": [],
            "default_left": [0, 0, 0, 0, 0, 0, 0, 0, 0, 0, 0],
            "id": 8,
            "left_children": [1, -1, 3, 5, -1, 7, 9, -1, -1, -1, -1],
            "loss_changes": [
              2.5574702e3, 0, 9.3792474e2, 3.701511e2, 0, 1.0199591e2,
              5.0439728e1, 0, 0, 0, 0
            ],
            "parents": [2147483647, 0, 0, 2, 2, 3, 3, 5, 5, 6, 6],
            "right_children": [2, -1, 4, 6, -1, 8, 10, -1, -1, -1, -1],
            "split_conditions": [
              3, -1.9705403, 6.9e1, 7, 1.7510661, 7.1e1, 4.8e1, -8.1675166e-1,
              1.7241345e-1, 6.202342e-1, 9.3394e-2
            ],
            "split_indices": [3, 0, 3, 0, 0, 5, 5, 0, 0, 0, 0],
            "split_type": [0, 0, 0, 0, 0, 0, 0, 0, 0, 0, 0],
            "sum_hessian": [2.1e1, 4, 1.7e1, 1.3e1, 4, 4, 9, 3, 1, 6, 3],
            "tree_param": {
              "num_deleted": "0",
              "num_feature": "8",
              "num_nodes": "11",
              "size_leaf_vector": "1"
            }
          },
          {
            "base_weights": [
              -3.3520594e-1, -8.7256975, 8.848531, -1.30028e1, -1.3719407e-1,
              7.178329e-1, 1.33920965e1, -4.051996e-1, -1.5311068, 1.6774673,
              -3.6979198e-1, 3.752037e-1, -5.709492e-1, 1.6180047, 4.2814813,
              -2.8396035e-2, 2.42593e-1, 1.8829346e-2, 6.233929e-1
            ],
            "categories": [],
            "categories_nodes": [],
            "categories_segments": [],
            "categories_sizes": [],
            "default_left": [
              0, 1, 0, 0, 0, 0, 0, 0, 0, 0, 0, 0, 0, 0, 0, 0, 0, 0, 0
            ],
            "id": 9,
            "left_children": [
              1, 3, 5, 7, 9, 11, 13, -1, -1, 15, -1, -1, -1, -1, 17, -1, -1, -1,
              -1
            ],
            "loss_changes": [
              1.772443e3, 4.3902307e2, 3.967527e2, 1.0324634e2, 3.8510696e1,
              1.189313e2, 1.08525024e2, 0, 0, 6.5610886, 0, 0, 0, 0,
              2.2801388e1, 0, 0, 0, 0
            ],
            "parents": [
              2147483647, 0, 0, 1, 1, 2, 2, 3, 3, 4, 4, 5, 5, 6, 6, 9, 9, 14, 14
            ],
            "right_children": [
              2, 4, 6, 8, 10, 12, 14, -1, -1, 16, -1, -1, -1, -1, 18, -1, -1,
              -1, -1
            ],
            "split_conditions": [
              5e1, 4.3e1, 8.660254e-1, -5e-1, 3.6e1, 2.024e3, 5.7e1,
              -4.051996e-1, -1.5311068, 2.9e1, -3.6979198e-1, 3.752037e-1,
              -5.709492e-1, 1.6180047, 2.024e3, -2.8396035e-2, 2.42593e-1,
              1.8829346e-2, 6.233929e-1
            ],
            "split_indices": [
              3, 5, 7, 6, 3, 1, 4, 0, 0, 3, 0, 0, 0, 0, 1, 0, 0, 0, 0
            ],
            "split_type": [
              0, 0, 0, 0, 0, 0, 0, 0, 0, 0, 0, 0, 0, 0, 0, 0, 0, 0, 0
            ],
            "sum_hessian": [
              2.1e1, 1.1e1, 1e1, 7, 4, 4, 6, 2, 5, 3, 1, 3, 1, 4, 2, 1, 2, 1, 1
            ],
            "tree_param": {
              "num_deleted": "0",
              "num_feature": "8",
              "num_nodes": "19",
              "size_leaf_vector": "1"
            }
          },
          {
            "base_weights": [
              3.576844e-1, -1.6904083, 4.450597, 1.3916649, 1.7103142,
              -3.6792202, 4.233709, 4.424015e-1, -5.767095e-1, 8.994713e-2,
              7.418035e-1
            ],
            "categories": [],
            "categories_nodes": [],
            "categories_segments": [],
            "categories_sizes": [],
            "default_left": [0, 0, 0, 0, 0, 0, 0, 0, 0, 0, 0],
            "id": 10,
            "left_children": [1, -1, 3, 5, -1, 7, 9, -1, -1, -1, -1],
            "loss_changes": [
              1.8415057e3, 0, 7.889669e2, 2.74987e2, 0, 1.4394351e2,
              1.20735275e2, 0, 0, 0, 0
            ],
            "parents": [2147483647, 0, 0, 2, 2, 3, 3, 5, 5, 6, 6],
            "right_children": [2, -1, 4, 6, -1, 8, 10, -1, -1, -1, -1],
            "split_conditions": [
              3, -1.6904083, 7.5e1, 7, 1.7103142, 2, -5e-1, 4.424015e-1,
              -5.767095e-1, 8.994713e-2, 7.418035e-1
            ],
            "split_indices": [3, 0, 3, 0, 0, 0, 6, 0, 0, 0, 0],
            "split_type": [0, 0, 0, 0, 0, 0, 0, 0, 0, 0, 0],
            "sum_hessian": [2.4e1, 4, 2e1, 1.7e1, 3, 6, 1.1e1, 1, 5, 6, 5],
            "tree_param": {
              "num_deleted": "0",
              "num_feature": "8",
              "num_nodes": "11",
              "size_leaf_vector": "1"
            }
          },
          {
            "base_weights": [
              7.931909e-1, -1.2647546e1, 4.9958873, -1.5551757, 9.367561e-2,
              -8.479231e-1, 1.0340109e1, 8.591758e-1, -4.2818127, 4.1408334,
              1.378282e1, -5.4092115e-1, 1.804987e-1, 7.1185285e-1,
              1.6167775e-1, 6.179926e-1, 1.6039286
            ],
            "categories": [],
            "categories_nodes": [],
            "categories_segments": [],
            "categories_sizes": [],
            "default_left": [1, 1, 0, 0, 0, 0, 0, 0, 0, 0, 0, 0, 0, 0, 0, 0, 0],
            "id": 11,
            "left_children": [
              1, 3, 5, -1, -1, 7, 9, -1, 11, 13, 15, -1, -1, -1, -1, -1, -1
            ],
            "loss_changes": [
              1.4188817e3, 2.5127832e2, 6.021493e2, 0, 0, 3.6093655e2,
              1.5635083e2, 0, 6.466153e1, 2.6070274e1, 3.8125, 0, 0, 0, 0, 0, 0
            ],
            "parents": [
              2147483647, 0, 0, 1, 1, 2, 2, 5, 5, 6, 6, 8, 8, 9, 9, 10, 10
            ],
            "right_children": [
              2, 4, 6, -1, -1, 8, 10, -1, 12, 14, 16, -1, -1, -1, -1, -1, -1
            ],
            "split_conditions": [
              2, 3, 5e-1, -1.5551757, 9.367561e-2, 2.024e3, -2.4492937e-16,
              8.591758e-1, 7.1e1, 3.3e1, 2, -5.4092115e-1, 1.804987e-1,
              7.1185285e-1, 1.6167775e-1, 6.179926e-1, 1.6039286
            ],
            "split_indices": [
              5, 4, 7, 0, 0, 1, 6, 0, 5, 5, 0, 0, 0, 0, 0, 0, 0
            ],
            "split_type": [0, 0, 0, 0, 0, 0, 0, 0, 0, 0, 0, 0, 0, 0, 0, 0, 0],
            "sum_hessian": [
              2.3e1, 5, 1.8e1, 4, 1, 9, 9, 2, 7, 4, 5, 6, 1, 1, 3, 2, 3
            ],
            "tree_param": {
              "num_deleted": "0",
              "num_feature": "8",
              "num_nodes": "17",
              "size_leaf_vector": "1"
            }
          },
          {
            "base_weights": [
              6.4545507e-3, -1.4307617, 3.7729757, 2.4692167e-1, 1.3596543,
              5.7713675, -2.2866375, 8.0189735e-1, 1.5999731e-1, -4.7762766e-1,
              5.944492e-1
            ],
            "categories": [],
            "categories_nodes": [],
            "categories_segments": [],
            "categories_sizes": [],
            "default_left": [0, 0, 0, 0, 0, 0, 0, 0, 0, 0, 0],
            "id": 12,
            "left_children": [1, -1, 3, 5, -1, 7, 9, -1, -1, -1, -1],
            "loss_changes": [
              1.29401e3, 0, 6.5477277e2, 2.231447e2, 0, 3.4048096e1, 2.538105e2,
              0, 0, 0, 0
            ],
            "parents": [2147483647, 0, 0, 2, 2, 3, 3, 5, 5, 6, 6],
            "right_children": [2, -1, 4, 6, -1, 8, 10, -1, -1, -1, -1],
            "split_conditions": [
              3, -1.4307617, 8.660254e-1, 2.024e3, 1.3596543, 5.4e1, 7.1e1,
              8.0189735e-1, 1.5999731e-1, -4.7762766e-1, 5.944492e-1
            ],
            "split_indices": [3, 0, 7, 1, 0, 3, 5, 0, 0, 0, 0],
            "split_type": [0, 0, 0, 0, 0, 0, 0, 0, 0, 0, 0],
            "sum_hessian": [2.2e1, 4, 1.8e1, 1.4e1, 4, 4, 1e1, 2, 2, 8, 2],
            "tree_param": {
              "num_deleted": "0",
              "num_feature": "8",
              "num_nodes": "11",
              "size_leaf_vector": "1"
            }
          },
          {
            "base_weights": [
              1.054879, -1.5939895, 1.40355015e1, -1.1089137, 7.339268e-1,
              4.0782472e-1, 1.5995171, -3.4480932, 3.3284914, 3.2139894e-1,
              -5.0941056e-1, 7.7783835e-1, 2.105664e-1
            ],
            "categories": [],
            "categories_nodes": [],
            "categories_segments": [],
            "categories_sizes": [],
            "default_left": [0, 0, 0, 0, 0, 0, 0, 0, 0, 0, 0, 0, 0],
            "id": 13,
            "left_children": [1, 3, 5, -1, 7, -1, -1, 9, 11, -1, -1, -1, -1],
            "loss_changes": [
              8.1320355e2, 4.5021674e2, 1.2819458e1, 0, 1.959358e2, 0, 0,
              9.3133484e1, 4.3477272e1, 0, 0, 0, 0
            ],
            "parents": [2147483647, 0, 0, 1, 1, 2, 2, 4, 4, 7, 7, 8, 8],
            "right_children": [2, 4, 6, -1, 8, -1, -1, 10, 12, -1, -1, -1, -1],
            "split_conditions": [
              7.5e1, 2, 2, -1.1089137, 7, 4.0782472e-1, 1.5995171, 2, 2e1,
              3.2139894e-1, -5.0941056e-1, 7.7783835e-1, 2.105664e-1
            ],
            "split_indices": [3, 3, 0, 0, 0, 0, 0, 0, 3, 0, 0, 0, 0],
            "split_type": [0, 0, 0, 0, 0, 0, 0, 0, 0, 0, 0, 0, 0],
            "sum_hessian": [
              2.2e1, 1.9e1, 3, 3, 1.6e1, 1, 2, 6, 1e1, 1, 5, 1, 9
            ],
            "tree_param": {
              "num_deleted": "0",
              "num_feature": "8",
              "num_nodes": "13",
              "size_leaf_vector": "1"
            }
          },
          {
            "base_weights": [
              -6.446976e-1, -1.1352282e1, 3.172373, -1.2395777, -3.067402e-1,
              -9.2508334e-1, 9.158037, -4.3765545, 1.672408, 1.4843808,
              3.9149666, 1.6722183e-1, -6.3068026e-1, -9.375e-2, 2.9038712e-1,
              -1.05797194e-1, 5.422694e-1
            ],
            "categories": [],
            "categories_nodes": [],
            "categories_segments": [],
            "categories_sizes": [],
            "default_left": [0, 0, 0, 0, 0, 0, 0, 0, 0, 0, 0, 0, 0, 0, 0, 0, 0],
            "id": 14,
            "left_children": [
              1, 3, 5, -1, -1, 7, 9, 11, 13, -1, 15, -1, -1, -1, -1, -1, -1
            ],
            "loss_changes": [
              9.3518896e2, 1.3848633e1, 4.2541388e2, 0, 0, 1.0593622e2,
              1.505633e2, 6.8924484e1, 2.5220417e1, 0, 4.322625e1, 0, 0, 0, 0,
              0, 0
            ],
            "parents": [
              2147483647, 0, 0, 1, 1, 2, 2, 5, 5, 6, 6, 7, 7, 8, 8, 10, 10
            ],
            "right_children": [
              2, 4, 6, -1, -1, 8, 10, 12, 14, -1, 16, -1, -1, -1, -1, -1, -1
            ],
            "split_conditions": [
              2.2e1, 2.024e3, 8.660254e-1, -1.2395777, -3.067402e-1, 6, 5.1e1,
              3.5e1, 3.3e1, 1.4843808, -2.4492937e-16, 1.6722183e-1,
              -6.3068026e-1, -9.375e-2, 2.9038712e-1, -1.05797194e-1,
              5.422694e-1
            ],
            "split_indices": [
              3, 1, 7, 0, 0, 0, 4, 3, 3, 0, 6, 0, 0, 0, 0, 0, 0
            ],
            "split_type": [0, 0, 0, 0, 0, 0, 0, 0, 0, 0, 0, 0, 0, 0, 0, 0, 0],
            "sum_hessian": [
              2.1e1, 5, 1.6e1, 4, 1, 1e1, 6, 4, 6, 2, 4, 1, 3, 2, 4, 1, 3
            ],
            "tree_param": {
              "num_deleted": "0",
              "num_feature": "8",
              "num_nodes": "17",
              "size_leaf_vector": "1"
            }
          },
          {
            "base_weights": [
              1.1687783, -4.6975586e-1, 1.2795102e1, -7.2384367, 1.4365307,
              3.6466256e-1, 1.5546029, -9.3277687e-1, 5.5944443e-2, 7.471302e-1,
              2.1522796e-1, -3.2767794e-1, 3.2953203e-1
            ],
            "categories": [],
            "categories_nodes": [],
            "categories_segments": [],
            "categories_sizes": [],
            "default_left": [0, 1, 0, 1, 0, 0, 0, 0, 0, 0, 0, 0, 0],
            "id": 15,
            "left_children": [1, 3, 5, 7, 9, -1, -1, -1, -1, -1, 11, -1, -1],
            "loss_changes": [
              4.6321365e2, 2.942652e2, 1.8809814e1, 8.6680176e1, 1.3105705e2, 0,
              0, 0, 0, 0, 1.8288933e2, 0, 0
            ],
            "parents": [2147483647, 0, 0, 1, 1, 2, 2, 3, 3, 4, 4, 10, 10],
            "right_children": [2, 4, 6, 8, 10, -1, -1, -1, -1, -1, 12, -1, -1],
            "split_conditions": [
              1.2e1, 2, 2.024e3, 3, 2e1, 3.6466256e-1, 1.5546029, -9.3277687e-1,
              5.5944443e-2, 7.471302e-1, 5e-1, -3.2767794e-1, 3.2953203e-1
            ],
            "split_indices": [0, 5, 1, 4, 5, 0, 0, 0, 0, 0, 7, 0, 0],
            "split_type": [0, 0, 0, 0, 0, 0, 0, 0, 0, 0, 0, 0, 0],
            "sum_hessian": [
              2.3e1, 2.1e1, 2, 4, 1.7e1, 1, 1, 3, 1, 2, 1.5e1, 7, 8
            ],
            "tree_param": {
              "num_deleted": "0",
              "num_feature": "8",
              "num_nodes": "13",
              "size_leaf_vector": "1"
            }
          },
          {
            "base_weights": [
              9.028304e-1, -1.0657893, 3.8976088, 1.5705658, 1.2231379e1,
              7.635687e-1, 6.5717864e-1, 3.4384385e-1, 1.4016212, -2.3559879e-1,
              3.5881978e-1
            ],
            "categories": [],
            "categories_nodes": [],
            "categories_segments": [],
            "categories_sizes": [],
            "default_left": [0, 0, 0, 0, 0, 0, 0, 0, 0, 0, 0],
            "id": 16,
            "left_children": [1, -1, 3, 5, 7, -1, 9, -1, -1, -1, -1],
            "loss_changes": [
              8.3784186e2, 0, 3.4925763e2, 8.361885e1, 1.4581787e1, 0,
              1.4092848e2, 0, 0, 0, 0
            ],
            "parents": [2147483647, 0, 0, 2, 2, 3, 3, 4, 4, 6, 6],
            "right_children": [2, -1, 4, 6, 8, -1, 10, -1, -1, -1, -1],
            "split_conditions": [
              3, -1.0657893, 7.1e1, 2e1, 2, 7.635687e-1, 5e1, 3.4384385e-1,
              1.4016212, -2.3559879e-1, 3.5881978e-1
            ],
            "split_indices": [3, 0, 3, 3, 0, 0, 3, 0, 0, 0, 0],
            "split_type": [0, 0, 0, 0, 0, 0, 0, 0, 0, 0, 0],
            "sum_hessian": [2.2e1, 4, 1.8e1, 1.5e1, 3, 1, 1.4e1, 1, 2, 7, 7],
            "tree_param": {
              "num_deleted": "0",
              "num_feature": "8",
              "num_nodes": "11",
              "size_leaf_vector": "1"
            }
          },
          {
            "base_weights": [
              -2.766969e-1, -9.8052615e-1, 2.3854988, -8.549492e-1, 7.5997667,
              7.2539026e-1, -2.251563, 1.2639364, 3.0560555, -3.3142704e-1,
              1.687079e-1, -1.3492489e-1, 4.494694e-1
            ],
            "categories": [],
            "categories_nodes": [],
            "categories_segments": [],
            "categories_sizes": [],
            "default_left": [0, 0, 0, 0, 0, 0, 0, 0, 0, 0, 0, 0, 0],
            "id": 17,
            "left_children": [1, -1, 3, 5, 7, -1, 9, -1, 11, -1, -1, -1, -1],
            "loss_changes": [
              5.814624e2, 0, 3.106356e2, 1.5223184e2, 1.2166269e2, 0,
              5.163329e1, 0, 3.775266e1, 0, 0, 0, 0
            ],
            "parents": [2147483647, 0, 0, 2, 2, 3, 3, 4, 4, 6, 6, 8, 8],
            "right_children": [2, -1, 4, 6, 8, -1, 10, -1, 12, -1, -1, -1, -1],
            "split_conditions": [
              3, -9.8052615e-1, 8.660254e-1, 2e1, 5.1e1, 7.2539026e-1, 1e1,
              1.2639364, -2.4492937e-16, -3.3142704e-1, 1.687079e-1,
              -1.3492489e-1, 4.494694e-1
            ],
            "split_indices": [3, 0, 7, 3, 4, 0, 0, 0, 6, 0, 0, 0, 0],
            "split_type": [0, 0, 0, 0, 0, 0, 0, 0, 0, 0, 0, 0, 0],
            "sum_hessian": [
              2.1e1, 4, 1.7e1, 1.1e1, 6, 1, 1e1, 2, 4, 8, 2, 1, 3
            ],
            "tree_param": {
              "num_deleted": "0",
              "num_feature": "8",
              "num_nodes": "13",
              "size_leaf_vector": "1"
            }
          },
          {
            "base_weights": [
              -1.8251505e-1, -7.093449e-1, 1.2820245, 4.019947e-1, 5.8415186e-1,
              3.642521, -1.6967033, 6.4677644e-1, 1.2188705e-1, -3.5120615e-1,
              4.314939e-1
            ],
            "categories": [],
            "categories_nodes": [],
            "categories_segments": [],
            "categories_sizes": [],
            "default_left": [0, 0, 0, 0, 0, 0, 0, 0, 0, 0, 0],
            "id": 18,
            "left_children": [1, -1, 3, 5, -1, 7, 9, -1, -1, -1, -1],
            "loss_changes": [
              2.3176337e2, 0, 7.388906e1, 1.2179534e2, 0, 4.0048454e1,
              1.3520045e2, 0, 0, 0, 0
            ],
            "parents": [2147483647, 0, 0, 2, 2, 3, 3, 5, 5, 6, 6],
            "right_children": [2, -1, 4, 6, -1, 8, 10, -1, -1, -1, -1],
            "split_conditions": [
              2, -7.093449e-1, 2.025e3, 2.024e3, 5.8415186e-1, 5.4e1,
              8.660254e-1, 6.4677644e-1, 1.2188705e-1, -3.5120615e-1,
              4.314939e-1
            ],
            "split_indices": [3, 0, 1, 1, 0, 3, 7, 0, 0, 0, 0],
            "split_type": [0, 0, 0, 0, 0, 0, 0, 0, 0, 0, 0],
            "sum_hessian": [2.1e1, 3, 1.8e1, 1.6e1, 2, 6, 1e1, 2, 4, 8, 2],
            "tree_param": {
              "num_deleted": "0",
              "num_feature": "8",
              "num_nodes": "11",
              "size_leaf_vector": "1"
            }
          },
          {
            "base_weights": [
              1.5304643e-1, -2.0752437, 1.06991625e1, -8.7245893e-1,
              2.7955464e-1, 2.7497062e-1, 1.2432412, 4.755851, -1.2358403,
              6.036579e-1, 4.568329e-2, -2.6918277e-1, 2.3490916e-1
            ],
            "categories": [],
            "categories_nodes": [],
            "categories_segments": [],
            "categories_sizes": [],
            "default_left": [0, 0, 0, 0, 0, 0, 0, 0, 0, 0, 0, 0, 0],
            "id": 19,
            "left_children": [1, 3, 5, -1, 7, -1, -1, 9, 11, -1, -1, -1, -1],
            "loss_changes": [
              5.3919904e2, 2.999385e2, 2.092807e1, 0, 1.07627815e2, 0, 0,
              1.9265785e1, 6.895874e1, 0, 0, 0, 0
            ],
            "parents": [2147483647, 0, 0, 1, 1, 2, 2, 4, 4, 7, 7, 8, 8],
            "right_children": [2, 4, 6, -1, 8, -1, -1, 10, 12, -1, -1, -1, -1],
            "split_conditions": [
              7.5e1, 3, 2, -8.7245893e-1, 2e1, 2.7497062e-1, 1.2432412, 5.4e1,
              8.660254e-1, 6.036579e-1, 4.568329e-2, -2.6918277e-1, 2.3490916e-1
            ],
            "split_indices": [3, 3, 0, 0, 5, 0, 0, 3, 7, 0, 0, 0, 0],
            "split_type": [0, 0, 0, 0, 0, 0, 0, 0, 0, 0, 0, 0, 0],
            "sum_hessian": [
              2.1e1, 1.8e1, 3, 4, 1.4e1, 1, 2, 3, 1.1e1, 2, 1, 8, 3
            ],
            "tree_param": {
              "num_deleted": "0",
              "num_feature": "8",
              "num_nodes": "13",
              "size_leaf_vector": "1"
            }
          },
          {
            "base_weights": [
              7.216403e-1, -8.026623e-1, 2.872624, 1.0245461, 1.0008799e1,
              -2.4206965, 3.1238327, 2.612221e-1, 1.1603584, -3.6061984e-1,
              2.3461571e-1, 6.2659895e-1, 2.1830182e-1
            ],
            "categories": [],
            "categories_nodes": [],
            "categories_segments": [],
            "categories_sizes": [],
            "default_left": [0, 0, 0, 0, 0, 0, 0, 0, 0, 0, 0, 0, 0],
            "id": 20,
            "left_children": [1, -1, 3, 5, 7, 9, 11, -1, -1, -1, -1, -1, -1],
            "loss_changes": [
              4.7467435e2, 0, 2.5350964e2, 1.3051523e2, 1.6872742e1, 4.80185e1,
              1.883928e1, 0, 0, 0, 0, 0, 0
            ],
            "parents": [2147483647, 0, 0, 2, 2, 3, 3, 4, 4, 5, 5, 6, 6],
            "right_children": [2, -1, 4, 6, 8, 10, 12, -1, -1, -1, -1, -1, -1],
            "split_conditions": [
              3, -8.026623e-1, 7.5e1, 7, 2, 7.1e1, 2e1, 2.612221e-1, 1.1603584,
              -3.6061984e-1, 2.3461571e-1, 6.2659895e-1, 2.1830182e-1
            ],
            "split_indices": [3, 0, 3, 0, 0, 5, 3, 0, 0, 0, 0, 0, 0],
            "split_type": [0, 0, 0, 0, 0, 0, 0, 0, 0, 0, 0, 0, 0],
            "sum_hessian": [
              2.3e1, 4, 1.9e1, 1.6e1, 3, 6, 1e1, 1, 2, 5, 1, 1, 9
            ],
            "tree_param": {
              "num_deleted": "0",
              "num_feature": "8",
              "num_nodes": "13",
              "size_leaf_vector": "1"
            }
          },
          {
            "base_weights": [
              1.637008e-2, -1.6064947, 1.0830013, -5.4612026, 1.4184107,
              -7.313363e-1, 6.8090564e-1, -3.6343747e-1, 2.2081525,
              -1.2074909e-1, 2.2288494e-1, 3.348792e-2, 4.3891045e-1
            ],
            "categories": [],
            "categories_nodes": [],
            "categories_segments": [],
            "categories_sizes": [],
            "default_left": [0, 0, 0, 1, 0, 0, 0, 0, 0, 0, 0, 0, 0],
            "id": 21,
            "left_children": [1, 3, -1, 5, 7, -1, 9, -1, 11, -1, -1, -1, -1],
            "loss_changes": [
              4.034781e2, 2.4094875e2, 0, 1.07365234e2, 5.591001e1, 0,
              1.1460711e1, 0, 4.347089e1, 0, 0, 0, 0
            ],
            "parents": [2147483647, 0, 0, 1, 1, 3, 3, 4, 4, 6, 6, 8, 8],
            "right_children": [2, 4, -1, 6, 8, -1, 10, -1, 12, -1, -1, -1, -1],
            "split_conditions": [
              7.5e1, 7, 1.0830013, 6.9e1, 2.023e3, -7.313363e-1, 4,
              -3.6343747e-1, -5e-1, -1.2074909e-1, 2.2288494e-1, 3.348792e-2,
              4.3891045e-1
            ],
            "split_indices": [3, 0, 0, 5, 1, 0, 0, 0, 6, 0, 0, 0, 0],
            "split_type": [0, 0, 0, 0, 0, 0, 0, 0, 0, 0, 0, 0, 0],
            "sum_hessian": [
              2.1e1, 1.9e1, 2, 8, 1.1e1, 6, 2, 1, 1e1, 1, 1, 6, 4
            ],
            "tree_param": {
              "num_deleted": "0",
              "num_feature": "8",
              "num_nodes": "13",
              "size_leaf_vector": "1"
            }
          },
          {
            "base_weights": [
              -2.837954e-1, -1.7151796, 9.353364, -6.873004e-1, 3.8391352e-3,
              2.5531444e-1, 1.1476902, 5.733234e-1, -7.6033616e-1,
              -1.5751983e-1, 1.8743344e-1
            ],
            "categories": [],
            "categories_nodes": [],
            "categories_segments": [],
            "categories_sizes": [],
            "default_left": [0, 0, 0, 0, 0, 0, 0, 0, 0, 0, 0],
            "id": 22,
            "left_children": [1, 3, 5, -1, 7, -1, -1, -1, 9, -1, -1],
            "loss_changes": [
              3.195212e2, 1.7735431e2, 1.4019379e1, 0, 7.4411385e1, 0, 0, 0,
              3.515585e1, 0, 0
            ],
            "parents": [2147483647, 0, 0, 1, 1, 2, 2, 4, 4, 8, 8],
            "right_children": [2, 4, 6, -1, 8, -1, -1, -1, 10, -1, -1],
            "split_conditions": [
              1, 3, 2.024e3, -6.873004e-1, 2e1, 2.5531444e-1, 1.1476902,
              5.733234e-1, 8.660254e-1, -1.5751983e-1, 1.8743344e-1
            ],
            "split_indices": [7, 3, 1, 0, 3, 0, 0, 0, 7, 0, 0],
            "split_type": [0, 0, 0, 0, 0, 0, 0, 0, 0, 0, 0],
            "sum_hessian": [
              2.1e1, 1.9e1, 2, 4, 1.5e1, 1, 1, 1, 1.4e1, 1.1e1, 3
            ],
            "tree_param": {
              "num_deleted": "0",
              "num_feature": "8",
              "num_nodes": "11",
              "size_leaf_vector": "1"
            }
          },
          {
            "base_weights": [
              1.0306759e-1, -1.6189033, 8.256662, -6.323163e-1, 5.7110213e-2,
              1.8463936e-1, 9.777954e-1, 1.3788148, -3.9222813, 5.4465735e-1,
              5.138756e-2, -1.0683556e-1, -4.5174715e-1
            ],
            "categories": [],
            "categories_nodes": [],
            "categories_segments": [],
            "categories_sizes": [],
            "default_left": [0, 0, 0, 0, 0, 0, 0, 0, 0, 0, 0, 0, 0],
            "id": 23,
            "left_children": [1, 3, 5, -1, 7, -1, -1, 9, 11, -1, -1, -1, -1],
            "loss_changes": [
              3.222523e2, 1.5016476e2, 2.0953613e1, 0, 8.43018e1, 0, 0,
              3.942151e1, 1.9682465, 0, 0, 0, 0
            ],
            "parents": [2147483647, 0, 0, 1, 1, 2, 2, 4, 4, 7, 7, 8, 8],
            "right_children": [2, 4, 6, -1, 8, -1, -1, 10, 12, -1, -1, -1, -1],
            "split_conditions": [
              7.5e1, 3, 2, -6.323163e-1, 5.7e1, 1.8463936e-1, 9.777954e-1, 2e1,
              4.3e1, 5.4465735e-1, 5.138756e-2, -1.0683556e-1, -4.5174715e-1
            ],
            "split_indices": [3, 3, 0, 0, 4, 0, 0, 3, 3, 0, 0, 0, 0],
            "split_type": [0, 0, 0, 0, 0, 0, 0, 0, 0, 0, 0, 0, 0],
            "sum_hessian": [
              2.1e1, 1.8e1, 3, 4, 1.4e1, 1, 2, 1.1e1, 3, 1, 1e1, 1, 2
            ],
            "tree_param": {
              "num_deleted": "0",
              "num_feature": "8",
              "num_nodes": "13",
              "size_leaf_vector": "1"
            }
          },
          {
            "base_weights": [
              1.2408321, -1.1736381e-1, 7.7216034, 6.985593e-1, -4.973781e-1,
              1.7540741e-1, 9.126088e-1, -3.2832482e-1, 1.4014882, 3.9496824e-1,
              5.096217e-2
            ],
            "categories": [],
            "categories_nodes": [],
            "categories_segments": [],
            "categories_sizes": [],
            "default_left": [0, 0, 0, 0, 0, 0, 0, 0, 0, 0, 0],
            "id": 24,
            "left_children": [1, 3, 5, 7, -1, -1, -1, -1, 9, -1, -1],
            "loss_changes": [
              2.0335583e2, 8.272374e1, 1.751738e1, 5.4982132e1, 0, 0, 0, 0,
              3.434954e1, 0, 0
            ],
            "parents": [2147483647, 0, 0, 1, 1, 2, 2, 3, 3, 8, 8],
            "right_children": [2, 4, 6, 8, -1, -1, -1, -1, 10, -1, -1],
            "split_conditions": [
              7.5e1, 6.9e1, 2, 2, -4.973781e-1, 1.7540741e-1, 9.126088e-1,
              -3.2832482e-1, 2e1, 3.9496824e-1, 5.096217e-2
            ],
            "split_indices": [3, 4, 0, 3, 0, 0, 0, 0, 5, 0, 0],
            "split_type": [0, 0, 0, 0, 0, 0, 0, 0, 0, 0, 0],
            "sum_hessian": [
              2.2e1, 1.9e1, 3, 1.7e1, 2, 1, 2, 2, 1.5e1, 3, 1.2e1
            ],
            "tree_param": {
              "num_deleted": "0",
              "num_feature": "8",
              "num_nodes": "11",
              "size_leaf_vector": "1"
            }
          },
          {
            "base_weights": [
              5.667069e-1, -5.665498e-1, 2.2663913, 1.008169, 8.221446,
              -8.0015683e-1, 2.503551, 2.3743133e-1, 9.9578553e-1, -2.56189e-1,
              2.9900286e-1, 4.2074838e-1, 2.9890824e-2
            ],
            "categories": [],
            "categories_nodes": [],
            "categories_segments": [],
            "categories_sizes": [],
            "default_left": [0, 0, 0, 0, 0, 0, 0, 0, 0, 0, 0, 0, 0],
            "id": 25,
            "left_children": [1, -1, 3, 5, 7, 9, 11, -1, -1, -1, -1, -1, -1],
            "loss_changes": [
              2.4588142e2, 0, 1.2658146e2, 4.5269444e1, 6.8159943, 6.1078476e1,
              3.2551414e1, 0, 0, 0, 0, 0, 0
            ],
            "parents": [2147483647, 0, 0, 2, 2, 3, 3, 4, 4, 5, 5, 6, 6],
            "right_children": [2, -1, 4, 6, 8, 10, 12, -1, -1, -1, -1, -1, -1],
            "split_conditions": [
              3, -5.665498e-1, 1.2e1, 7, 2.024e3, 2.025e3, 3.6e1, 2.3743133e-1,
              9.9578553e-1, -2.56189e-1, 2.9900286e-1, 4.2074838e-1,
              2.9890824e-2
            ],
            "split_indices": [3, 0, 0, 0, 1, 1, 4, 0, 0, 0, 0, 0, 0],
            "split_type": [0, 0, 0, 0, 0, 0, 0, 0, 0, 0, 0, 0, 0],
            "sum_hessian": [2.1e1, 4, 1.7e1, 1.5e1, 2, 7, 8, 1, 1, 5, 2, 4, 4],
            "tree_param": {
              "num_deleted": "0",
              "num_feature": "8",
              "num_nodes": "13",
              "size_leaf_vector": "1"
            }
          },
          {
            "base_weights": [
              5.8509356e-1, -6.9174236e-1, 6.823, -5.331055e-1, 4.405512e-1,
              2.7906927e-1, 9.459961e-1, 1.0044657, -4.2910406e-1, 4.766384e-1,
              4.359122e-2
            ],
            "categories": [],
            "categories_nodes": [],
            "categories_segments": [],
            "categories_sizes": [],
            "default_left": [0, 0, 0, 0, 0, 0, 0, 0, 0, 0, 0],
            "id": 26,
            "left_children": [1, 3, 5, -1, 7, -1, -1, 9, -1, -1, -1],
            "loss_changes": [
              1.8790977e2, 1.0740987e2, 1.6132294e1, 0, 4.9669827e1, 0, 0,
              3.2143906e1, 0, 0, 0
            ],
            "parents": [2147483647, 0, 0, 1, 1, 2, 2, 4, 4, 7, 7],
            "right_children": [2, 4, 6, -1, 8, -1, -1, 10, -1, -1, -1],
            "split_conditions": [
              7.5e1, 3, 3, -5.331055e-1, 7.1e1, 2.7906927e-1, 9.459961e-1, 2e1,
              -4.2910406e-1, 4.766384e-1, 4.359122e-2
            ],
            "split_indices": [3, 3, 0, 0, 3, 0, 0, 3, 0, 0, 0],
            "split_type": [0, 0, 0, 0, 0, 0, 0, 0, 0, 0, 0],
            "sum_hessian": [
              2.2e1, 1.9e1, 3, 3, 1.6e1, 2, 1, 1.5e1, 1, 1, 1.4e1
            ],
            "tree_param": {
              "num_deleted": "0",
              "num_feature": "8",
              "num_nodes": "11",
              "size_leaf_vector": "1"
            }
          },
          {
            "base_weights": [
              1.234547, 1.8336673e-1, 7.480507, -2.7456114e-1, 9.0415084e-1,
              2.233799e-1, 8.986961e-1, 3.294652, 9.9061966e-2, 4.4385323e-1,
              -6.84948e-3, -2.740067e-1, 1.2248074e-1
            ],
            "categories": [],
            "categories_nodes": [],
            "categories_segments": [],
            "categories_sizes": [],
            "default_left": [0, 0, 0, 0, 0, 0, 0, 0, 0, 0, 0, 0, 0],
            "id": 27,
            "left_children": [1, 3, 5, -1, 7, -1, -1, 9, 11, -1, -1, -1, -1],
            "loss_changes": [
              1.3650655e2, 4.2594505e1, 3.6367188, 0, 3.0466679e1, 0, 0,
              1.5692173e1, 4.4905827e1, 0, 0, 0, 0
            ],
            "parents": [2147483647, 0, 0, 1, 1, 2, 2, 4, 4, 7, 7, 8, 8],
            "right_children": [2, 4, 6, -1, 8, -1, -1, 10, 12, -1, -1, -1, -1],
            "split_conditions": [
              1, 2, 2.024e3, -2.7456114e-1, 2e1, 2.233799e-1, 8.986961e-1,
              5.4e1, 3.5e1, 4.4385323e-1, -6.84948e-3, -2.740067e-1,
              1.2248074e-1
            ],
            "split_indices": [7, 3, 1, 0, 5, 0, 0, 3, 5, 0, 0, 0, 0],
            "split_type": [0, 0, 0, 0, 0, 0, 0, 0, 0, 0, 0, 0, 0],
            "sum_hessian": [
              2e1, 1.8e1, 2, 3, 1.5e1, 1, 1, 3, 1.2e1, 2, 1, 3, 9
            ],
            "tree_param": {
              "num_deleted": "0",
              "num_feature": "8",
              "num_nodes": "13",
              "size_leaf_vector": "1"
            }
          },
          {
            "base_weights": [
              9.360238e-1, -4.709808, 2.452309, -2.5396907e-1, -6.695138e-1,
              1.0603554, 5.859317, 4.306139e-1, 4.7943833e-1, 3.0553398e-1,
              8.537613e-1, -1.4284347e-1, 1.8504134e-1
            ],
            "categories": [],
            "categories_nodes": [],
            "categories_segments": [],
            "categories_sizes": [],
            "default_left": [0, 0, 0, 0, 0, 0, 0, 0, 0, 0, 0, 0, 0],
            "id": 28,
            "left_children": [1, 3, 5, -1, -1, 7, 9, -1, 11, -1, -1, -1, -1],
            "loss_changes": [
              1.9988512e2, 4.5384064, 7.915019e1, 0, 0, 2.4332909e1,
              1.1464081e1, 0, 3.6646595e1, 0, 0, 0, 0
            ],
            "parents": [2147483647, 0, 0, 1, 1, 2, 2, 5, 5, 6, 6, 8, 8],
            "right_children": [2, 4, 6, -1, -1, 8, 10, -1, 12, -1, -1, -1, -1],
            "split_conditions": [
              3, 2, 6.9e1, -2.5396907e-1, -6.695138e-1, 2e1, 3, 4.306139e-1, 9,
              3.0553398e-1, 8.537613e-1, -1.4284347e-1, 1.8504134e-1
            ],
            "split_indices": [3, 3, 3, 0, 0, 3, 0, 0, 0, 0, 0, 0, 0],
            "split_type": [0, 0, 0, 0, 0, 0, 0, 0, 0, 0, 0, 0, 0],
            "sum_hessian": [
              2.1e1, 4, 1.7e1, 3, 1, 1.3e1, 4, 1, 1.2e1, 3, 1, 5, 7
            ],
            "tree_param": {
              "num_deleted": "0",
              "num_feature": "8",
              "num_nodes": "13",
              "size_leaf_vector": "1"
            }
          },
          {
            "base_weights": [
              2.3053049e-1, -8.938587e-1, 5.7948437, -4.4235234, 2.6502776e-1,
              2.3193029e-1, 8.110733e-1, -2.3492138e-1, -6.360381e-1,
              8.547625e-1, -4.290497e-1, 2.4593842e-1, -1.934868e-2
            ],
            "categories": [],
            "categories_nodes": [],
            "categories_segments": [],
            "categories_sizes": [],
            "default_left": [0, 0, 0, 0, 0, 0, 0, 0, 0, 0, 0, 0, 0],
            "id": 29,
            "left_children": [1, 3, 5, 7, 9, -1, -1, -1, -1, 11, -1, -1, -1],
            "loss_changes": [
              1.4907819e2, 8.2981964e1, 1.3384628e1, 5.1463165, 4.6652176e1, 0,
              0, 0, 0, 2.5706509e1, 0, 0, 0
            ],
            "parents": [2147483647, 0, 0, 1, 1, 2, 2, 3, 3, 4, 4, 9, 9],
            "right_children": [2, 4, 6, 8, 10, -1, -1, -1, -1, 12, -1, -1, -1],
            "split_conditions": [
              7.5e1, 3, 3, 2, 7.1e1, 2.3193029e-1, 8.110733e-1, -2.3492138e-1,
              -6.360381e-1, 3.6e1, -4.290497e-1, 2.4593842e-1, -1.934868e-2
            ],
            "split_indices": [3, 3, 0, 3, 3, 0, 0, 0, 0, 3, 0, 0, 0],
            "split_type": [0, 0, 0, 0, 0, 0, 0, 0, 0, 0, 0, 0, 0],
            "sum_hessian": [
              2.2e1, 1.9e1, 3, 4, 1.5e1, 2, 1, 3, 1, 1.4e1, 1, 5, 9
            ],
            "tree_param": {
              "num_deleted": "0",
              "num_feature": "8",
              "num_nodes": "13",
              "size_leaf_vector": "1"
            }
          },
          {
            "base_weights": [
              -8.745658e-2, -1.0238293, 6.496305, -4.155363, -4.2564727e-2,
              2.0392609e-1, 7.705197e-1, -2.1730228e-1, -6.0423625e-1,
              3.967863e-1, -5.412079e-1, -1.4952709e-1, 1.8567848e-1
            ],
            "categories": [],
            "categories_nodes": [],
            "categories_segments": [],
            "categories_sizes": [],
            "default_left": [0, 0, 0, 0, 0, 0, 0, 0, 0, 0, 0, 0, 0],
            "id": 30,
            "left_children": [1, 3, 5, 7, 9, -1, -1, -1, -1, -1, 11, -1, -1],
            "loss_changes": [
              1.4844276e2, 6.435326e1, 4.5134735e-1, 5.5731735, 3.614357e1, 0,
              0, 0, 0, 0, 3.938177e1, 0, 0
            ],
            "parents": [2147483647, 0, 0, 1, 1, 2, 2, 3, 3, 4, 4, 10, 10],
            "right_children": [2, 4, 6, 8, 10, -1, -1, -1, -1, -1, 12, -1, -1],
            "split_conditions": [
              1.2e1, 3, 2.024e3, 2, 2e1, 2.0392609e-1, 7.705197e-1,
              -2.1730228e-1, -6.0423625e-1, 3.967863e-1, 8.660254e-1,
              -1.4952709e-1, 1.8567848e-1
            ],
            "split_indices": [0, 3, 1, 3, 3, 0, 0, 0, 0, 0, 7, 0, 0],
            "split_type": [0, 0, 0, 0, 0, 0, 0, 0, 0, 0, 0, 0, 0],
            "sum_hessian": [
              2.2e1, 2e1, 2, 4, 1.6e1, 1, 1, 3, 1, 1, 1.5e1, 1.1e1, 4
            ],
            "tree_param": {
              "num_deleted": "0",
              "num_feature": "8",
              "num_nodes": "13",
              "size_leaf_vector": "1"
            }
          },
          {
            "base_weights": [
              1.7692591e-1, -9.0554696e-1, 5.274441, -5.3229914, 2.554108e-1,
              9.545212e-2, 6.3962406e-1, -9.045315e-2, -6.494301e-1,
              3.7694702e-1, -2.3015785e-1, -2.2292237e-1, 1.3502443e-1
            ],
            "categories": [],
            "categories_nodes": [],
            "categories_segments": [],
            "categories_sizes": [],
            "default_left": [0, 0, 0, 0, 0, 0, 0, 0, 0, 0, 1, 0, 0],
            "id": 31,
            "left_children": [1, 3, 5, 7, 9, -1, -1, -1, -1, -1, 11, -1, -1],
            "loss_changes": [
              1.2617053e2, 9.8800415e1, 1.3278984e1, 1.4827232e1, 2.8168648e1,
              0, 0, 0, 0, 0, 5.039992e1, 0, 0
            ],
            "parents": [2147483647, 0, 0, 1, 1, 2, 2, 3, 3, 4, 4, 10, 10],
            "right_children": [2, 4, 6, 8, 10, -1, -1, -1, -1, -1, 12, -1, -1],
            "split_conditions": [
              7.5e1, 4, 2, 2, 2, 9.545212e-2, 6.3962406e-1, -9.045315e-2,
              -6.494301e-1, 3.7694702e-1, 3.5e1, -2.2292237e-1, 1.3502443e-1
            ],
            "split_indices": [3, 0, 0, 3, 4, 0, 0, 0, 0, 0, 4, 0, 0],
            "split_type": [0, 0, 0, 0, 0, 0, 0, 0, 0, 0, 0, 0, 0],
            "sum_hessian": [
              2.1e1, 1.8e1, 3, 3, 1.5e1, 1, 2, 1, 2, 1, 1.4e1, 6, 8
            ],
            "tree_param": {
              "num_deleted": "0",
              "num_feature": "8",
              "num_nodes": "13",
              "size_leaf_vector": "1"
            }
          },
          {
            "base_weights": [
              3.4162384e-1, -3.9996603e-1, 5.9132714, -2.9884062, 4.850677e-1,
              1.8697853e-1, 7.000122e-1, -1.4198759, -5.415529e-1, 3.608808e-1,
              -1.3095033e-1, -1.8759716e-1, 2.0225335e-2, -7.3542446e-2,
              2.733579e-1
            ],
            "categories": [],
            "categories_nodes": [],
            "categories_segments": [],
            "categories_sizes": [],
            "default_left": [0, 1, 0, 0, 0, 0, 0, 1, 0, 0, 0, 0, 0, 0, 0],
            "id": 32,
            "left_children": [
              1, 3, 5, 7, 9, -1, -1, 11, -1, -1, 13, -1, -1, -1, -1
            ],
            "loss_changes": [
              1.0566204e2, 5.413929e1, 9.527588e-2, 1.5152714e1, 3.510962e1, 0,
              0, 4.0786514, 0, 0, 2.9714884e1, 0, 0, 0, 0
            ],
            "parents": [2147483647, 0, 0, 1, 1, 2, 2, 3, 3, 4, 4, 7, 7, 10, 10],
            "right_children": [
              2, 4, 6, 8, 10, -1, -1, 12, -1, -1, 14, -1, -1, -1, -1
            ],
            "split_conditions": [
              1.2e1, 2, 2.024e3, 1, 2e1, 1.8697853e-1, 7.000122e-1, 3,
              -5.415529e-1, 3.608808e-1, 7.1e1, -1.8759716e-1, 2.0225335e-2,
              -7.3542446e-2, 2.733579e-1
            ],
            "split_indices": [0, 5, 1, 6, 5, 0, 0, 4, 0, 0, 5, 0, 0, 0, 0],
            "split_type": [0, 0, 0, 0, 0, 0, 0, 0, 0, 0, 0, 0, 0, 0, 0],
            "sum_hessian": [
              2.4e1, 2.2e1, 2, 5, 1.7e1, 1, 1, 4, 1, 2, 1.5e1, 3, 1, 1.3e1, 2
            ],
            "tree_param": {
              "num_deleted": "0",
              "num_feature": "8",
              "num_nodes": "15",
              "size_leaf_vector": "1"
            }
          },
          {
            "base_weights": [
              3.9560926e-1, -3.344636e-1, 5.617607, -2.8077197, 5.5812466e-1,
              1.7762947e-1, 6.650116e-1, -1.3113626, -5.144753e-1, 3.36822e-1,
              -4.1102726e-2, -1.7352736e-1, 1.9214058e-2, -1.4778745e-1,
              1.0809534e-1
            ],
            "categories": [],
            "categories_nodes": [],
            "categories_segments": [],
            "categories_sizes": [],
            "default_left": [0, 1, 0, 0, 0, 0, 0, 1, 0, 0, 0, 0, 0, 0, 0],
            "id": 33,
            "left_children": [
              1, 3, 5, 7, 9, -1, -1, 11, -1, -1, 13, -1, -1, -1, -1
            ],
            "loss_changes": [
              9.337742e1, 5.0134243e1, 8.6006165e-2, 1.4235577e1, 2.8764505e1,
              0, 0, 3.520174, 0, 0, 2.577959e1, 0, 0, 0, 0
            ],
            "parents": [2147483647, 0, 0, 1, 1, 2, 2, 3, 3, 4, 4, 7, 7, 10, 10],
            "right_children": [
              2, 4, 6, 8, 10, -1, -1, 12, -1, -1, 14, -1, -1, -1, -1
            ],
            "split_conditions": [
              1.2e1, 2, 2.024e3, 1, 2e1, 1.7762947e-1, 6.650116e-1, 3,
              -5.144753e-1, 3.36822e-1, 5e-1, -1.7352736e-1, 1.9214058e-2,
              -1.4778745e-1, 1.0809534e-1
            ],
            "split_indices": [0, 5, 1, 6, 5, 0, 0, 4, 0, 0, 7, 0, 0, 0, 0],
            "split_type": [0, 0, 0, 0, 0, 0, 0, 0, 0, 0, 0, 0, 0, 0, 0],
            "sum_hessian": [
              2.3e1, 2.1e1, 2, 5, 1.6e1, 1, 1, 4, 1, 2, 1.4e1, 3, 1, 6, 8
            ],
            "tree_param": {
              "num_deleted": "0",
              "num_feature": "8",
              "num_nodes": "15",
              "size_leaf_vector": "1"
            }
          },
          {
            "base_weights": [
              5.8511275e-1, -2.8782603e-1, 5.3367286, -2.638262, 6.3832825e-1,
              1.687481e-1, 6.317612e-1, -8.5406995e-1, -4.887515e-1, 1.8332312,
              -1.6401627, -1.2604488e-1, 1.8253326e-2, -1.0036711e-1,
              2.7871564e-1, -3.822895e-1, 1.0892906e-1
            ],
            "categories": [],
            "categories_nodes": [],
            "categories_segments": [],
            "categories_sizes": [],
            "default_left": [0, 1, 0, 0, 0, 0, 0, 1, 0, 0, 0, 0, 0, 0, 0, 0, 0],
            "id": 34,
            "left_children": [
              1, 3, 5, 7, 9, -1, -1, 11, -1, 13, 15, -1, -1, -1, -1, -1, -1
            ],
            "loss_changes": [
              8.034557e1, 3.8690807e1, 7.76062e-2, 1.589122e1, 3.8400276e1, 0,
              0, 1.9150879, 0, 2.715312e1, 3.3952576e1, 0, 0, 0, 0, 0, 0
            ],
            "parents": [
              2147483647, 0, 0, 1, 1, 2, 2, 3, 3, 4, 4, 7, 7, 9, 9, 10, 10
            ],
            "right_children": [
              2, 4, 6, 8, 10, -1, -1, 12, -1, 14, 16, -1, -1, -1, -1, -1, -1
            ],
            "split_conditions": [
              1.2e1, 2, 2.024e3, 1, 5.7e1, 1.687481e-1, 6.317612e-1, 3,
              -4.887515e-1, -5e-1, 7.1e1, -1.2604488e-1, 1.8253326e-2,
              -1.0036711e-1, 2.7871564e-1, -3.822895e-1, 1.0892906e-1
            ],
            "split_indices": [
              0, 5, 1, 6, 4, 0, 0, 4, 0, 6, 4, 0, 0, 0, 0, 0, 0
            ],
            "split_type": [0, 0, 0, 0, 0, 0, 0, 0, 0, 0, 0, 0, 0, 0, 0, 0, 0],
            "sum_hessian": [
              1.8e1, 1.6e1, 2, 4, 1.2e1, 1, 1, 3, 1, 8, 4, 2, 1, 2, 6, 2, 2
            ],
            "tree_param": {
              "num_deleted": "0",
              "num_feature": "8",
              "num_nodes": "17",
              "size_leaf_vector": "1"
            }
          },
          {
            "base_weights": [
              6.958145e-1, 6.7721345e-2, 5.069893, -2.9080975e-1, 2.435355e-1,
              1.6031075e-1, 6.001732e-1, -1.4793799, 6.2485194e-1, 2.062261e-1,
              -2.785886e-1, 2.4703503e-1, -2.647975e-2
            ],
            "categories": [],
            "categories_nodes": [],
            "categories_segments": [],
            "categories_sizes": [],
            "default_left": [0, 1, 0, 0, 0, 0, 0, 0, 0, 0, 0, 0, 0],
            "id": 35,
            "left_children": [1, 3, 5, 7, -1, -1, -1, 9, 11, -1, -1, -1, -1],
            "loss_changes": [
              6.559255e1, 1.938337e1, 7.003784e-2, 2.2690956e1, 0, 0, 0,
              4.73898e1, 2.0356302e1, 0, 0, 0, 0
            ],
            "parents": [2147483647, 0, 0, 1, 1, 2, 2, 3, 3, 7, 7, 8, 8],
            "right_children": [2, 4, 6, 8, -1, -1, -1, 10, 12, -1, -1, -1, -1],
            "split_conditions": [
              1.2e1, 7.1e1, 2.024e3, 7, 2.435355e-1, 1.6031075e-1, 6.001732e-1,
              2, 2e1, 2.062261e-1, -2.785886e-1, 2.4703503e-1, -2.647975e-2
            ],
            "split_indices": [0, 5, 1, 0, 0, 0, 0, 0, 5, 0, 0, 0, 0],
            "split_type": [0, 0, 0, 0, 0, 0, 0, 0, 0, 0, 0, 0, 0],
            "sum_hessian": [
              2.3e1, 2.1e1, 2, 1.9e1, 2, 1, 1, 8, 1.1e1, 2, 6, 3, 8
            ],
            "tree_param": {
              "num_deleted": "0",
              "num_feature": "8",
              "num_nodes": "13",
              "size_leaf_vector": "1"
            }
          },
          {
            "base_weights": [
              2.6954365e-1, -4.2596176e-1, 4.8163986, -1.0278674, 1.5853287,
              1.522953e-1, 5.701645e-1, 1.381152, -1.9459699, 2.004221,
              -4.512024e-3, -7.115852e-2, 3.0135053e-1, -4.6970725e-2,
              -3.343948e-1, 2.2729976e-1, 5.989456e-2
            ],
            "categories": [],
            "categories_nodes": [],
            "categories_segments": [],
            "categories_sizes": [],
            "default_left": [0, 1, 0, 0, 0, 0, 0, 0, 0, 0, 0, 0, 0, 0, 0, 0, 0],
            "id": 36,
            "left_children": [
              1, 3, 5, 7, 9, -1, -1, 11, 13, 15, -1, -1, -1, -1, -1, -1, -1
            ],
            "loss_changes": [
              7.162357e1, 2.584165e1, 6.3194275e-2, 3.807531e1, 3.5053425, 0, 0,
              1.9224798e1, 2.319471e1, 1.4941978e-1, 0, 0, 0, 0, 0, 0, 0
            ],
            "parents": [
              2147483647, 0, 0, 1, 1, 2, 2, 3, 3, 4, 4, 7, 7, 8, 8, 9, 9
            ],
            "right_children": [
              2, 4, 6, 8, 10, -1, -1, 12, 14, 16, -1, -1, -1, -1, -1, -1, -1
            ],
            "split_conditions": [
              1.2e1, 6.2e1, 5.7e1, 2e1, 1, 1.522953e-1, 5.701645e-1, 2, 3.6e1,
              5, -4.512024e-3, -7.115852e-2, 3.0135053e-1, -4.6970725e-2,
              -3.343948e-1, 2.2729976e-1, 5.989456e-2
            ],
            "split_indices": [
              0, 5, 3, 5, 6, 0, 0, 5, 3, 0, 0, 0, 0, 0, 0, 0, 0
            ],
            "split_type": [0, 0, 0, 0, 0, 0, 0, 0, 0, 0, 0, 0, 0, 0, 0, 0, 0],
            "sum_hessian": [
              2.1e1, 1.9e1, 2, 1.5e1, 4, 1, 1, 4, 1.1e1, 3, 1, 2, 2, 6, 5, 2, 1
            ],
            "tree_param": {
              "num_deleted": "0",
              "num_feature": "8",
              "num_nodes": "17",
              "size_leaf_vector": "1"
            }
          },
          {
            "base_weights": [
              1.4907733e-1, -4.9037865e-1, 4.575577, -2.8460307, 2.3130596e-1,
              1.4468041e-1, 5.4165614e-1, -1.3234054e-1, -4.468266e-1,
              6.4527917e-1, -3.1961328e-1, -1.3960405e-2, 1.9766852e-1
            ],
            "categories": [],
            "categories_nodes": [],
            "categories_segments": [],
            "categories_sizes": [],
            "default_left": [0, 0, 0, 0, 0, 0, 0, 0, 0, 0, 0, 0, 0],
            "id": 37,
            "left_children": [1, 3, 5, 7, 9, -1, -1, -1, -1, 11, -1, -1, -1],
            "loss_changes": [
              6.734645e1, 3.6359097e1, 5.7044983e-2, 6.4369583, 2.618315e1, 0,
              0, 0, 0, 1.6995924e1, 0, 0, 0
            ],
            "parents": [2147483647, 0, 0, 1, 1, 2, 2, 3, 3, 4, 4, 9, 9],
            "right_children": [2, 4, 6, 8, 10, -1, -1, -1, -1, 12, -1, -1, -1],
            "split_conditions": [
              1.2e1, 3, 2.024e3, 2, 7.1e1, 1.4468041e-1, 5.4165614e-1,
              -1.3234054e-1, -4.468266e-1, 5e-1, -3.1961328e-1, -1.3960405e-2,
              1.9766852e-1
            ],
            "split_indices": [0, 3, 1, 3, 3, 0, 0, 0, 0, 7, 0, 0, 0],
            "split_type": [0, 0, 0, 0, 0, 0, 0, 0, 0, 0, 0, 0, 0],
            "sum_hessian": [
              2.2e1, 2e1, 2, 4, 1.6e1, 1, 1, 3, 1, 1.5e1, 1, 1e1, 5
            ],
            "tree_param": {
              "num_deleted": "0",
              "num_feature": "8",
              "num_nodes": "13",
              "size_leaf_vector": "1"
            }
          },
          {
            "base_weights": [
              1.664784e-1, -4.1113222e-1, 4.3467965, -2.2002344, 2.4449988e-1,
              1.3744621e-1, 5.145733e-1, -9.4234025e-1, -4.2448527e-1,
              2.8219137e-1, -2.8728282e-1, -1.22415e-1, 9.244919e-3,
              -8.467082e-2, 2.2326545e-1
            ],
            "categories": [],
            "categories_nodes": [],
            "categories_segments": [],
            "categories_sizes": [],
            "default_left": [0, 1, 0, 0, 0, 0, 0, 1, 0, 0, 0, 0, 0, 0, 0],
            "id": 38,
            "left_children": [
              1, 3, 5, 7, 9, -1, -1, 11, -1, -1, 13, -1, -1, -1, -1
            ],
            "loss_changes": [
              5.973742e1, 2.63438e1, 5.1502228e-2, 1.1431385e1, 2.4111292e1, 0,
              0, 1.5712395, 0, 0, 2.303616e1, 0, 0, 0, 0
            ],
            "parents": [2147483647, 0, 0, 1, 1, 2, 2, 3, 3, 4, 4, 7, 7, 10, 10],
            "right_children": [
              2, 4, 6, 8, 10, -1, -1, 12, -1, -1, 14, -1, -1, -1, -1
            ],
            "split_conditions": [
              1.2e1, 2, 2.024e3, 1, 2e1, 1.3744621e-1, 5.145733e-1, 3,
              -4.2448527e-1, 2.8219137e-1, 7.1e1, -1.22415e-1, 9.244919e-3,
              -8.467082e-2, 2.2326545e-1
            ],
            "split_indices": [0, 5, 1, 6, 5, 0, 0, 4, 0, 0, 5, 0, 0, 0, 0],
            "split_type": [0, 0, 0, 0, 0, 0, 0, 0, 0, 0, 0, 0, 0, 0, 0],
            "sum_hessian": [
              2.3e1, 2.1e1, 2, 5, 1.6e1, 1, 1, 4, 1, 2, 1.4e1, 3, 1, 1.2e1, 2
            ],
            "tree_param": {
              "num_deleted": "0",
              "num_feature": "8",
              "num_nodes": "15",
              "size_leaf_vector": "1"
            }
          },
          {
            "base_weights": [
              4.4048148e-1, -2.1201146e-1, 3.755949, -2.6714888, 3.463175e-1,
              1.1012802e-1, 4.273745e-1, -8.735786e-2, -4.03261e-1, 7.189232e-1,
              -2.99399e-1, -1.5317293e-2, 1.9866568e-1
            ],
            "categories": [],
            "categories_nodes": [],
            "categories_segments": [],
            "categories_sizes": [],
            "default_left": [0, 0, 0, 0, 0, 0, 0, 0, 0, 0, 0, 0, 0],
            "id": 39,
            "left_children": [1, 3, 5, 7, 9, -1, -1, -1, -1, 11, -1, -1, -1],
            "loss_changes": [
              5.2715965e1, 2.976233e1, 7.917175e-1, 6.265894, 2.4555569e1, 0, 0,
              0, 0, 1.9099257e1, 0, 0, 0
            ],
            "parents": [2147483647, 0, 0, 1, 1, 2, 2, 3, 3, 4, 4, 9, 9],
            "right_children": [2, 4, 6, 8, 10, -1, -1, -1, -1, 12, -1, -1, -1],
            "split_conditions": [
              7.5e1, 3, 2, 2, 7.1e1, 1.1012802e-1, 4.273745e-1, -8.735786e-2,
              -4.03261e-1, 5e-1, -2.99399e-1, -1.5317293e-2, 1.9866568e-1
            ],
            "split_indices": [3, 3, 0, 3, 3, 0, 0, 0, 0, 7, 0, 0, 0],
            "split_type": [0, 0, 0, 0, 0, 0, 0, 0, 0, 0, 0, 0, 0],
            "sum_hessian": [
              2.3e1, 2e1, 3, 3, 1.7e1, 1, 2, 2, 1, 1.6e1, 1, 1e1, 6
            ],
            "tree_param": {
              "num_deleted": "0",
              "num_feature": "8",
              "num_nodes": "13",
              "size_leaf_vector": "1"
            }
          },
          {
            "base_weights": [
              6.369128e-1, 5.8428243e-2, 3.5147285, 3.4577864e-1, -2.8442898e-1,
              1.5697989e-1, 4.674759e-1, -4.3922517e-1, 1.5781875, 4.110835e-2,
              -3.4106153e-1, 2.2879048e-1, -3.6730956e-2
            ],
            "categories": [],
            "categories_nodes": [],
            "categories_segments": [],
            "categories_sizes": [],
            "default_left": [0, 0, 0, 0, 0, 0, 0, 0, 0, 0, 0, 0, 0],
            "id": 40,
            "left_children": [1, 3, 5, 7, -1, -1, -1, 9, 11, -1, -1, -1, -1],
            "loss_changes": [
              3.9749165e1, 1.8499533e1, 1.6862793, 2.0042091e1, 0, 0, 0,
              3.4247833e1, 1.1886393e1, 0, 0, 0, 0
            ],
            "parents": [2147483647, 0, 0, 1, 1, 2, 2, 3, 3, 7, 7, 8, 8],
            "right_children": [2, 4, 6, 8, -1, -1, -1, 10, 12, -1, -1, -1, -1],
            "split_conditions": [
              7.5e1, 7.1e1, 3, 5e1, -2.8442898e-1, 1.5697989e-1, 4.674759e-1,
              4.3e1, 5.7e1, 4.110835e-2, -3.4106153e-1, 2.2879048e-1,
              -3.6730956e-2
            ],
            "split_indices": [3, 3, 0, 3, 0, 0, 0, 3, 4, 0, 0, 0, 0],
            "split_type": [0, 0, 0, 0, 0, 0, 0, 0, 0, 0, 0, 0, 0],
            "sum_hessian": [
              2.3e1, 2e1, 3, 1.9e1, 1, 2, 1, 1.2e1, 7, 1e1, 2, 5, 2
            ],
            "tree_param": {
              "num_deleted": "0",
              "num_feature": "8",
              "num_nodes": "13",
              "size_leaf_vector": "1"
            }
          },
          {
            "base_weights": [
              2.476531e-1, -7.165383e-1, 3.4763732, -2.4454246, 2.0761633e-1,
              4.3288118e-1, 1.4651439e-1, -3.5136962, -2.059207e-1, 1.9724474,
              -5.998215e-1, -4.0641388e-1, -9.311845e-2, -3.0243803e-2,
              -6.443024e-4, 2.6425374e-1, -1.8911362e-3, -2.3279122e-1,
              2.264775e-2
            ],
            "categories": [],
            "categories_nodes": [],
            "categories_segments": [],
            "categories_sizes": [],
            "default_left": [
              0, 0, 0, 0, 0, 0, 0, 0, 0, 0, 1, 0, 0, 0, 0, 0, 0, 0, 0
            ],
            "id": 41,
            "left_children": [
              1, 3, 5, 7, 9, -1, -1, 11, 13, 15, 17, -1, -1, -1, -1, -1, -1, -1,
              -1
            ],
            "loss_changes": [
              6.786614e1, 2.76696e1, 2.2299156, 1.3630848e1, 1.8283014e1, 0, 0,
              1.9016342, 5.581054e-2, 5.387533, 1.3378495e1, 0, 0, 0, 0, 0, 0,
              0, 0
            ],
            "parents": [
              2147483647, 0, 0, 1, 1, 2, 2, 3, 3, 4, 4, 7, 7, 8, 8, 9, 9, 10, 10
            ],
            "right_children": [
              2, 4, 6, 8, 10, -1, -1, 12, 14, 16, 18, -1, -1, -1, -1, -1, -1,
              -1, -1
            ],
            "split_conditions": [
              6.9e1, 7, 2.025e3, 4.3e1, 2e1, 4.3288118e-1, 1.4651439e-1, 6, 3,
              5.4e1, 2.2e1, -4.0641388e-1, -9.311845e-2, -3.0243803e-2,
              -6.443024e-4, 2.6425374e-1, -1.8911362e-3, -2.3279122e-1,
              2.264775e-2
            ],
            "split_indices": [
              3, 0, 1, 5, 5, 0, 0, 0, 0, 3, 5, 0, 0, 0, 0, 0, 0, 0, 0
            ],
            "split_type": [
              0, 0, 0, 0, 0, 0, 0, 0, 0, 0, 0, 0, 0, 0, 0, 0, 0, 0, 0
            ],
            "sum_hessian": [
              2e1, 1.6e1, 4, 5, 1.1e1, 2, 2, 3, 2, 3, 8, 2, 1, 1, 1, 2, 1, 2, 6
            ],
            "tree_param": {
              "num_deleted": "0",
              "num_feature": "8",
              "num_nodes": "19",
              "size_leaf_vector": "1"
            }
          },
          {
            "base_weights": [
              9.420989e-2, -8.9317e-1, 2.0571935, -1.413295, 1.8318038e-1,
              3.9989486, -8.84299e-1, 3.0290222e-1, -2.7383058, 1.08068846e-1,
              4.4583416e-1, -1.7753762e-1, 8.944664e-2, 1.8407927e-1,
              -1.3107137e-1, -3.5532624e-1, -1.9562451e-2
            ],
            "categories": [],
            "categories_nodes": [],
            "categories_segments": [],
            "categories_sizes": [],
            "default_left": [0, 1, 0, 0, 0, 0, 0, 0, 0, 0, 0, 0, 0, 0, 0, 0, 0],
            "id": 42,
            "left_children": [
              1, 3, 5, 7, -1, 9, 11, 13, 15, -1, -1, -1, -1, -1, -1, -1, -1
            ],
            "loss_changes": [
              4.6416264e1, 2.5266113e1, 4.9229534e1, 3.266516e1, 0, 1.8850632,
              7.928084, 1.9783705e1, 1.5882294e1, 0, 0, 0, 0, 0, 0, 0, 0
            ],
            "parents": [
              2147483647, 0, 0, 1, 1, 2, 2, 3, 3, 5, 5, 6, 6, 7, 7, 8, 8
            ],
            "right_children": [
              2, 4, 6, 8, -1, 10, 12, 14, 16, -1, -1, -1, -1, -1, -1, -1, -1
            ],
            "split_conditions": [
              8.660254e-1, 7.1e1, 5.7e1, -2.4492937e-16, 1.8318038e-1, 2.024e3,
              2.024e3, 2.024e3, 5.7e1, 1.08068846e-1, 4.4583416e-1,
              -1.7753762e-1, 8.944664e-2, 1.8407927e-1, -1.3107137e-1,
              -3.5532624e-1, -1.9562451e-2
            ],
            "split_indices": [
              7, 5, 4, 6, 0, 1, 1, 1, 5, 0, 0, 0, 0, 0, 0, 0, 0
            ],
            "split_type": [0, 0, 0, 0, 0, 0, 0, 0, 0, 0, 0, 0, 0, 0, 0, 0, 0],
            "sum_hessian": [
              2.2e1, 1.5e1, 7, 1.3e1, 2, 4, 3, 6, 7, 1, 3, 2, 1, 3, 3, 5, 2
            ],
            "tree_param": {
              "num_deleted": "0",
              "num_feature": "8",
              "num_nodes": "17",
              "size_leaf_vector": "1"
            }
          },
          {
            "base_weights": [
              1.0212758e-2, 1.1681788, -1.4961643, 5.9858316e-1, 4.0016633e-1,
              -3.2571568, 9.1625965e-1, 1.1131045, -7.087357e-1, -1.1307669e-1,
              -4.03766e-1, -1.825831e-1, 1.7096825e-1, -3.661779e-2,
              3.053752e-1, -1.6570184e-1, 1.06805615e-1, -2.7753485e-2,
              3.6602022e-4
            ],
            "categories": [],
            "categories_nodes": [],
            "categories_segments": [],
            "categories_sizes": [],
            "default_left": [
              0, 0, 0, 0, 0, 0, 1, 0, 1, 0, 0, 0, 0, 0, 0, 0, 0, 0, 0
            ],
            "id": 43,
            "left_children": [
              1, 3, 5, 7, -1, 9, 11, 13, 15, -1, -1, 17, -1, -1, -1, -1, -1, -1,
              -1
            ],
            "loss_changes": [
              4.0123123e1, 1.8585896e1, 4.546701e1, 8.860619, 0, 5.392269,
              4.6713934, 2.6955107e1, 8.509392, 0, 0, 5.4068215e-2, 0, 0, 0, 0,
              0, 0, 0
            ],
            "parents": [
              2147483647, 0, 0, 1, 1, 2, 2, 3, 3, 5, 5, 6, 6, 7, 7, 8, 8, 11, 11
            ],
            "right_children": [
              2, 4, 6, 8, -1, 10, 12, 14, 16, -1, -1, 18, -1, -1, -1, -1, -1,
              -1, -1
            ],
            "split_conditions": [
              1.2246469e-16, 6.9e1, 5.7e1, 5.7e1, 4.0016633e-1, 5e-1, 7.1e1,
              -5e-1, 6.2e1, -1.1307669e-1, -4.03766e-1, 2.024e3, 1.7096825e-1,
              -3.661779e-2, 3.053752e-1, -1.6570184e-1, 1.06805615e-1,
              -2.7753485e-2, 3.6602022e-4
            ],
            "split_indices": [
              6, 3, 5, 4, 0, 6, 5, 6, 4, 0, 0, 1, 0, 0, 0, 0, 0, 0, 0
            ],
            "split_type": [
              0, 0, 0, 0, 0, 0, 0, 0, 0, 0, 0, 0, 0, 0, 0, 0, 0, 0, 0
            ],
            "sum_hessian": [
              2.1e1, 1.2e1, 9, 1.1e1, 1, 5, 4, 8, 3, 2, 3, 2, 2, 5, 3, 2, 1, 1,
              1
            ],
            "tree_param": {
              "num_deleted": "0",
              "num_feature": "8",
              "num_nodes": "19",
              "size_leaf_vector": "1"
            }
          },
          {
            "base_weights": [
              4.1586927e-1, -5.3723234e-1, 2.6711347, -1.5384102, 5.23638e-1,
              -6.73665e-2, 3.3408787, -3.0175815, 1.0649493, 1.419857,
              -4.7730866e-1, 8.739662e-2, 3.6594682, -3.7348354e-1,
              -1.0553823e-1, -2.6365805e-2, 1.5957044e-1, -2.6491929e-2,
              1.907281e-1, 5.6833744e-2, -2.3299466e-1, 4.048523e-1,
              1.05162434e-1
            ],
            "categories": [],
            "categories_nodes": [],
            "categories_segments": [],
            "categories_sizes": [],
            "default_left": [
              0, 0, 0, 0, 0, 0, 0, 0, 0, 0, 0, 0, 0, 0, 0, 0, 0, 0, 0, 0, 0, 0,
              0
            ],
            "id": 44,
            "left_children": [
              1, 3, 5, 7, 9, -1, 11, 13, 15, 17, 19, -1, 21, -1, -1, -1, -1, -1,
              -1, -1, -1, -1, -1
            ],
            "loss_changes": [
              5.0873455e1, 1.8861609e1, 1.7931747e1, 3.7870903e1, 8.751317, 0,
              1.5173416, 4.502693, 3.2413802, 4.6112776, 1.1010214e1, 0,
              8.1544495e-1, 0, 0, 0, 0, 0, 0, 0, 0, 0, 0
            ],
            "parents": [
              2147483647, 0, 0, 1, 1, 2, 2, 3, 3, 4, 4, 6, 6, 7, 7, 8, 8, 9, 9,
              10, 10, 12, 12
            ],
            "right_children": [
              2, 4, 6, 8, 10, -1, 12, 14, 16, 18, 20, -1, 22, -1, -1, -1, -1,
              -1, -1, -1, -1, -1, -1
            ],
            "split_conditions": [
              8.660254e-1, 7, 2.023e3, 5.7e1, 3.6e1, -6.73665e-2, 2.024e3, 6,
              2.024e3, -8.660254e-1, 2.024e3, 8.739662e-2, 2.025e3,
              -3.7348354e-1, -1.0553823e-1, -2.6365805e-2, 1.5957044e-1,
              -2.6491929e-2, 1.907281e-1, 5.6833744e-2, -2.3299466e-1,
              4.048523e-1, 1.05162434e-1
            ],
            "split_indices": [
              7, 0, 1, 5, 3, 0, 1, 0, 1, 6, 1, 0, 1, 0, 0, 0, 0, 0, 0, 0, 0, 0,
              0
            ],
            "split_type": [
              0, 0, 0, 0, 0, 0, 0, 0, 0, 0, 0, 0, 0, 0, 0, 0, 0, 0, 0, 0, 0, 0,
              0
            ],
            "sum_hessian": [
              2.2e1, 1.6e1, 6, 8, 8, 1, 5, 5, 3, 4, 4, 1, 4, 3, 2, 1, 2, 1, 3,
              3, 1, 3, 1
            ],
            "tree_param": {
              "num_deleted": "0",
              "num_feature": "8",
              "num_nodes": "23",
              "size_leaf_vector": "1"
            }
          },
          {
            "base_weights": [
              3.7702426e-1, -1.1622906e-1, 2.749035, 1.2525658e-1,
              -2.3522282e-1, 1.2659454e-1, 3.5991517e-1, -3.8510403e-1,
              1.2952219, 5.702581e-2, -1.4219317e-1, 1.5847893e-1, -7.6307296e-3
            ],
            "categories": [],
            "categories_nodes": [],
            "categories_segments": [],
            "categories_sizes": [],
            "default_left": [0, 0, 0, 1, 0, 0, 0, 0, 0, 0, 0, 0, 0],
            "id": 45,
            "left_children": [1, 3, 5, 7, -1, -1, -1, 9, 11, -1, -1, -1, -1],
            "loss_changes": [
              2.7229567e1, 1.1093865e1, 4.868679e-1, 1.1843777e1, 0, 0, 0,
              1.467851e1, 2.503831, 0, 0, 0, 0
            ],
            "parents": [2147483647, 0, 0, 1, 1, 2, 2, 3, 3, 7, 7, 8, 8],
            "right_children": [2, 4, 6, 8, -1, -1, -1, 10, 12, -1, -1, -1, -1],
            "split_conditions": [
              7.5e1, 7.1e1, 3, 5.4e1, -2.3522282e-1, 1.2659454e-1, 3.5991517e-1,
              3.3e1, 1, 5.702581e-2, -1.4219317e-1, 1.5847893e-1, -7.6307296e-3
            ],
            "split_indices": [3, 3, 0, 5, 0, 0, 0, 5, 6, 0, 0, 0, 0],
            "split_type": [0, 0, 0, 0, 0, 0, 0, 0, 0, 0, 0, 0, 0],
            "sum_hessian": [
              2.2e1, 1.9e1, 3, 1.8e1, 1, 2, 1, 1.3e1, 5, 7, 6, 4, 1
            ],
            "tree_param": {
              "num_deleted": "0",
              "num_feature": "8",
              "num_nodes": "13",
              "size_leaf_vector": "1"
            }
          },
          {
            "base_weights": [
              -2.0435725e-1, -6.503701e-1, 2.837181, -1.7114651, 5.2639887e-2,
              3.4191933e-1, 8.365784e-2, -2.450923, -3.5927653e-1, 1.4168746,
              -7.111172e-1, -2.9893407e-1, -1.4862633e-2, -4.9884256e-2,
              2.971077e-3, -1.4040832e-1, 2.473135e-1, -1.3282083e-1,
              3.922987e-2
            ],
            "categories": [],
            "categories_nodes": [],
            "categories_segments": [],
            "categories_sizes": [],
            "default_left": [
              0, 1, 0, 0, 0, 0, 0, 0, 0, 0, 0, 0, 0, 0, 0, 0, 0, 0, 0
            ],
            "id": 46,
            "left_children": [
              1, 3, 5, 7, 9, -1, -1, 11, 13, 15, 17, -1, -1, -1, -1, -1, -1, -1,
              -1
            ],
            "loss_changes": [
              3.1689651e1, 1.50093e1, 6.327038e-1, 7.118534, 1.4552836e1, 0, 0,
              5.753687, 2.3197865e-1, 1.837082e1, 6.649227, 0, 0, 0, 0, 0, 0, 0,
              0
            ],
            "parents": [
              2147483647, 0, 0, 1, 1, 2, 2, 3, 3, 4, 4, 7, 7, 8, 8, 9, 9, 10, 10
            ],
            "right_children": [
              2, 4, 6, 8, 10, -1, -1, 12, 14, 16, 18, -1, -1, -1, -1, -1, -1,
              -1, -1
            ],
            "split_conditions": [
              7.5e1, 2.9e1, 2.025e3, 2.2e1, 4.3e1, 3.4191933e-1, 8.365784e-2,
              4.8e1, 2.024e3, -5e-1, 5.7e1, -2.9893407e-1, -1.4862633e-2,
              -4.9884256e-2, 2.971077e-3, -1.4040832e-1, 2.473135e-1,
              -1.3282083e-1, 3.922987e-2
            ],
            "split_indices": [
              3, 4, 1, 5, 4, 0, 0, 3, 1, 7, 5, 0, 0, 0, 0, 0, 0, 0, 0
            ],
            "split_type": [
              0, 0, 0, 0, 0, 0, 0, 0, 0, 0, 0, 0, 0, 0, 0, 0, 0, 0, 0
            ],
            "sum_hessian": [
              2.1e1, 1.9e1, 2, 7, 1.2e1, 1, 1, 4, 3, 4, 8, 3, 1, 2, 1, 1, 3, 5,
              3
            ],
            "tree_param": {
              "num_deleted": "0",
              "num_feature": "8",
              "num_nodes": "19",
              "size_leaf_vector": "1"
            }
          },
          {
            "base_weights": [
              2.5161174e-1, -2.0433661e-1, 2.4684505, 9.660191e-2,
              -2.9610845e-1, 3.2482338e-1, 1.1257782e-1, 5.544114e-1, -1.296147,
              -4.982426e-3, 2.2285156e-1, 1.0241337e-1, -2.1322505e-1
            ],
            "categories": [],
            "categories_nodes": [],
            "categories_segments": [],
            "categories_sizes": [],
            "default_left": [0, 0, 0, 0, 0, 0, 0, 0, 0, 0, 0, 0, 0],
            "id": 47,
            "left_children": [1, 3, 5, 7, -1, -1, -1, 9, 11, -1, -1, -1, -1],
            "loss_changes": [
              2.3751966e1, 1.6878279e1, 5.3118324e-1, 1.2833259e1, 0, 0, 0,
              1.5284336e1, 1.1883685e1, 0, 0, 0, 0
            ],
            "parents": [2147483647, 0, 0, 1, 1, 2, 2, 3, 3, 7, 7, 8, 8],
            "right_children": [2, 4, 6, 8, -1, -1, -1, 10, 12, -1, -1, -1, -1],
            "split_conditions": [
              7.5e1, 1, 2.025e3, 5.7e1, -2.9610845e-1, 3.2482338e-1,
              1.1257782e-1, 8.660254e-1, 2e1, -4.982426e-3, 2.2285156e-1,
              1.0241337e-1, -2.1322505e-1
            ],
            "split_indices": [3, 6, 1, 4, 0, 0, 0, 7, 5, 0, 0, 0, 0],
            "split_type": [0, 0, 0, 0, 0, 0, 0, 0, 0, 0, 0, 0, 0],
            "sum_hessian": [
              2.2e1, 1.9e1, 3, 1.8e1, 1, 1, 2, 1.4e1, 4, 1.1e1, 3, 1, 3
            ],
            "tree_param": {
              "num_deleted": "0",
              "num_feature": "8",
              "num_nodes": "13",
              "size_leaf_vector": "1"
            }
          },
          {
            "base_weights": [
              2.175188e-1, -2.3886359e-1, 2.3309555, -1.1741697, 4.045791e-1,
              1.05072536e-1, 3.085823e-1, 1.4880371e-1, -1.7670617, 1.0477228,
              -7.053666e-1, -2.4354868e-1, -6.399926e-3, 2.8524844e-2,
              2.2234307e-1, 7.976786e-3, -1.255379e-1
            ],
            "categories": [],
            "categories_nodes": [],
            "categories_segments": [],
            "categories_sizes": [],
            "default_left": [0, 0, 0, 0, 0, 0, 0, 0, 0, 0, 0, 0, 0, 0, 0, 0, 0],
            "id": 48,
            "left_children": [
              1, 3, 5, 7, 9, -1, -1, -1, 11, 13, 15, -1, -1, -1, -1, -1, -1
            ],
            "loss_changes": [
              2.1776556e1, 1.1909547e1, 6.232643e-1, 1.525666e1, 9.305284, 0, 0,
              0, 7.8127193, 6.537347, 2.259307, 0, 0, 0, 0, 0, 0
            ],
            "parents": [
              2147483647, 0, 0, 1, 1, 2, 2, 3, 3, 4, 4, 8, 8, 9, 9, 10, 10
            ],
            "right_children": [
              2, 4, 6, 8, 10, -1, -1, -1, 12, 14, 16, -1, -1, -1, -1, -1, -1
            ],
            "split_conditions": [
              7.5e1, 7, 3, 2, 4.8e1, 1.05072536e-1, 3.085823e-1, 1.4880371e-1,
              5.7e1, 1e1, 1.1e1, -2.4354868e-1, -6.399926e-3, 2.8524844e-2,
              2.2234307e-1, 7.976786e-3, -1.255379e-1
            ],
            "split_indices": [
              3, 0, 0, 0, 5, 0, 0, 0, 5, 0, 0, 0, 0, 0, 0, 0, 0
            ],
            "split_type": [0, 0, 0, 0, 0, 0, 0, 0, 0, 0, 0, 0, 0, 0, 0, 0, 0],
            "sum_hessian": [
              2.1e1, 1.8e1, 3, 7, 1.1e1, 2, 1, 1, 6, 7, 4, 4, 2, 5, 2, 2, 2
            ],
            "tree_param": {
              "num_deleted": "0",
              "num_feature": "8",
              "num_nodes": "17",
              "size_leaf_vector": "1"
            }
          },
          {
            "base_weights": [
              2.4663907e-1, -1.3741723e-1, 2.2012749, -1.426799, 2.4989611e-1,
              9.806773e-2, 2.9315338e-1, -4.3787096e-2, -2.6912558e-1,
              5.07992e-1, -1.9398193e-1, 2.308548e-1, 2.3405178e-2
            ],
            "categories": [],
            "categories_nodes": [],
            "categories_segments": [],
            "categories_sizes": [],
            "default_left": [0, 0, 0, 0, 0, 0, 0, 0, 0, 0, 0, 0, 0],
            "id": 49,
            "left_children": [1, 3, 5, 7, 9, -1, -1, -1, -1, 11, -1, -1, -1],
            "loss_changes": [
              1.8319057e1, 1.0843842e1, 6.9051933e-1, 5.073862, 1.0593076e1, 0,
              0, 0, 0, 7.3515973, 0, 0, 0
            ],
            "parents": [2147483647, 0, 0, 1, 1, 2, 2, 3, 3, 4, 4, 9, 9],
            "right_children": [2, 4, 6, 8, 10, -1, -1, -1, -1, 12, -1, -1, -1],
            "split_conditions": [
              7.5e1, 3, 3, 2, 7.1e1, 9.806773e-2, 2.9315338e-1, -4.3787096e-2,
              -2.6912558e-1, 2e1, -1.9398193e-1, 2.308548e-1, 2.3405178e-2
            ],
            "split_indices": [3, 3, 0, 3, 3, 0, 0, 0, 0, 3, 0, 0, 0],
            "split_type": [0, 0, 0, 0, 0, 0, 0, 0, 0, 0, 0, 0, 0],
            "sum_hessian": [
              2.3e1, 2e1, 3, 4, 1.6e1, 2, 1, 3, 1, 1.5e1, 1, 1, 1.4e1
            ],
            "tree_param": {
              "num_deleted": "0",
              "num_feature": "8",
              "num_nodes": "13",
              "size_leaf_vector": "1"
            }
          },
          {
            "base_weights": [
              3.307771e-1, -1.1771418, 7.895527e-1, -3.898929e-2, -2.5566933e-1,
              1.2878308, -2.4861418e-1, -4.3297273e-1, 2.1007404, 1.1220118e-1,
              -1.0212669, -2.1159707e-1, 5.167694e-2, -6.298113e-2, 2.520786e-1,
              -2.1583341e-1, 4.5622256e-2
            ],
            "categories": [],
            "categories_nodes": [],
            "categories_segments": [],
            "categories_sizes": [],
            "default_left": [1, 0, 0, 0, 0, 0, 0, 0, 0, 0, 0, 0, 0, 0, 0, 0, 0],
            "id": 50,
            "left_children": [
              1, 3, 5, -1, -1, 7, 9, 11, 13, -1, 15, -1, -1, -1, -1, -1, -1
            ],
            "loss_changes": [
              1.7532528e1, 5.5194635, 1.0148794e1, 0, 0, 1.9094717e1, 8.558999,
              9.085539, 1.1910217e1, 0, 9.384706, 0, 0, 0, 0, 0, 0
            ],
            "parents": [
              2147483647, 0, 0, 1, 1, 2, 2, 5, 5, 6, 6, 7, 7, 8, 8, 10, 10
            ],
            "right_children": [
              2, 4, 6, -1, -1, 8, 10, 12, 14, -1, 16, -1, -1, -1, -1, -1, -1
            ],
            "split_conditions": [
              2, 1, 5.7e1, -3.898929e-2, -2.5566933e-1, -5e-1, 5.1e1, 9,
              -8.660254e-1, 1.1220118e-1, 7.1e1, -2.1159707e-1, 5.167694e-2,
              -6.298113e-2, 2.520786e-1, -2.1583341e-1, 4.5622256e-2
            ],
            "split_indices": [
              5, 6, 4, 0, 0, 6, 5, 0, 7, 0, 4, 0, 0, 0, 0, 0, 0
            ],
            "split_type": [0, 0, 0, 0, 0, 0, 0, 0, 0, 0, 0, 0, 0, 0, 0, 0, 0],
            "sum_hessian": [
              2.3e1, 5, 1.8e1, 4, 1, 1.2e1, 6, 4, 8, 2, 4, 1, 3, 1, 7, 2, 2
            ],
            "tree_param": {
              "num_deleted": "0",
              "num_feature": "8",
              "num_nodes": "17",
              "size_leaf_vector": "1"
            }
          },
          {
            "base_weights": [
              9.551716e-2, -2.85451e-1, 1.9764786, -1.2982523, 3.5976914e-1,
              8.6269125e-2, 2.6589203e-1, -2.4437792, 4.5821947e-1,
              2.0670815e-1, 4.523633e-2, -2.755564e-1, -5.9832096e-2,
              -5.515043e-3, 9.991646e-2, -1.0398146e-1, 7.1773864e-2
            ],
            "categories": [],
            "categories_nodes": [],
            "categories_segments": [],
            "categories_sizes": [],
            "default_left": [0, 0, 0, 0, 0, 0, 0, 0, 0, 0, 1, 0, 0, 0, 0, 0, 0],
            "id": 51,
            "left_children": [
              1, 3, 5, 7, 9, -1, -1, 11, 13, -1, 15, -1, -1, -1, -1, -1, -1
            ],
            "loss_changes": [
              1.7045675e1, 1.3536667e1, 7.4655247e-1, 1.7216473e1, 6.8875675, 0,
              0, 1.2282162, 1.1659242, 0, 9.502706, 0, 0, 0, 0, 0, 0
            ],
            "parents": [
              2147483647, 0, 0, 1, 1, 2, 2, 3, 3, 4, 4, 7, 7, 8, 8, 10, 10
            ],
            "right_children": [
              2, 4, 6, 8, 10, -1, -1, 12, 14, -1, 16, -1, -1, -1, -1, -1, -1
            ],
            "split_conditions": [
              7.5e1, 7, 3, 5.7e1, 2, 8.6269125e-2, 2.6589203e-1, 6, 4,
              2.0670815e-1, 2.9e1, -2.755564e-1, -5.9832096e-2, -5.515043e-3,
              9.991646e-2, -1.0398146e-1, 7.1773864e-2
            ],
            "split_indices": [
              3, 0, 0, 5, 4, 0, 0, 0, 0, 0, 4, 0, 0, 0, 0, 0, 0
            ],
            "split_type": [0, 0, 0, 0, 0, 0, 0, 0, 0, 0, 0, 0, 0, 0, 0, 0, 0],
            "sum_hessian": [
              2.2e1, 1.9e1, 3, 7, 1.2e1, 2, 1, 4, 3, 1, 1.1e1, 3, 1, 2, 1, 4, 7
            ],
            "tree_param": {
              "num_deleted": "0",
              "num_feature": "8",
              "num_nodes": "17",
              "size_leaf_vector": "1"
            }
          }
        ]
      },
      "name": "gbtree"
    },
    "learner_model_param": {
      "base_score": "4.4541668E1",
      "boost_from_average": "1",
      "num_class": "0",
      "num_feature": "8",
      "num_target": "1"
    },
    "objective": {
      "name": "reg:squarederror",
      "reg_loss_param": { "scale_pos_weight": "1" }
    }
  },
  "version": [2, 1, 4]
}
