{"learner":{"attributes":{"best_iteration":"4","best_score":"1.5961946057684628"},"feature_names":["month_num","year","sku_id","lag_1","lag_2","lag_3","month_sin","month_cos"],"feature_types":[],"gradient_booster":{"model":{"gbtree_model_param":{"num_parallel_tree":"1","num_trees":"55"},"iteration_indptr":[0,1,2,3,4,5,6,7,8,9,10,11,12,13,14,15,16,17,18,19,20,21,22,23,24,25,26,27,28,29,30,31,32,33,34,35,36,37,38,39,40,41,42,43,44,45,46,47,48,49,50,51,52,53,54,55],"tree_info":[0,0,0,0,0,0,0,0,0,0,0,0,0,0,0,0,0,0,0,0,0,0,0,0,0,0,0,0,0,0,0,0,0,0,0,0,0,0,0,0,0,0,0,0,0,0,0,0,0,0,0,0,0,0,0],"trees":[{"base_weights":[-1.5339312E-3,-5.970759E-1,2.2458465E0,-8.77674E-1,-2.035587E-1,4.5888352E0,1.3092062E0,-9.028822E-1,2.6944444E0,9.763205E-1,-4.2575398E-1,2.333333E-1,5.2382717E0,1.0518519E0,8.382715E0,-1.0591661E-1,-6.675281E-2,6.2962964E-2,3.1728396E-1,-2.3486905E-2,3.2945326E-1,-7.232607E-2,1.569023E-2,7.160494E-2,-3.9259262E-2,5.8458054E-1,2.3209877E-1,9.608156E-3,1.68809E-1,-4.938272E-2,1.2944444E0],"categories":[],"categories_nodes":[],"categories_segments":[],"categories_sizes":[],"default_left":[0,0,0,1,0,0,0,0,0,0,0,0,0,0,0,0,0,0,0,0,0,0,0,0,0,0,0,0,0,0,0],"id":0,"left_children":[1,3,5,7,9,11,13,15,17,19,21,23,25,27,29,-1,-1,-1,-1,-1,-1,-1,-1,-1,-1,-1,-1,-1,-1,-1,-1],"loss_changes":[1.5525574E3,1.0107666E2,5.27265E2,5.060788E1,1.00824326E2,1.9395251E2,3.0975247E2,1.8861053E1,1.953476E0,1.7204924E2,5.6103638E1,3.3025606E0,9.277295E1,1.032144E2,2.4934656E2,0E0,0E0,0E0,0E0,0E0,0E0,0E0,0E0,0E0,0E0,0E0,0E0,0E0,0E0,0E0,0E0],"parents":[2147483647,0,0,1,1,2,2,3,3,4,4,5,5,6,6,7,7,8,8,9,9,10,10,11,11,12,12,13,13,14,14],"right_children":[2,4,6,8,10,12,14,16,18,20,22,24,26,28,30,-1,-1,-1,-1,-1,-1,-1,-1,-1,-1,-1,-1,-1,-1,-1,-1],"split_conditions":[4E0,2E0,2.023E3,9E0,2.023E3,5.99E2,1.9E1,8E0,6.07E2,5.99E2,5E-1,9E0,1.039E3,7.44E2,5.26E2,-1.0591661E-1,-6.675281E-2,6.2962964E-2,3.1728396E-1,-2.3486905E-2,3.2945326E-1,-7.232607E-2,1.569023E-2,7.160494E-2,-3.9259262E-2,5.8458054E-1,2.3209877E-1,9.608156E-3,1.68809E-1,-4.938272E-2,1.2944444E0],"split_indices":[3,3,1,5,1,2,3,0,2,2,7,0,2,2,2,0,0,0,0,0,0,0,0,0,0,0,0,0,0,0,0],"split_type":[0,0,0,0,0,0,0,0,0,0,0,0,0,0,0,0,0,0,0,0,0,0,0,0,0,0,0,0,0,0,0],"sum_hessian":[1.158E3,9.16E2,2.42E2,5.34E2,3.82E2,6.8E1,1.74E2,5.31E2,3E0,6E1,3.22E2,9E0,5.9E1,1.69E2,5E0,3.17E2,2.14E2,1E0,2E0,4E1,2E1,2.13E2,1.09E2,5E0,4E0,4.8E1,1.1E1,6.8E1,1.01E2,2E0,3E0],"tree_param":{"num_deleted":"0","num_feature":"8","num_nodes":"31","size_leaf_vector":"1"}},{"base_weights":[-2.6673013E-2,-4.382864E-1,1.9813836E0,3.8997674E-1,-5.8714086E-1,4.7801275E0,9.4472975E-1,-6.0287964E-1,2.58305E0,-7.3746014E-1,-8.535621E-2,6.49937E-1,5.293557E0,7.6707554E-1,4.932539E0,6.073975E-3,-8.191293E-2,4.4369704E-1,2.1365266E-1,-8.91979E-2,-4.103274E-2,-3.9284986E-2,9.0735346E-2,1.4584361E-1,3.4850072E-3,6.2640506E-1,3.021723E-1,4.15294E-2,1.8515919E-1,-1.1416153E-1,8.2550204E-1],"categories":[],"categories_nodes":[],"categories_segments":[],"categories_sizes":[],"default_left":[1,0,0,0,0,0,0,0,0,0,1,0,1,0,0,0,0,0,0,0,0,0,0,0,0,0,0,0,0,0,0],"id":1,"left_children":[1,3,5,7,9,11,13,15,17,19,21,23,25,27,29,-1,-1,-1,-1,-1,-1,-1,-1,-1,-1,-1,-1,-1,-1,-1,-1],"loss_changes":[9.5717865E2,1.1871132E2,5.670457E2,3.2163605E2,6.1410736E1,1.0894946E2,9.894177E1,1.4687515E1,2.8599976E1,3.1327698E1,5.804906E1,3.4302537E0,8.469739E1,5.2642853E1,1.3051161E2,0E0,0E0,0E0,0E0,0E0,0E0,0E0,0E0,0E0,0E0,0E0,0E0,0E0,0E0,0E0,0E0],"parents":[2147483647,0,0,1,1,2,2,3,3,4,4,5,5,6,6,7,7,8,8,9,9,10,10,11,11,12,12,13,13,14,14],"right_children":[2,4,6,8,10,12,14,16,18,20,22,24,26,28,30,-1,-1,-1,-1,-1,-1,-1,-1,-1,-1,-1,-1,-1,-1,-1,-1],"split_conditions":[4E0,2.023E3,2.023E3,5.83E2,8.660254E-1,5.82E2,1.7E1,4E0,-8.660254E-1,8E0,2E0,9E0,8E0,8E0,5.26E2,6.073975E-3,-8.191293E-2,4.4369704E-1,2.1365266E-1,-8.91979E-2,-4.103274E-2,-3.9284986E-2,9.0735346E-2,1.4584361E-1,3.4850072E-3,6.2640506E-1,3.021723E-1,4.15294E-2,1.8515919E-1,-1.1416153E-1,8.2550204E-1],"split_indices":[4,1,1,2,7,2,4,5,6,0,4,0,5,0,2,0,0,0,0,0,0,0,0,0,0,0,0,0,0,0,0],"split_type":[0,0,0,0,0,0,0,0,0,0,0,0,0,0,0,0,0,0,0,0,0,0,0,0,0,0,0,0,0,0,0],"sum_hessian":[1.156E3,9.6E2,1.96E2,1.46E2,8.14E2,5.2E1,1.44E2,1.01E2,4.5E1,6.26E2,1.88E2,6E0,4.6E1,1.39E2,5E0,2.5E1,7.6E1,7E0,3.8E1,4.24E2,2.02E2,1.44E2,4.4E1,2E0,4E0,3.1E1,1.5E1,1.06E2,3.3E1,2E0,3E0],"tree_param":{"num_deleted":"0","num_feature":"8","num_nodes":"31","size_leaf_vector":"1"}},{"base_weights":[3.408541E-2,-5.12688E-1,2.035844E0,-6.671459E-1,3.1143013E-1,3.9292006E0,1.1764004E0,-1.0911071E-1,-7.489725E-1,1.7009063E0,1.936067E-2,1.879891E0,5.128161E0,8.623944E-1,6.177059E0,-5.524639E-2,1.4677374E-1,-9.183622E-2,-4.4769567E-2,-4.5116313E-2,4.4809183E-1,-1.8913195E-2,7.111626E-2,1.16022505E-1,4.5651847E-1,6.4126986E-1,3.576427E-1,3.003992E-2,1.7050886E-1,-4.780556E-2,7.900595E-1],"categories":[],"categories_nodes":[],"categories_segments":[],"categories_sizes":[],"default_left":[0,1,0,0,0,0,0,0,0,0,0,0,0,0,0,0,0,0,0,0,0,0,0,0,0,0,0,0,0,0,0],"id":2,"left_children":[1,3,5,7,9,11,13,15,17,19,21,23,25,27,29,-1,-1,-1,-1,-1,-1,-1,-1,-1,-1,-1,-1,-1,-1,-1,-1],"loss_changes":[1.2652008E3,1.157885E2,3.9893164E2,3.4849823E1,5.8405663E1,1.7955176E2,2.6475372E2,7.002183E1,3.362799E1,1.5159111E2,1.7442774E1,5.2678795E1,7.2742065E1,7.668298E1,1.1848016E2,0E0,0E0,0E0,0E0,0E0,0E0,0E0,0E0,0E0,0E0,0E0,0E0,0E0,0E0,0E0,0E0],"parents":[2147483647,0,0,1,1,2,2,3,3,4,4,5,5,6,6,7,7,8,8,9,9,10,10,11,11,12,12,13,13,14,14],"right_children":[2,4,6,8,10,12,14,16,18,20,22,24,26,28,30,-1,-1,-1,-1,-1,-1,-1,-1,-1,-1,-1,-1,-1,-1,-1,-1],"split_conditions":[4E0,3E0,2.023E3,2.023E3,2.023E3,7.13E2,1.5E1,5.71E2,8E0,6.74E2,3E0,9E0,7.93E2,7.84E2,5.26E2,-5.524639E-2,1.4677374E-1,-9.183622E-2,-4.4769567E-2,-4.5116313E-2,4.4809183E-1,-1.8913195E-2,7.111626E-2,1.16022505E-1,4.5651847E-1,6.4126986E-1,3.576427E-1,3.003992E-2,1.7050886E-1,-4.780556E-2,7.900595E-1],"split_indices":[3,4,1,1,1,2,3,2,0,2,3,3,2,2,2,0,0,0,0,0,0,0,0,0,0,0,0,0,0,0,0],"split_type":[0,0,0,0,0,0,0,0,0,0,0,0,0,0,0,0,0,0,0,0,0,0,0,0,0,0,0,0,0,0,0],"sum_hessian":[1.154E3,9.07E2,2.47E2,7.64E2,1.43E2,7.6E1,1.71E2,9.8E1,6.66E2,2.4E1,1.19E2,2.9E1,4.7E1,1.62E2,9E0,7.7E1,2.1E1,4.25E2,2.41E2,1.4E1,1E1,9.2E1,2.7E1,2.4E1,5E0,2.4E1,2.3E1,9.8E1,6.4E1,2E0,7E0],"tree_param":{"num_deleted":"0","num_feature":"8","num_nodes":"31","size_leaf_vector":"1"}},{"base_weights":[-3.1792756E-2,-5.070159E-1,1.7133223E0,-6.012444E-1,3.5679352E-1,1.5220666E0,9.333002E0,-8.8328475E-1,-4.135162E-1,-4.193486E-2,1.9983399E0,2.972801E0,8.6376077E-1,-3.021338E-2,1.1320456E0,-9.0275556E-2,1.5659128E-1,-2.6792744E-2,-8.065628E-2,5.9108812E-2,-3.8988765E-2,3.0662432E-1,-1.1782865E-2,1.516173E-1,4.0892935E-1,1.3104234E-3,1.4616174E-1],"categories":[],"categories_nodes":[],"categories_segments":[],"categories_sizes":[],"default_left":[0,1,0,0,0,0,0,1,0,0,0,0,0,0,0,0,0,0,0,0,0,0,0,0,0,0,0],"id":3,"left_children":[1,3,5,7,9,11,13,15,17,19,21,23,25,-1,-1,-1,-1,-1,-1,-1,-1,-1,-1,-1,-1,-1,-1],"loss_changes":[9.8029456E2,7.58309E1,3.5449323E2,4.4004272E1,6.0300663E1,2.3427887E2,1.1831659E2,1.73414E1,2.8681602E1,1.6750116E1,4.1038834E1,1.1902612E2,8.745499E1,0E0,0E0,0E0,0E0,0E0,0E0,0E0,0E0,0E0,0E0,0E0,0E0,0E0,0E0],"parents":[2147483647,0,0,1,1,2,2,3,3,4,4,5,5,6,6,7,7,8,8,9,9,10,10,11,11,12,12],"right_children":[2,4,6,8,10,12,14,16,18,20,22,24,26,-1,-1,-1,-1,-1,-1,-1,-1,-1,-1,-1,-1,-1,-1],"split_conditions":[4E0,4E0,1.9E1,2E0,1.1E1,2.023E3,5.26E2,9E0,8.43E2,6.25E2,1.2E1,7.48E2,7.44E2,-3.021338E-2,1.1320456E0,-9.0275556E-2,1.5659128E-1,-2.6792744E-2,-8.065628E-2,5.9108812E-2,-3.8988765E-2,3.0662432E-1,-1.1782865E-2,1.516173E-1,4.0892935E-1,1.3104234E-3,1.4616174E-1],"split_indices":[3,4,3,4,0,1,2,5,2,2,0,2,2,0,0,0,0,0,0,0,0,0,0,0,0,0,0],"split_type":[0,0,0,0,0,0,0,0,0,0,0,0,0,0,0,0,0,0,0,0,0,0,0,0,0,0,0],"sum_hessian":[1.18E3,9.28E2,2.52E2,8.37E2,9.1E1,2.47E2,5E0,3.33E2,5.04E2,7.4E1,1.7E1,7.6E1,1.71E2,1E0,4E0,3.31E2,2E0,3.69E2,1.35E2,2.6E1,4.8E1,1.1E1,6E0,3.4E1,4.2E1,7.1E1,1E2],"tree_param":{"num_deleted":"0","num_feature":"8","num_nodes":"27","size_leaf_vector":"1"}},{"base_weights":[2.8969212E-2,-4.039994E-1,1.6405545E0,-4.9723756E-1,4.03083E-1,9.311564E-1,3.2057798E0,-7.422128E-1,-3.214347E-1,2.3550894E0,-5.2547734E-2,3.1856385E-1,2.1400054E0,1.2871141E0,5.0905743E0,-9.0905346E-2,-5.966117E-2,-5.011447E-2,2.3108011E-2,2.708405E-2,3.9954045E-1,1.1526859E-1,-3.1132808E-2,-3.230205E-2,1.9031504E-1,2.9419747E-1,-5.3332657E-2,-6.954507E-2,1.533563E-1,1.2379944E0,2.734078E-1],"categories":[],"categories_nodes":[],"categories_segments":[],"categories_sizes":[],"default_left":[0,1,0,0,0,1,0,0,0,0,0,0,0,0,0,0,0,0,0,0,0,0,0,0,0,0,0,0,0,0,0],"id":4,"left_children":[1,3,5,7,9,11,13,15,17,19,21,23,25,27,29,-1,-1,-1,-1,-1,-1,-1,-1,-1,-1,-1,-1,-1,-1,-1,-1],"loss_changes":[8.072801E2,6.882924E1,2.6905505E2,3.499051E1,8.4616196E1,1.25208725E2,2.6828595E2,7.741272E0,4.7577595E1,6.045671E1,2.4686346E1,1.165124E2,1.2377304E2,2.0121948E1,6.1889246E2,0E0,0E0,0E0,0E0,0E0,0E0,0E0,0E0,0E0,0E0,0E0,0E0,0E0,0E0,0E0,0E0],"parents":[2147483647,0,0,1,1,2,2,3,3,4,4,5,5,6,6,7,7,8,8,9,9,10,10,11,11,12,12,13,13,14,14],"right_children":[2,4,6,8,10,12,14,16,18,20,22,24,26,28,30,-1,-1,-1,-1,-1,-1,-1,-1,-1,-1,-1,-1,-1,-1,-1,-1],"split_conditions":[4E0,4E0,8.660254E-1,2E0,2.023E3,5E0,7.7E2,5.71E2,1E1,6.74E2,4.74E2,7E0,5E-1,4.09E2,7.91E2,-9.0905346E-2,-5.966117E-2,-5.011447E-2,2.3108011E-2,2.708405E-2,3.9954045E-1,1.1526859E-1,-3.1132808E-2,-3.230205E-2,1.9031504E-1,2.9419747E-1,-5.3332657E-2,-6.954507E-2,1.533563E-1,1.2379944E0,2.734078E-1],"split_indices":[3,4,7,4,1,4,2,2,0,2,2,3,7,2,2,0,0,0,0,0,0,0,0,0,0,0,0,0,0,0,0],"split_type":[0,0,0,0,0,0,0,0,0,0,0,0,0,0,0,0,0,0,0,0,0,0,0,0,0,0,0,0,0,0,0],"sum_hessian":[1.155E3,9.11E2,2.44E2,8.17E2,9.4E1,1.69E2,7.5E1,3.4E2,4.77E2,1.7E1,7.7E1,1.13E2,5.6E1,3.8E1,3.7E1,1.56E2,1.84E2,3.6E2,1.17E2,8E0,9E0,1.3E1,6.4E1,8.1E1,3.2E1,4.3E1,1.3E1,4E0,3.4E1,8E0,2.9E1],"tree_param":{"num_deleted":"0","num_feature":"8","num_nodes":"31","size_leaf_vector":"1"}},{"base_weights":[5.1008966E-3,-2.1500815E-1,2.5433254E0,-3.7524328E-1,7.405907E-1,2.0098975E0,6.385565E0,-3.881194E-1,3.728566E-1,2.7096337E-1,2.0512292E0,1.0127499E0,2.9371135E0,-5.282805E-2,7.980673E0,-4.7709744E-2,7.230474E-3,-3.962122E-2,1.8263185E-1,2.9211951E-2,2.7690637E-1,-2.4706505E-2,1.7975232E-1,5.391629E-1,1.6937695E-1,1.065498E0,1.974044E-1],"categories":[],"categories_nodes":[],"categories_segments":[],"categories_sizes":[],"default_left":[0,0,0,0,0,0,0,1,0,1,0,0,0,0,0,0,0,0,0,0,0,0,0,0,0,0,0],"id":5,"left_children":[1,3,5,7,9,11,13,15,-1,17,19,21,23,-1,25,-1,-1,-1,-1,-1,-1,-1,-1,-1,-1,-1,-1],"loss_changes":[6.581205E2,1.6626051E2,1.798241E2,5.0536636E1,9.546402E1,7.468942E1,1.2552768E2,3.8011505E1,0E0,1.21096214E2,5.0963852E1,4.196821E1,1.2209555E2,0E0,1.2353876E2,0E0,0E0,0E0,0E0,0E0,0E0,0E0,0E0,0E0,0E0,0E0,0E0],"parents":[2147483647,0,0,1,1,2,2,3,3,4,4,5,5,6,6,7,7,9,9,10,10,11,11,12,12,14,14],"right_children":[2,4,6,8,10,12,14,16,-1,18,20,22,24,-1,26,-1,-1,-1,-1,-1,-1,-1,-1,-1,-1,-1,-1],"split_conditions":[7E0,4E0,1.7E1,1.089E3,8.660254E-1,7.84E2,5.26E2,3E0,3.728566E-1,5E0,6.32E2,7E0,7.93E2,-5.282805E-2,7.8E2,-4.7709744E-2,7.230474E-3,-3.962122E-2,1.8263185E-1,2.9211951E-2,2.7690637E-1,-2.4706505E-2,1.7975232E-1,5.391629E-1,1.6937695E-1,1.065498E0,1.974044E-1],"split_indices":[3,3,3,2,7,2,2,4,0,4,2,5,2,0,2,0,0,0,0,0,0,0,0,0,0,0,0],"split_type":[0,0,0,0,0,0,0,0,0,0,0,0,0,0,0,0,0,0,0,0,0,0,0,0,0,0,0],"sum_hessian":[1.176E3,1.083E3,9.3E1,9.28E2,1.55E2,8.3E1,1E1,9.26E2,2E0,1.15E2,4E1,4.1E1,4.2E1,2E0,8E0,7.76E2,1.5E2,8.1E1,3.4E1,1.2E1,2.8E1,1.6E1,2.5E1,1.3E1,2.9E1,5E0,3E0],"tree_param":{"num_deleted":"0","num_feature":"8","num_nodes":"27","size_leaf_vector":"1"}},{"base_weights":[-2.7682621E-2,-2.0773052E-1,2.1352003E0,-3.5796615E-1,7.492631E-1,6.3057137E-1,3.3813066E0,-5.6731963E-1,-1.1289183E-1,2.7722843E0,2.70981E-1,3.434689E-1,3.2721773E-1,9.1602427E-1,4.5488367E0,-8.2441404E-2,-4.6518542E-2,-4.1418936E-2,3.4057777E-2,-9.966254E-3,4.1379258E-1,5.68465E-2,-1.0800143E-1,1.7095784E-2,3.4494448E-1,2.530931E-1,-8.0066286E-2,6.7661685E-1,2.0639265E-1],"categories":[],"categories_nodes":[],"categories_segments":[],"categories_sizes":[],"default_left":[0,1,0,0,0,0,0,0,0,0,0,1,0,0,0,0,0,0,0,0,0,0,0,0,0,0,0,0,0],"id":6,"left_children":[1,3,5,7,9,11,13,15,17,19,21,23,-1,25,27,-1,-1,-1,-1,-1,-1,-1,-1,-1,-1,-1,-1,-1,-1],"loss_changes":[4.5606787E2,1.556885E2,1.6661133E2,4.7908142E1,1.4148227E2,3.0729395E1,1.3686945E2,1.2850601E1,5.91649E1,1.1022977E2,4.8841896E1,2.0307083E1,0E0,4.9155334E1,1.6786084E2,0E0,0E0,0E0,0E0,0E0,0E0,0E0,0E0,0E0,0E0,0E0,0E0,0E0,0E0],"parents":[2147483647,0,0,1,1,2,2,3,3,4,4,5,5,6,6,7,7,8,8,9,9,10,10,11,11,13,13,14,14],"right_children":[2,4,6,8,10,12,14,16,18,20,22,24,-1,26,28,-1,-1,-1,-1,-1,-1,-1,-1,-1,-1,-1,-1,-1,-1],"split_conditions":[7E0,4E0,8E0,2E0,2.023E3,1.5E1,7.46E2,4.08E2,5E-1,6.74E2,1E1,1.8E1,3.2721773E-1,2.023E3,7E0,-8.2441404E-2,-4.6518542E-2,-4.1418936E-2,3.4057777E-2,-9.966254E-3,4.1379258E-1,5.68465E-2,-1.0800143E-1,1.7095784E-2,3.4494448E-1,2.530931E-1,-8.0066286E-2,6.7661685E-1,2.0639265E-1],"split_indices":[3,4,0,3,1,3,2,2,7,2,5,5,0,1,4,0,0,0,0,0,0,0,0,0,0,0,0,0,0],"split_type":[0,0,0,0,0,0,0,0,0,0,0,0,0,0,0,0,0,0,0,0,0,0,0,0,0,0,0,0,0],"sum_hessian":[1.169E3,1.08E3,8.9E1,9.34E2,1.46E2,4.1E1,4.8E1,5.03E2,4.31E2,2.7E1,1.19E2,3.8E1,3E0,1.6E1,3.2E1,1.41E2,3.62E2,2.59E2,1.72E2,9E0,1.8E1,9.8E1,2.1E1,3.7E1,1E0,8E0,8E0,1.6E1,1.6E1],"tree_param":{"num_deleted":"0","num_feature":"8","num_nodes":"29","size_leaf_vector":"1"}},{"base_weights":[-1.5144066E-2,-3.2139546E-1,1.1241717E0,-5.053388E-1,-7.9600245E-2,9.850041E-1,5.814559E0,-5.3423136E-1,1.2201601E0,-3.8988402E-1,2.3416695E-1,5.5315596E-1,1.9890162E0,6.8827385E-1,-2.9725814E-2,-7.018689E-2,-4.347766E-2,-4.41478E-2,3.4075773E-1,-4.933412E-2,9.3966834E-2,-7.150763E-3,1.1838414E-1,2.697533E-3,1.4631037E-1,3.227137E-1,1.4609115E-1],"categories":[],"categories_nodes":[],"categories_segments":[],"categories_sizes":[],"default_left":[0,0,0,1,0,0,0,0,1,1,0,1,0,0,0,0,0,0,0,0,0,0,0,0,0,0,0],"id":7,"left_children":[1,3,5,7,9,11,13,15,17,19,21,23,25,-1,-1,-1,-1,-1,-1,-1,-1,-1,-1,-1,-1,-1,-1],"loss_changes":[4.117345E2,4.1323013E1,1.5746008E2,2.6974854E1,3.9326115E1,1.0469347E2,4.7745575E1,8.364456E0,3.4216633E1,2.838657E1,5.8433212E1,8.231361E1,4.301703E1,0E0,0E0,0E0,0E0,0E0,0E0,0E0,0E0,0E0,0E0,0E0,0E0,0E0,0E0],"parents":[2147483647,0,0,1,1,2,2,3,3,4,4,5,5,6,6,7,7,8,8,9,9,10,10,11,11,12,12],"right_children":[2,4,6,8,10,12,14,16,18,20,22,24,26,-1,-1,-1,-1,-1,-1,-1,-1,-1,-1,-1,-1,-1,-1],"split_conditions":[4E0,2E0,1.9E1,7E0,3E0,8.660254E-1,2.3E1,6E0,4E0,4E0,1E1,5E0,-2.4492937E-16,6.8827385E-1,-2.9725814E-2,-7.018689E-2,-4.347766E-2,-4.41478E-2,3.4075773E-1,-4.933412E-2,9.3966834E-2,-7.150763E-3,1.1838414E-1,2.697533E-3,1.4631037E-1,3.227137E-1,1.4609115E-1],"split_indices":[3,3,3,4,4,7,3,0,5,5,0,4,6,0,0,0,0,0,0,0,0,0,0,0,0,0,0],"split_type":[0,0,0,0,0,0,0,0,0,0,0,0,0,0,0,0,0,0,0,0,0,0,0,0,0,0,0],"sum_hessian":[1.178E3,9.29E2,2.49E2,5.27E2,4.02E2,2.43E2,6E0,5.19E2,8E0,2.02E2,2E2,1.71E2,7.2E1,5E0,1E0,1.91E2,3.28E2,5E0,3E0,1.88E2,1.4E1,1.52E2,4.8E1,1.09E2,6.2E1,2E1,5.2E1],"tree_param":{"num_deleted":"0","num_feature":"8","num_nodes":"27","size_leaf_vector":"1"}},{"base_weights":[3.737742E-2,-1.4794752E-1,2.0418787E0,-2.606972E-1,5.0522435E-1,6.859566E-1,2.8399944E0,-2.7194214E-1,3.2446676E-1,1.21727005E-1,1.5280259E0,2.0688272E0,1.8545105E-1,4.1763725E0,8.2899475E-1,-6.6464044E-2,-1.7513772E-2,-8.911222E-2,3.5500024E-2,2.2925289E-1,-5.1881694E-3,-6.7884447E-3,3.5046157E-1,2.8871706E-1,-1.2160858E-2,3.050348E-1,8.566429E-1,3.8770708E-1,-8.136008E-3],"categories":[],"categories_nodes":[],"categories_segments":[],"categories_sizes":[],"default_left":[0,0,0,0,0,0,0,0,0,0,0,0,0,0,0,0,0,0,0,0,0,0,0,0,0,0,0,0,0],"id":8,"left_children":[1,3,5,7,9,11,13,15,-1,17,19,21,23,25,27,-1,-1,-1,-1,-1,-1,-1,-1,-1,-1,-1,-1,-1,-1],"loss_changes":[4.34567E2,7.900542E1,1.0518799E2,3.6910103E1,6.1788177E1,2.5917439E1,1.6316006E2,3.4553215E1,0E0,2.772374E1,5.2056244E1,3.0916565E1,2.4409187E1,1.5677191E2,7.246104E1,0E0,0E0,0E0,0E0,0E0,0E0,0E0,0E0,0E0,0E0,0E0,0E0,0E0,0E0],"parents":[2147483647,0,0,1,1,2,2,3,3,4,4,5,5,6,6,7,7,9,9,10,10,11,11,12,12,13,13,14,14],"right_children":[2,4,6,8,10,12,14,16,-1,18,20,22,24,26,28,-1,-1,-1,-1,-1,-1,-1,-1,-1,-1,-1,-1,-1,-1],"split_conditions":[7E0,4E0,7.46E2,1.089E3,8.660254E-1,2.023E3,8.1E2,2.33E2,3.2446676E-1,2E0,1.2E1,9E0,3.84E2,1.1E1,-8.660254E-1,-6.6464044E-2,-1.7513772E-2,-8.911222E-2,3.5500024E-2,2.2925289E-1,-5.1881694E-3,-6.7884447E-3,3.5046157E-1,2.8871706E-1,-1.2160858E-2,3.050348E-1,8.566429E-1,3.8770708E-1,-8.136008E-3],"split_indices":[3,3,2,2,7,1,2,2,0,5,0,3,2,0,6,0,0,0,0,0,0,0,0,0,0,0,0,0,0],"split_type":[0,0,0,0,0,0,0,0,0,0,0,0,0,0,0,0,0,0,0,0,0,0,0,0,0,0,0,0,0],"sum_hessian":[1.168E3,1.07E3,9.8E1,9.13E2,1.57E2,3.7E1,6.1E1,9.11E2,2E0,1.15E2,4.2E1,9E0,2.8E1,3.6E1,2.5E1,1.79E2,7.32E2,2.1E1,9.4E1,2.8E1,1.4E1,4E0,5E0,2E0,2.6E1,3E1,6E0,5E0,2E1],"tree_param":{"num_deleted":"0","num_feature":"8","num_nodes":"29","size_leaf_vector":"1"}},{"base_weights":[-2.9718236E-4,-2.1055628E-1,1.182714E0,3.2132828E-1,-3.0416548E-1,1.0166726E0,4.998748E0,-4.199816E-1,2.1846025E0,-1.6839628E-1,-6.112487E-1,1.8707255E0,5.493472E-1,-6.510932E-2,7.3889035E-1,9.578444E-3,-5.888029E-2,3.1087703E-1,1.20314255E-1,-3.044566E-2,5.942182E-2,-6.361263E-2,5.2719396E-2,9.466787E-3,2.1885227E-1,-1.4908567E-2,1.3904485E-1],"categories":[],"categories_nodes":[],"categories_segments":[],"categories_sizes":[],"default_left":[0,0,0,0,0,0,0,0,0,0,1,0,1,0,0,0,0,0,0,0,0,0,0,0,0,0,0],"id":9,"left_children":[1,3,5,7,9,11,13,15,17,19,21,23,25,-1,-1,-1,-1,-1,-1,-1,-1,-1,-1,-1,-1,-1,-1],"loss_changes":[2.867962E2,4.884145E1,1.0516774E2,2.0396326E2,3.4626877E1,6.602458E1,9.933882E1,9.28606E0,3.4355118E1,6.025886E1,7.557411E0,3.309395E1,6.48271E1,0E0,0E0,0E0,0E0,0E0,0E0,0E0,0E0,0E0,0E0,0E0,0E0,0E0,0E0],"parents":[2147483647,0,0,1,1,2,2,3,3,4,4,5,5,6,6,7,7,8,8,9,9,10,10,11,11,12,12],"right_children":[2,4,6,8,10,12,14,16,18,20,22,24,26,-1,-1,-1,-1,-1,-1,-1,-1,-1,-1,-1,-1,-1,-1],"split_conditions":[5E0,2.023E3,1.9E1,5.83E2,8.14E2,2.023E3,5.26E2,4E0,7.93E2,7.78E2,7E0,6.02E2,3E0,-6.510932E-2,7.3889035E-1,9.578444E-3,-5.888029E-2,3.1087703E-1,1.20314255E-1,-3.044566E-2,5.942182E-2,-6.361263E-2,5.2719396E-2,9.466787E-3,2.1885227E-1,-1.4908567E-2,1.3904485E-1],"split_indices":[3,1,3,2,2,1,2,5,2,2,4,2,5,0,0,0,0,0,0,0,0,0,0,0,0,0,0],"split_type":[0,0,0,0,0,0,0,0,0,0,0,0,0,0,0,0,0,0,0,0,0,0,0,0,0,0,0],"sum_hessian":[1.151E3,9.78E2,1.73E2,1.46E2,8.32E2,1.67E2,6E0,1.05E2,4.1E1,5.78E2,2.54E2,5.8E1,1.09E2,2E0,4E0,2.6E1,7.9E1,2E1,2.1E1,4.91E2,8.7E1,2.49E2,5E0,9E0,4.9E1,6E1,4.9E1],"tree_param":{"num_deleted":"0","num_feature":"8","num_nodes":"27","size_leaf_vector":"1"}},{"base_weights":[-1.4328167E-2,-2.3020054E-1,8.309278E-1,-4.1208622E-1,-9.037309E-3,3.8611448E-1,1.7994905E0,-4.7525594E-1,1.7203258E-2,7.661722E-1,-1.4110082E-1,-3.8979027E-1,7.2303665E-1,7.5865155E-1,3.1418836E0,-6.345346E-2,-3.8788285E-2,-3.5057258E-2,7.200265E-2,-6.1120387E-2,1.7396612E-1,-1.6673747E-2,2.948147E-1,-6.6942E-2,5.5148866E-2,1.2278501E-1,-1.3904725E-2,-1.2565796E-1,9.4120845E-2,8.9289945E-1,1.164333E-1],"categories":[],"categories_nodes":[],"categories_segments":[],"categories_sizes":[],"default_left":[0,0,0,1,0,0,0,0,0,0,0,1,0,0,0,0,0,0,0,0,0,0,0,0,0,0,0,0,0,0,0],"id":10,"left_children":[1,3,5,7,9,11,13,15,17,19,21,23,25,27,29,-1,-1,-1,-1,-1,-1,-1,-1,-1,-1,-1,-1,-1,-1,-1,-1],"loss_changes":[2.11671E2,3.7165485E1,1.0098097E2,1.3757057E1,4.290165E1,4.2893204E1,1.0101033E2,5.905037E0,1.7312195E1,8.2855774E1,2.8844423E1,1.3529654E1,4.9782574E1,1.7002151E1,3.558214E2,0E0,0E0,0E0,0E0,0E0,0E0,0E0,0E0,0E0,0E0,0E0,0E0,0E0,0E0,0E0,0E0],"parents":[2147483647,0,0,1,1,2,2,3,3,4,4,5,5,6,6,7,7,8,8,9,9,10,10,11,11,12,12,13,13,14,14],"right_children":[2,4,6,8,10,12,14,16,18,20,22,24,26,28,30,-1,-1,-1,-1,-1,-1,-1,-1,-1,-1,-1,-1,-1,-1,-1,-1],"split_conditions":[4E0,3E0,8.660254E-1,3E0,3E0,5E0,7.7E2,4.99E2,8E0,2E0,1.089E3,5E0,6.123234E-17,1.04E2,7.93E2,-6.345346E-2,-3.8788285E-2,-3.5057258E-2,7.200265E-2,-6.1120387E-2,1.7396612E-1,-1.6673747E-2,2.948147E-1,-6.6942E-2,5.5148866E-2,1.2278501E-1,-1.3904725E-2,-1.2565796E-1,9.4120845E-2,8.9289945E-1,1.164333E-1],"split_indices":[3,4,7,5,5,3,2,2,0,3,2,4,7,2,2,0,0,0,0,0,0,0,0,0,0,0,0,0,0,0,0],"split_type":[0,0,0,0,0,0,0,0,0,0,0,0,0,0,0,0,0,0,0,0,0,0,0,0,0,0,0,0,0,0,0],"sum_hessian":[1.158E3,9.23E2,2.35E2,5.06E2,4.17E2,1.62E2,7.3E1,4.41E2,6.5E1,6E1,3.57E2,4.9E1,1.13E2,4.2E1,3.1E1,1.54E2,2.87E2,4.3E1,2.2E1,2.5E1,3.5E1,3.55E2,2E0,3.8E1,1.1E1,7.1E1,4.2E1,3E0,3.9E1,7E0,2.4E1],"tree_param":{"num_deleted":"0","num_feature":"8","num_nodes":"31","size_leaf_vector":"1"}},{"base_weights":[3.7038117E-3,-1.6001897E-1,7.860062E-1,3.1894654E-1,-2.5010547E-1,4.693237E-1,2.1487243E0,-2.507076E-1,1.6211529E0,-9.143594E-2,-5.766103E-1,-6.676433E-2,7.6554763E-1,9.140286E-1,3.2142491E0,-7.7886514E-2,-9.053323E-3,2.5126153E-1,2.920478E-2,-2.8154686E-2,1.2406657E-1,-1.0627787E-2,-6.3347325E-2,-7.887985E-2,2.8707583E-2,2.5490567E-1,4.0033977E-2,2.4607335E-1,-4.345508E-2,4.4815192E-1,7.531538E-2],"categories":[],"categories_nodes":[],"categories_segments":[],"categories_sizes":[],"default_left":[1,0,0,0,0,0,0,0,0,0,0,0,0,0,1,0,0,0,0,0,0,0,0,0,0,0,0,0,0,0,0],"id":11,"left_children":[1,3,5,7,9,11,13,15,17,19,21,23,25,27,29,-1,-1,-1,-1,-1,-1,-1,-1,-1,-1,-1,-1,-1,-1,-1,-1],"loss_changes":[1.5023637E2,4.1933643E1,8.6596E1,1.14644745E2,4.2273083E1,2.6412258E1,4.7054855E1,9.065994E0,5.4954018E1,1.3988844E2,7.073448E0,1.5555525E1,6.867412E1,4.0700546E1,5.9002197E1,0E0,0E0,0E0,0E0,0E0,0E0,0E0,0E0,0E0,0E0,0E0,0E0,0E0,0E0,0E0,0E0],"parents":[2147483647,0,0,1,1,2,2,3,3,4,4,5,5,6,6,7,7,8,8,9,9,10,10,11,11,12,12,13,13,14,14],"right_children":[2,4,6,8,10,12,14,16,18,20,22,24,26,28,30,-1,-1,-1,-1,-1,-1,-1,-1,-1,-1,-1,-1,-1,-1,-1,-1],"split_conditions":[4E0,2.023E3,1.1E1,6.02E2,8.12E2,7.13E2,7.54E2,6E1,8.35E2,7.78E2,2.024E3,-5E-1,7.5E2,6.73E2,7E0,-7.7886514E-2,-9.053323E-3,2.5126153E-1,2.920478E-2,-2.8154686E-2,1.2406657E-1,-1.0627787E-2,-6.3347325E-2,-7.887985E-2,2.8707583E-2,2.5490567E-1,4.0033977E-2,2.4607335E-1,-4.345508E-2,4.4815192E-1,7.531538E-2],"split_indices":[4,1,0,2,2,2,2,2,2,2,1,7,2,2,5,0,0,0,0,0,0,0,0,0,0,0,0,0,0,0,0],"split_type":[0,0,0,0,0,0,0,0,0,0,0,0,0,0,0,0,0,0,0,0,0,0,0,0,0,0,0,0,0,0,0],"sum_hessian":[1.171E3,9.69E2,2.02E2,1.53E2,8.16E2,1.65E2,3.7E1,1.07E2,4.6E1,5.5E2,2.66E2,5.9E1,1.06E2,1.8E1,1.9E1,2.4E1,8.3E1,2.7E1,1.9E1,4.82E2,6.8E1,2.9E1,2.37E2,1.9E1,4E1,1.7E1,8.9E1,8E0,1E1,1.2E1,7E0],"tree_param":{"num_deleted":"0","num_feature":"8","num_nodes":"31","size_leaf_vector":"1"}},{"base_weights":[-4.5273323E-3,-1.2438593E-1,1.315213E0,-2.0903657E-1,7.1554863E-1,1.0696483E0,4.8204085E-1,2.2682147E-1,-2.8739497E-1,1.419182E0,-2.0108804E-1,3.8746986E-1,1.7285734E0,-1.5543416E-2,5.0747186E-2,-3.655275E-2,-2.6672867E-3,1.8987997E-1,-2.764139E-2,-8.0174886E-2,3.078413E-2,1.6291505E-2,2.7045664E-1,1.9328462E-1,-1.8436165E-1],"categories":[],"categories_nodes":[],"categories_segments":[],"categories_sizes":[],"default_left":[0,1,0,0,0,0,0,0,0,1,0,0,0,0,0,0,0,0,0,0,0,0,0,0,0],"id":12,"left_children":[1,3,5,7,9,11,-1,13,15,17,19,21,23,-1,-1,-1,-1,-1,-1,-1,-1,-1,-1,-1,-1],"loss_changes":[1.8238953E2,7.530333E1,7.747606E1,3.2886353E1,6.284805E1,4.0235138E1,0E0,1.5849068E1,1.6592506E1,4.5252945E1,1.3391649E1,2.3493887E1,3.7129654E1,0E0,0E0,0E0,0E0,0E0,0E0,0E0,0E0,0E0,0E0,0E0,0E0],"parents":[2147483647,0,0,1,1,2,2,3,3,4,4,5,5,7,7,8,8,9,9,10,10,11,11,12,12],"right_children":[2,4,6,8,10,12,-1,14,16,18,20,22,24,-1,-1,-1,-1,-1,-1,-1,-1,-1,-1,-1,-1],"split_conditions":[7E0,5E0,1.9E1,2.023E3,2.024E3,8E0,4.8204085E-1,2E0,8.660254E-1,8E0,3E0,1.5E1,1.8E1,-1.5543416E-2,5.0747186E-2,-3.655275E-2,-2.6672867E-3,1.8987997E-1,-2.764139E-2,-8.0174886E-2,3.078413E-2,1.6291505E-2,2.7045664E-1,1.9328462E-1,-1.8436165E-1],"split_indices":[3,4,3,1,1,0,0,3,7,5,3,3,3,0,0,0,0,0,0,0,0,0,0,0,0],"split_type":[0,0,0,0,0,0,0,0,0,0,0,0,0,0,0,0,0,0,0,0,0,0,0,0,0],"sum_hessian":[1.151E3,1.056E3,9.5E1,9.6E2,9.6E1,9E1,5E0,1.46E2,8.14E2,5.4E1,4.2E1,4.5E1,4.5E1,6.2E1,8.4E1,6.26E2,1.88E2,4.2E1,1.2E1,1.9E1,2.3E1,4.2E1,3E0,4.3E1,2E0],"tree_param":{"num_deleted":"0","num_feature":"8","num_nodes":"25","size_leaf_vector":"1"}},{"base_weights":[8.635433E-3,-1.5211315E-1,9.030319E-1,-3.107033E-1,2.747296E-2,2.3086114E-1,1.565169E0,-3.4006077E-1,1.4232905E0,6.1069846E-1,-8.894407E-2,1.1998882E0,-2.0348203E-1,1.0431525E0,3.1312582E0,-5.303169E-2,-2.2833584E-2,-6.1446156E-2,2.5445768E-1,-5.264742E-4,1.996835E-1,7.023403E-2,-1.8364407E-2,-8.23651E-2,1.675599E-1,3.3347985E-1,-3.1433817E-2,1.2513767E-1,-1.872394E-1,4.2903063E-1,3.4683365E-3],"categories":[],"categories_nodes":[],"categories_segments":[],"categories_sizes":[],"default_left":[0,0,1,1,0,0,0,0,0,0,0,0,0,0,1,0,0,0,0,0,0,0,0,0,0,0,0,0,0,0,0],"id":13,"left_children":[1,3,5,7,9,11,13,15,17,19,21,23,25,27,29,-1,-1,-1,-1,-1,-1,-1,-1,-1,-1,-1,-1,-1,-1,-1,-1],"loss_changes":[1.6892683E2,2.8375208E1,7.9306046E1,2.7413105E1,3.1830292E1,3.812428E1,7.031082E1,1.0953468E1,2.212767E1,6.660761E1,2.9428421E1,2.8333454E1,2.5759377E1,4.4232117E1,7.881093E1,0E0,0E0,0E0,0E0,0E0,0E0,0E0,0E0,0E0,0E0,0E0,0E0,0E0,0E0,0E0,0E0],"parents":[2147483647,0,0,1,1,2,2,3,3,4,4,5,5,6,6,7,7,8,8,9,9,10,10,11,11,12,12,13,13,14,14],"right_children":[2,4,6,8,10,12,14,16,18,20,22,24,26,28,30,-1,-1,-1,-1,-1,-1,-1,-1,-1,-1,-1,-1,-1,-1,-1,-1],"split_conditions":[5E0,2E0,4E0,7E0,2.023E3,2.023E3,1.1E1,4.99E2,3E0,6.74E2,2E0,5E0,3.84E2,1.039E3,8E0,-5.303169E-2,-2.2833584E-2,-6.1446156E-2,2.5445768E-1,-5.264742E-4,1.996835E-1,7.023403E-2,-1.8364407E-2,-8.23651E-2,1.675599E-1,3.3347985E-1,-3.1433817E-2,1.2513767E-1,-1.872394E-1,4.2903063E-1,3.4683365E-3],"split_indices":[3,3,4,4,1,1,0,2,5,2,0,5,2,2,5,0,0,0,0,0,0,0,0,0,0,0,0,0,0,0,0],"split_type":[0,0,0,0,0,0,0,0,0,0,0,0,0,0,0,0,0,0,0,0,0,0,0,0,0,0,0,0,0,0,0],"sum_hessian":[1.173E3,9.95E2,1.78E2,5.28E2,4.67E2,8.9E1,8.9E1,5.2E2,8E0,7.7E1,3.9E2,2.7E1,6.2E1,6.8E1,2.1E1,1.91E2,3.29E2,3E0,5E0,5.4E1,2.3E1,4.1E1,3.49E2,5E0,2.2E1,1E0,6.1E1,6.4E1,4E0,1.5E1,6E0],"tree_param":{"num_deleted":"0","num_feature":"8","num_nodes":"31","size_leaf_vector":"1"}},{"base_weights":[4.448705E-3,-1.12178214E-1,1.2933728E0,3.5630673E-1,-2.0071323E-1,1.0710151E0,4.4502344E0,-2.0658845E-1,1.5267911E0,-6.553153E-2,-4.8157197E-1,3.237328E-1,1.6252513E0,-5.0204683E-2,5.5411E-1,-9.970416E-3,-6.8027504E-2,2.3539881E-1,7.58994E-2,-2.799559E-2,7.0331894E-2,-4.968888E-2,4.908634E-2,1.2331765E-1,-2.712605E-2,-1.6905935E-1,2.1786182E-1],"categories":[],"categories_nodes":[],"categories_segments":[],"categories_sizes":[],"default_left":[0,0,0,0,0,0,0,1,0,0,0,1,0,0,0,0,0,0,0,0,0,0,0,0,0,0,0],"id":14,"left_children":[1,3,5,7,9,11,13,15,17,19,21,23,25,-1,-1,-1,-1,-1,-1,-1,-1,-1,-1,-1,-1,-1,-1],"loss_changes":[1.7391876E2,4.4078957E1,6.2621155E1,1.11662766E2,3.3872936E1,3.7163406E1,3.5195534E1,5.754584E0,3.3144897E1,9.97725E1,4.563339E0,2.1979027E1,9.909685E1,0E0,0E0,0E0,0E0,0E0,0E0,0E0,0E0,0E0,0E0,0E0,0E0,0E0,0E0],"parents":[2147483647,0,0,1,1,2,2,3,3,4,4,5,5,6,6,7,7,8,8,9,9,10,10,11,11,12,12],"right_children":[2,4,6,8,10,12,14,16,18,20,22,24,26,-1,-1,-1,-1,-1,-1,-1,-1,-1,-1,-1,-1,-1,-1],"split_conditions":[7E0,2.023E3,1.9E1,6.02E2,8.1E2,7.54E2,5.26E2,3E0,6E0,7.44E2,1.087E3,3E0,-5E-1,-5.0204683E-2,5.5411E-1,-9.970416E-3,-6.8027504E-2,2.3539881E-1,7.58994E-2,-2.799559E-2,7.0331894E-2,-4.968888E-2,4.908634E-2,1.2331765E-1,-2.712605E-2,-1.6905935E-1,2.1786182E-1],"split_indices":[3,1,3,2,2,2,2,4,4,2,2,4,7,0,0,0,0,0,0,0,0,0,0,0,0,0,0],"split_type":[0,0,0,0,0,0,0,0,0,0,0,0,0,0,0,0,0,0,0,0,0,0,0,0,0,0,0],"sum_hessian":[1.155E3,1.06E3,9.5E1,1.68E2,8.92E2,9E1,5E0,1.14E2,5.4E1,6.03E2,2.89E2,3.9E1,5.1E1,1E0,4E0,9.4E1,2E1,2.5E1,2.9E1,4.72E2,1.31E2,2.85E2,4E0,1.5E1,2.4E1,7E0,4.4E1],"tree_param":{"num_deleted":"0","num_feature":"8","num_nodes":"27","size_leaf_vector":"1"}},{"base_weights":[1.8105512E-2,-1.0553761E-1,6.299851E-1,-1.1569347E-1,3.240454E-1,1.4954304E0,2.9505816E-1,-7.267156E-3,-4.331052E-1,2.0203629E0,8.9634776E-2,-1.6994002E-1,3.7902716E-1,-1.9362403E-2,6.3707195E-2,-2.2425635E-2,-5.4991107E-2,2.52743E-1,-2.0345938E-1,-1.2224861E-1,1.5545665E-1,2.3841701E-1,1.5322536E-2],"categories":[],"categories_nodes":[],"categories_segments":[],"categories_sizes":[],"default_left":[1,0,0,0,0,1,0,0,0,0,0,0,0,0,0,0,0,0,0,0,0,0,0],"id":15,"left_children":[1,3,5,7,-1,9,11,13,15,17,19,-1,21,-1,-1,-1,-1,-1,-1,-1,-1,-1,-1],"loss_changes":[8.911206E1,3.3676712E1,5.6951233E1,3.3655487E1,0E0,4.040602E1,2.4760185E1,8.777958E1,5.950981E0,8.7387726E1,3.2655113E1,0E0,6.2569E1,0E0,0E0,0E0,0E0,0E0,0E0,0E0,0E0,0E0,0E0],"parents":[2147483647,0,0,1,1,2,2,3,3,5,5,6,6,7,7,8,8,9,9,10,10,12,12],"right_children":[2,4,6,8,-1,10,12,14,16,18,20,-1,22,-1,-1,-1,-1,-1,-1,-1,-1,-1,-1],"split_conditions":[4E0,1.089E3,2.023E3,8.43E2,3.240454E-1,8E0,-8.660254E-1,7.44E2,-2.4492937E-16,1.039E3,9E0,-1.6994002E-1,-5E-1,-1.9362403E-2,6.3707195E-2,-2.2425635E-2,-5.4991107E-2,2.52743E-1,-2.0345938E-1,-1.2224861E-1,1.5545665E-1,2.3841701E-1,1.5322536E-2],"split_indices":[4,2,1,2,0,5,6,2,6,2,4,0,6,0,0,0,0,0,0,0,0,0,0],"split_type":[0,0,0,0,0,0,0,0,0,0,0,0,0,0,0,0,0,0,0,0,0,0,0],"sum_hessian":[1.176E3,9.79E2,1.97E2,9.77E2,2E0,5.4E1,1.43E2,7.29E2,2.48E2,3.9E1,1.5E1,5E0,1.38E2,5.66E2,1.63E2,9E1,1.58E2,3.5E1,4E0,8E0,7E0,1.3E1,1.25E2],"tree_param":{"num_deleted":"0","num_feature":"8","num_nodes":"23","size_leaf_vector":"1"}},{"base_weights":[6.1092008E-2,-4.3271974E-2,1.2617482E0,2.0792958E-1,-2.228639E-1,3.7404534E-1,1.7289556E0,-3.2847482E-1,5.164334E-1,-6.482075E-2,-4.5524415E-1,-4.7126585E-1,1.1046528E0,2.6597383E0,2.2195895E-1,-3.4844752E-2,8.462275E-2,4.0107053E-3,8.1356145E-2,-3.1567268E-2,9.924968E-2,-5.1430207E-2,1.2552689E-3,2.0443685E-1,-9.766685E-2,1.976496E-2,1.989695E-1,4.0882492E-1,7.386522E-2,-2.3911372E-1,7.0912205E-2],"categories":[],"categories_nodes":[],"categories_segments":[],"categories_sizes":[],"default_left":[0,0,0,0,0,0,0,0,0,0,0,0,0,1,0,0,0,0,0,0,0,0,0,0,0,0,0,0,0,0,0],"id":16,"left_children":[1,3,5,7,9,11,13,15,17,19,21,23,25,27,29,-1,-1,-1,-1,-1,-1,-1,-1,-1,-1,-1,-1,-1,-1,-1,-1],"loss_changes":[1.4415564E2,4.7821823E1,3.7509506E1,7.331304E1,2.2667225E1,2.0901077E1,8.357083E1,4.095705E0,3.9737274E1,9.8183235E1,6.9132347E0,2.2339201E1,1.4055986E1,9.851904E1,3.2247707E1,0E0,0E0,0E0,0E0,0E0,0E0,0E0,0E0,0E0,0E0,0E0,0E0,0E0,0E0,0E0,0E0],"parents":[2147483647,0,0,1,1,2,2,3,3,4,4,5,5,6,6,7,7,8,8,9,9,10,10,11,11,12,12,13,13,14,14],"right_children":[2,4,6,8,10,12,14,16,18,20,22,24,26,28,30,-1,-1,-1,-1,-1,-1,-1,-1,-1,-1,-1,-1,-1,-1,-1,-1],"split_conditions":[7E0,2.024E3,7.46E2,2.33E2,8.1E2,7E0,8.1E2,6E0,3E0,7.78E2,1.1E1,2.023E3,5.23E2,7E0,-5E-1,-3.4844752E-2,8.462275E-2,4.0107053E-3,8.1356145E-2,-3.1567268E-2,9.924968E-2,-5.1430207E-2,1.2552689E-3,2.0443685E-1,-9.766685E-2,1.976496E-2,1.989695E-1,4.0882492E-1,7.386522E-2,-2.3911372E-1,7.0912205E-2],"split_indices":[3,1,2,2,2,5,2,3,4,2,0,1,2,4,7,0,0,0,0,0,0,0,0,0,0,0,0,0,0,0,0],"split_type":[0,0,0,0,0,0,0,0,0,0,0,0,0,0,0,0,0,0,0,0,0,0,0,0,0,0,0,0,0,0,0],"sum_hessian":[1.149E3,1.058E3,9.1E1,4.41E2,6.17E2,3.2E1,5.9E1,1.61E2,2.8E2,3.68E2,2.49E2,1.5E1,1.7E1,3.6E1,2.3E1,1.59E2,2E0,1.08E2,1.72E2,2.98E2,7E1,2.21E2,2.8E1,2E0,1.3E1,9E0,8E0,2E1,1.6E1,3E0,2E1],"tree_param":{"num_deleted":"0","num_feature":"8","num_nodes":"31","size_leaf_vector":"1"}},{"base_weights":[3.806204E-2,-3.8895234E-2,9.374519E-1,-2.188815E-1,1.5485004E-1,1.7888037E0,3.9824545E-1,-1.5147014E-1,-3.7744334E-1,-1.8300213E-1,4.236453E-1,2.641662E0,-3.121288E-1,1.02237634E-1,3.4562793E-1,-2.3700105E-2,5.8028E-2,-6.902047E-2,-2.6059255E-2,-6.383603E-2,-7.975056E-3,8.721458E-2,7.001353E-3,3.223252E-1,-3.293484E-2,-1.9944118E-1,2.1054934E-1,3.5857808E-2,-6.374663E-2],"categories":[],"categories_nodes":[],"categories_segments":[],"categories_sizes":[],"default_left":[0,0,0,0,0,0,0,0,0,0,0,1,0,0,0,0,0,0,0,0,0,0,0,0,0,0,0,0,0],"id":17,"left_children":[1,3,5,7,9,11,13,15,17,19,21,23,25,27,-1,-1,-1,-1,-1,-1,-1,-1,-1,-1,-1,-1,-1,-1,-1],"loss_changes":[7.9910095E1,3.7137157E1,4.106157E1,5.8430862E0,4.6664627E1,6.3537437E1,5.124315E1,2.4483967E1,5.813751E0,1.0668842E1,4.5299694E1,4.425934E1,4.8937595E1,1.0278232E1,0E0,0E0,0E0,0E0,0E0,0E0,0E0,0E0,0E0,0E0,0E0,0E0,0E0,0E0,0E0],"parents":[2147483647,0,0,1,1,2,2,3,3,4,4,5,5,6,6,7,7,8,8,9,9,10,10,11,11,12,12,13,13],"right_children":[2,4,6,8,10,12,14,16,18,20,22,24,26,28,-1,-1,-1,-1,-1,-1,-1,-1,-1,-1,-1,-1,-1,-1,-1],"split_conditions":[7E0,3E0,-2.4492937E-16,8.12E2,2E0,1.4E1,1.7E1,7.8E2,8.62E2,1.15E2,-2.4492937E-16,1.2E1,1.9E1,8.07E2,3.4562793E-1,-2.3700105E-2,5.8028E-2,-6.902047E-2,-2.6059255E-2,-6.383603E-2,-7.975056E-3,8.721458E-2,7.001353E-3,3.223252E-1,-3.293484E-2,-1.9944118E-1,2.1054934E-1,3.5857808E-2,-6.374663E-2],"split_indices":[3,4,6,2,3,3,3,2,2,2,6,4,3,2,0,0,0,0,0,0,0,0,0,0,0,0,0,0,0],"split_type":[0,0,0,0,0,0,0,0,0,0,0,0,0,0,0,0,0,0,0,0,0,0,0,0,0,0,0,0,0],"sum_hessian":[1.153E3,1.063E3,9E1,5.51E2,5.12E2,3.4E1,5.6E1,3.88E2,1.63E2,2.27E2,2.85E2,2.4E1,1E1,5.2E1,4E0,3.48E2,4E1,4.3E1,1.2E2,4.1E1,1.86E2,1.25E2,1.6E2,2E1,4E0,6E0,4E0,3.9E1,1.3E1],"tree_param":{"num_deleted":"0","num_feature":"8","num_nodes":"29","size_leaf_vector":"1"}},{"base_weights":[-1.407001E-2,-5.453748E-2,1.763927E0,4.651395E-1,-1.5808846E-1,-2.7850887E-1,2.5310616E0,-1.0334759E-1,1.31923E0,-2.964811E-2,-4.4029915E-1,2.4005482E0,-1.5716193E0,4.3047118E-1,3.2505248E0,2.5672212E-3,-6.820873E-2,2.0709191E-1,3.2976348E-2,-2.1272188E-2,5.685062E-2,-4.152382E-2,-1.5907255E-1,2.8811222E-1,7.197001E-2,-2.1723334E-1,-2.467939E-2,-1.1187142E-1,1.4847425E-1,5.419796E-1,1.8408366E-1],"categories":[],"categories_nodes":[],"categories_segments":[],"categories_sizes":[],"default_left":[0,0,0,0,0,0,0,1,0,0,0,0,0,0,0,0,0,0,0,0,0,0,0,0,0,0,0,0,0,0,0],"id":18,"left_children":[1,3,5,7,9,11,13,15,17,19,21,23,25,27,29,-1,-1,-1,-1,-1,-1,-1,-1,-1,-1,-1,-1,-1,-1,-1,-1],"loss_changes":[8.406306E1,6.152805E1,4.144233E1,9.2388824E1,3.4530563E1,3.1487278E1,2.7315392E1,8.604431E0,5.5843704E1,7.195711E1,7.9310417E0,3.497715E-1,4.238929E0,1.1460571E1,3.283499E1,0E0,0E0,0E0,0E0,0E0,0E0,0E0,0E0,0E0,0E0,0E0,0E0,0E0,0E0,0E0,0E0],"parents":[2147483647,0,0,1,1,2,2,3,3,4,4,5,5,6,6,7,7,8,8,9,9,10,10,11,11,12,12,13,13,14,14],"right_children":[2,4,6,8,10,12,14,16,18,20,22,24,26,28,30,-1,-1,-1,-1,-1,-1,-1,-1,-1,-1,-1,-1,-1,-1,-1,-1],"split_conditions":[1.3E1,2.023E3,-5E-1,6.02E2,8.1E2,9E0,7.5E2,3E0,7.93E2,7.44E2,8E0,7.48E2,9E0,4E0,7.8E2,2.5672212E-3,-6.820873E-2,2.0709191E-1,3.2976348E-2,-2.1272188E-2,5.685062E-2,-4.152382E-2,-1.5907255E-1,2.8811222E-1,7.197001E-2,-2.1723334E-1,-2.467939E-2,-1.1187142E-1,1.4847425E-1,5.419796E-1,1.8408366E-1],"split_indices":[3,1,6,2,2,0,2,4,2,2,3,2,4,4,2,0,0,0,0,0,0,0,0,0,0,0,0,0,0,0,0],"split_type":[0,0,0,0,0,0,0,0,0,0,0,0,0,0,0,0,0,0,0,0,0,0,0,0,0,0,0,0,0,0,0],"sum_hessian":[1.166E3,1.141E3,2.5E1,1.89E2,9.52E2,7E0,1.8E1,1.14E2,7.5E1,6.55E2,2.97E2,2E0,5E0,5E0,1.3E1,9.4E1,2E1,4.2E1,3.3E1,5.02E2,1.53E2,2.92E2,5E0,1E0,1E0,3E0,2E0,2E0,3E0,4E0,9E0],"tree_param":{"num_deleted":"0","num_feature":"8","num_nodes":"31","size_leaf_vector":"1"}},{"base_weights":[2.9141575E-3,4.674612E-1,-9.8098606E-2,2.9701534E-1,1.6426029E0,-1.1792743E-1,2.2564435E0,1.0369802E-1,1.0031866E0,-1.3234028E0,2.2420313E0,-1.2735507E-1,2.8848022E-1,2.7124408E-1,-4.677688E-2,5.8346177E-3,2.2157863E-1,2.4835467E-1,3.3291843E-2,-1.9498846E-1,-2.5578676E-2,6.0697335E-1,7.591935E-2,-5.8242645E-2,-9.632381E-3],"categories":[],"categories_nodes":[],"categories_segments":[],"categories_sizes":[],"default_left":[0,0,0,1,0,1,0,1,0,1,1,0,0,0,0,0,0,0,0,0,0,0,0,0,0],"id":19,"left_children":[1,3,5,7,9,11,13,15,17,19,21,23,-1,-1,-1,-1,-1,-1,-1,-1,-1,-1,-1,-1,-1],"loss_changes":[5.4385216E1,4.0973816E1,4.4712875E1,2.4741726E1,4.9192734E1,2.7119059E1,1.1206661E1,1.366406E1,3.787047E1,2.8454552E0,1.2026084E2,1.3260415E1,0E0,0E0,0E0,0E0,0E0,0E0,0E0,0E0,0E0,0E0,0E0,0E0,0E0],"parents":[2147483647,0,0,1,1,2,2,3,3,4,4,5,5,6,6,7,7,8,8,9,9,10,10,11,11],"right_children":[2,4,6,8,10,12,14,16,18,20,22,24,-1,-1,-1,-1,-1,-1,-1,-1,-1,-1,-1,-1,-1],"split_conditions":[2.023E3,9E0,1.5E1,4E0,8E0,1.8E1,2.3E1,6E0,4E0,4E0,2E0,-8.660254E-1,2.8848022E-1,2.7124408E-1,-4.677688E-2,5.8346177E-3,2.2157863E-1,2.4835467E-1,3.3291843E-2,-1.9498846E-1,-2.5578676E-2,6.0697335E-1,7.591935E-2,-5.8242645E-2,-9.632381E-3],"split_indices":[1,3,3,4,0,5,3,5,5,4,5,6,0,0,0,0,0,0,0,0,0,0,0,0,0],"split_type":[0,0,0,0,0,0,0,0,0,0,0,0,0,0,0,0,0,0,0,0,0,0,0,0,0],"sum_hessian":[1.157E3,2.06E2,9.51E2,1.81E2,2.5E1,9.44E2,7E0,1.43E2,3.8E1,4E0,2.1E1,9.42E2,2E0,6E0,1E0,1.41E2,2E0,1.1E1,2.7E1,2E0,2E0,5E0,1.6E1,5.9E1,8.83E2],"tree_param":{"num_deleted":"0","num_feature":"8","num_nodes":"25","size_leaf_vector":"1"}},{"base_weights":[2.648766E-2,1.0022943E-2,3.260134E0,-7.664037E-2,4.2015257E-1,4.089913E-1,-4.443804E-2,-8.713731E-2,1.6331384E0,6.7054486E-1,-3.5399148E-1,-2.4250826E-2,-7.380016E-4,-6.604316E-2,2.2239387E-1,1.3690744E-1,2.197027E-2,-1.2828365E-1,1.915251E-2],"categories":[],"categories_nodes":[],"categories_segments":[],"categories_sizes":[],"default_left":[0,1,0,1,0,0,0,0,0,0,0,0,0,0,0,0,0,0,0],"id":20,"left_children":[1,3,5,7,9,-1,-1,11,13,15,17,-1,-1,-1,-1,-1,-1,-1,-1],"loss_changes":[6.3057995E1,4.1973167E1,2.0261047E1,1.764107E1,4.016835E1,0E0,0E0,1.2018417E1,9.59901E0,4.882775E1,2.6087414E1,0E0,0E0,0E0,0E0,0E0,0E0,0E0,0E0],"parents":[2147483647,0,0,1,1,2,2,3,3,4,4,7,7,8,8,9,9,10,10],"right_children":[2,4,6,8,10,-1,-1,12,14,16,18,-1,-1,-1,-1,-1,-1,-1,-1],"split_conditions":[1.9E1,4E0,2.3E1,1.1E1,1E1,4.089913E-1,-4.443804E-2,3E0,3E0,-2.4492937E-16,1.7E1,-2.4250826E-2,-7.380016E-4,-6.604316E-2,2.2239387E-1,1.3690744E-1,2.197027E-2,-1.2828365E-1,1.915251E-2],"split_indices":[3,4,3,5,5,0,0,5,0,6,5,0,0,0,0,0,0,0,0],"split_type":[0,0,0,0,0,0,0,0,0,0,0,0,0,0,0,0,0,0,0],"sum_hessian":[1.184E3,1.179E3,5E0,9.74E2,2.05E2,4E0,1E0,9.69E2,5E0,1.55E2,5E1,3.28E2,6.41E2,1E0,4E0,6E1,9.5E1,1.8E1,3.2E1],"tree_param":{"num_deleted":"0","num_feature":"8","num_nodes":"19","size_leaf_vector":"1"}},{"base_weights":[-9.337323E-3,-1.8327555E-2,2.089052E0,-3.7341714E-2,9.282172E-1,2.9642177E-1,-7.058056E-2,2.6736256E-1,-9.564374E-2,-1.6447921E0,1.7343193E0,5.910858E-3,1.01559915E-1,-4.520788E-2,-5.7841823E-3,5.7730176E-2,-2.2046712E-1,7.675646E-2,2.615789E-1],"categories":[],"categories_nodes":[],"categories_segments":[],"categories_sizes":[],"default_left":[1,0,0,0,0,0,0,1,0,0,1,0,0,0,0,0,0,0,0],"id":21,"left_children":[1,3,5,7,9,-1,-1,11,13,15,17,-1,-1,-1,-1,-1,-1,-1,-1],"loss_changes":[2.2110342E1,2.1020042E1,1.43219795E1,2.034859E1,5.0557083E1,0E0,0E0,2.8611446E1,1.2922295E1,8.737385E0,1.3331184E1,0E0,0E0,0E0,0E0,0E0,0E0,0E0,0E0],"parents":[2147483647,0,0,1,1,2,2,3,3,4,4,7,7,8,8,9,9,10,10],"right_children":[2,4,6,8,10,-1,-1,12,14,16,18,-1,-1,-1,-1,-1,-1,-1,-1],"split_conditions":[1.8E1,1.3E1,1.1E1,2.023E3,-5E-1,2.9642177E-1,-7.058056E-2,4E0,-8.660254E-1,9E0,4E0,5.910858E-3,1.01559915E-1,-4.520788E-2,-5.7841823E-3,5.7730176E-2,-2.2046712E-1,7.675646E-2,2.615789E-1],"split_indices":[5,3,4,1,6,0,0,4,7,0,5,0,0,0,0,0,0,0,0],"split_type":[0,0,0,0,0,0,0,0,0,0,0,0,0,0,0,0,0,0,0],"sum_hessian":[1.169E3,1.165E3,4E0,1.143E3,2.2E1,3E0,1E0,1.83E2,9.6E2,5E0,1.7E1,1.44E2,3.9E1,9.1E1,8.69E2,1E0,4E0,9E0,8E0],"tree_param":{"num_deleted":"0","num_feature":"8","num_nodes":"19","size_leaf_vector":"1"}},{"base_weights":[1.8431779E-2,5.8232336E-3,2.108817E0,1.7023988E-1,-1.234965E-1,-1.1930203E-1,3.6681563E-1,-2.751728E-1,4.0843937E-1,-1.6593495E-1,9.9212205E-1,-4.3442577E-2,-7.2666924E-3,4.8213363E-2,-7.7266686E-2,-6.264824E-3,-4.416039E-2,2.4624808E-1,-5.425849E-3],"categories":[],"categories_nodes":[],"categories_segments":[],"categories_sizes":[],"default_left":[0,0,0,0,0,0,0,0,1,0,0,0,0,0,0,0,0,0,0],"id":22,"left_children":[1,3,5,7,9,-1,-1,11,13,15,17,-1,-1,-1,-1,-1,-1,-1,-1],"loss_changes":[3.0772366E1,2.4727839E1,4.041696E1,5.4434093E1,3.0986305E1,0E0,0E0,5.7411194E0,2.9444134E1,1.7853338E1,3.705892E1,0E0,0E0,0E0,0E0,0E0,0E0,0E0,0E0],"parents":[2147483647,0,0,1,1,2,2,3,3,4,4,7,7,8,8,9,9,10,10],"right_children":[2,4,6,8,10,-1,-1,12,14,16,18,-1,-1,-1,-1,-1,-1,-1,-1],"split_conditions":[1.9E1,2.024E3,5.26E2,2.33E2,7E0,-1.1930203E-1,3.6681563E-1,1.2246469E-16,1.2E1,8.660254E-1,9E0,-4.3442577E-2,-7.2666924E-3,4.8213363E-2,-7.7266686E-2,-6.264824E-3,-4.416039E-2,2.4624808E-1,-5.425849E-3],"split_indices":[3,1,2,2,3,0,0,6,4,6,3,0,0,0,0,0,0,0,0],"split_type":[0,0,0,0,0,0,0,0,0,0,0,0,0,0,0,0,0,0,0],"sum_hessian":[1.167E3,1.161E3,6E0,5.11E2,6.5E2,2E0,4E0,1.78E2,3.33E2,6.27E2,2.3E1,9.9E1,7.9E1,3.14E2,1.9E1,4.57E2,1.7E2,9E0,1.4E1],"tree_param":{"num_deleted":"0","num_feature":"8","num_nodes":"19","size_leaf_vector":"1"}},{"base_weights":[3.7643258E-2,-2.2221556E-2,7.266494E-1,1.5538494E-1,-1.4536063E-1,4.5149845E-1,1.594114E0,1.0412303E-1,1.1222984E0,3.4470457E-1,-2.059266E-1,7.79097E-1,-5.745805E-1,-4.523265E-1,2.2226157E0,1.3836476E-2,-8.938786E-2,-1.3552217E-1,2.3688224E-1,6.6466318E-3,3.9485088E-1,-3.1131623E-2,-1.5518854E-3,2.3939107E-2,1.7890982E-1,1.349561E-1,-1.4184473E-1,-1.528107E-1,1.132823E-1,8.115837E-2,3.1291798E-1],"categories":[],"categories_nodes":[],"categories_segments":[],"categories_sizes":[],"default_left":[0,0,0,1,0,1,0,1,0,0,0,0,0,0,0,0,0,0,0,0,0,0,0,0,0,0,0,0,0,0,0],"id":23,"left_children":[1,3,5,7,9,11,13,15,17,19,21,23,25,27,29,-1,-1,-1,-1,-1,-1,-1,-1,-1,-1,-1,-1,-1,-1,-1,-1],"loss_changes":[4.798667E1,2.344568E1,2.147784E1,2.1642546E1,1.885923E1,2.4649878E1,2.9301556E1,1.4408119E1,7.1152626E1,6.992768E1,1.1312958E1,2.955241E1,3.1141224E1,1.1962712E1,1.920665E1,0E0,0E0,0E0,0E0,0E0,0E0,0E0,0E0,0E0,0E0,0E0,0E0,0E0,0E0,0E0,0E0],"parents":[2147483647,0,0,1,1,2,2,3,3,4,4,5,5,6,6,7,7,8,8,9,9,10,10,11,11,12,12,13,13,14,14],"right_children":[2,4,6,8,10,12,14,16,18,20,22,24,26,28,30,-1,-1,-1,-1,-1,-1,-1,-1,-1,-1,-1,-1,-1,-1,-1,-1],"split_conditions":[7E0,2.024E3,1.1E1,8E0,2E0,8E0,4E0,8E0,4E0,4E0,8E0,8E0,4E0,6E0,4E0,1.3836476E-2,-8.938786E-2,-1.3552217E-1,2.3688224E-1,6.6466318E-3,3.9485088E-1,-3.1131623E-2,-1.5518854E-3,2.3939107E-2,1.7890982E-1,1.349561E-1,-1.4184473E-1,-1.528107E-1,1.132823E-1,8.115837E-2,3.1291798E-1],"split_indices":[3,1,0,4,0,4,5,5,5,3,0,0,0,4,4,0,0,0,0,0,0,0,0,0,0,0,0,0,0,0,0],"split_type":[0,0,0,0,0,0,0,0,0,0,0,0,0,0,0,0,0,0,0,0,0,0,0,0,0,0,0,0,0,0,0],"sum_hessian":[1.162E3,1.07E3,9.2E1,4.38E2,6.32E2,7.1E1,2.1E1,4.17E2,2.1E1,6.9E1,5.63E2,5.4E1,1.7E1,5E0,1.6E1,4.04E2,1.3E1,7E0,1.4E1,6.5E1,4E0,3.62E2,2.01E2,3.6E1,1.8E1,5E0,1.2E1,3E0,2E0,7E0,9E0],"tree_param":{"num_deleted":"0","num_feature":"8","num_nodes":"31","size_leaf_vector":"1"}},{"base_weights":[1.30303055E-2,-1.2595215E-1,1.783874E-1,-6.355048E-2,-4.5771998E-1,1.1191134E0,-1.0380682E-1,-8.408987E-2,2.1468737E0,-2.922252E-1,-1.2046001E0,4.002307E-1,1.9302518E0,-1.8606001E-1,3.4069195E-1,-3.6655385E-2,2.8967783E-3,1.5704488E-2,3.421078E-1,-3.647313E-2,2.8628895E-1,1.4645648E-2,-1.4845751E-1,2.0713882E-1,-8.028992E-3,8.175683E-2,2.8087583E-1,-1.5770404E-2,-1.24291375E-1,-1.6411858E-2,1.5715027E-1],"categories":[],"categories_nodes":[],"categories_segments":[],"categories_sizes":[],"default_left":[0,0,0,0,0,0,0,0,0,1,0,0,0,0,1,0,0,0,0,0,0,0,0,0,0,0,0,0,0,0,0],"id":24,"left_children":[1,3,5,7,9,11,13,15,17,19,21,23,25,27,29,-1,-1,-1,-1,-1,-1,-1,-1,-1,-1,-1,-1,-1,-1,-1,-1],"loss_changes":[2.7026012E1,1.3200046E1,1.426722E2,2.4651537E1,1.2132065E1,7.153352E1,1.5199825E1,1.709569E1,1.2139978E1,2.0260445E1,7.026146E0,5.3969025E1,5.439862E1,1.0292828E1,4.0644115E1,0E0,0E0,0E0,0E0,0E0,0E0,0E0,0E0,0E0,0E0,0E0,0E0,0E0,0E0,0E0,0E0],"parents":[2147483647,0,0,1,1,2,2,3,3,4,4,5,5,6,6,7,7,8,8,9,9,10,10,11,11,12,12,13,13,14,14],"right_children":[2,4,6,8,10,12,14,16,18,20,22,24,26,28,30,-1,-1,-1,-1,-1,-1,-1,-1,-1,-1,-1,-1,-1,-1,-1,-1],"split_conditions":[7.44E2,6.73E2,7.93E2,6.72E2,4E0,7E0,1.1E1,1.32E2,1.1E1,8E0,2E0,7.48E2,7.7E2,1E1,4E0,-3.6655385E-2,2.8967783E-3,1.5704488E-2,3.421078E-1,-3.647313E-2,2.8628895E-1,1.4645648E-2,-1.4845751E-1,2.0713882E-1,-8.028992E-3,8.175683E-2,2.8087583E-1,-1.5770404E-2,-1.24291375E-1,-1.6411858E-2,1.5715027E-1],"split_indices":[2,2,2,2,3,5,0,2,0,4,4,2,2,3,4,0,0,0,0,0,0,0,0,0,0,0,0,0,0,0,0],"split_type":[0,0,0,0,0,0,0,0,0,0,0,0,0,0,0,0,0,0,0,0,0,0,0,0,0,0,0,0,0,0,0],"sum_hessian":[1.174E3,6.38E2,5.36E2,5.38E2,1E2,1.23E2,4.13E2,5.34E2,4E0,8.3E1,1.7E1,6.6E1,5.7E1,3.49E2,6.4E1,1.52E2,3.82E2,2E0,2E0,8.2E1,1E0,3E0,1.4E1,1.4E1,5.2E1,2.6E1,3.1E1,3.41E2,8E0,4.6E1,1.8E1],"tree_param":{"num_deleted":"0","num_feature":"8","num_nodes":"31","size_leaf_vector":"1"}},{"base_weights":[1.4017402E-2,-4.85964E-2,3.595393E-1,1.0686236E-2,-2.764801E-1,5.855804E-1,-6.971364E-1,-3.0326197E-1,8.4713824E-2,4.889332E-3,-3.856158E-1,-9.475473E-2,1.1973524E0,2.5223207E0,-1.2471417E0,-4.6575908E-2,-2.0700572E-2,5.0990504E-1,6.085306E-3,1.3274625E-2,-4.9629103E-2,-3.2168068E-2,-1.22935906E-1,-3.1146592E-2,4.734321E-2,1.773228E-1,6.059399E-2,4.00882E-1,-1.7118382E-1,-1.792063E-1,3.3916898E-2],"categories":[],"categories_nodes":[],"categories_segments":[],"categories_sizes":[],"default_left":[0,0,0,0,0,0,0,0,0,0,1,0,0,0,1,0,0,0,0,0,0,0,0,0,0,0,0,0,0,0,0],"id":25,"left_children":[1,3,5,7,9,11,13,15,17,19,21,23,25,27,29,-1,-1,-1,-1,-1,-1,-1,-1,-1,-1,-1,-1,-1,-1,-1,-1],"loss_changes":[2.524323E1,1.3350387E1,4.316276E1,1.8269741E1,6.266204E0,6.171254E1,5.9808685E1,2.2497892E0,7.578449E1,3.7824843E0,7.5344296E0,8.889862E0,2.5490768E1,3.8332825E1,2.4811417E1,0E0,0E0,0E0,0E0,0E0,0E0,0E0,0E0,0E0,0E0,0E0,0E0,0E0,0E0,0E0,0E0],"parents":[2147483647,0,0,1,1,2,2,3,3,4,4,5,5,6,6,7,7,8,8,9,9,10,10,11,11,12,12,13,13,14,14],"right_children":[2,4,6,8,10,12,14,16,18,20,22,24,26,28,30,-1,-1,-1,-1,-1,-1,-1,-1,-1,-1,-1,-1,-1,-1,-1,-1],"split_conditions":[5E0,8.660254E-1,8.38E2,2.33E2,2.024E3,7.42E2,-8.660254E-1,-5E-1,3.84E2,7.47E2,6E0,8.660254E-1,9E0,2.023E3,7E0,-4.6575908E-2,-2.0700572E-2,5.0990504E-1,6.085306E-3,1.3274625E-2,-4.9629103E-2,-3.2168068E-2,-1.22935906E-1,-3.1146592E-2,4.734321E-2,1.773228E-1,6.059399E-2,4.00882E-1,-1.7118382E-1,-1.792063E-1,3.3916898E-2],"split_indices":[3,6,2,2,1,2,6,6,2,2,4,6,3,1,4,0,0,0,0,0,0,0,0,0,0,0,0,0,0,0,0],"split_type":[0,0,0,0,0,0,0,0,0,0,0,0,0,0,0,0,0,0,0,0,0,0,0,0,0,0,0,0,0,0,0],"sum_hessian":[1.165E3,9.87E2,1.78E2,7.84E2,2.03E2,1.47E2,3.1E1,1.49E2,6.35E2,5.7E1,1.46E2,7E1,7.7E1,4E0,2.7E1,5.4E1,9.5E1,2E0,6.33E2,4.6E1,1.1E1,1.37E2,9E0,5.1E1,1.9E1,3.8E1,3.9E1,3E0,1E0,2E1,7E0],"tree_param":{"num_deleted":"0","num_feature":"8","num_nodes":"31","size_leaf_vector":"1"}},{"base_weights":[-9.157853E-3,-2.043589E-2,2.1765482E0,-2.774658E-2,1.676807E0,-1.2957941E-1,3.1301755E-1,-1.2414184E-1,1.05796136E-1,-6.9049954E-2,2.4412584E-1,-1.0415315E-2,-1.4389776E-1,-3.761215E-2,2.147805E-2],"categories":[],"categories_nodes":[],"categories_segments":[],"categories_sizes":[],"default_left":[0,1,0,0,0,0,0,1,0,0,0,0,0,0,0],"id":26,"left_children":[1,3,5,7,9,-1,-1,11,13,-1,-1,-1,-1,-1,-1],"loss_changes":[2.881158E1,1.4464641E1,2.3923985E1,1.4919934E1,1.0734144E1,0E0,0E0,1.7537819E1,2.560622E1,0E0,0E0,0E0,0E0,0E0,0E0],"parents":[2147483647,0,0,1,1,2,2,3,3,4,4,7,7,8,8],"right_children":[2,4,6,8,10,-1,-1,12,14,-1,-1,-1,-1,-1,-1],"split_conditions":[1.9E1,1.8E1,5.23E2,8E0,7.48E2,-1.2957941E-1,3.1301755E-1,1.2E1,2.33E2,-6.9049954E-2,2.4412584E-1,-1.0415315E-2,-1.4389776E-1,-3.761215E-2,2.147805E-2],"split_indices":[3,5,2,0,2,0,0,5,2,0,0,0,0,0,0],"split_type":[0,0,0,0,0,0,0,0,0,0,0,0,0,0,0],"sum_hessian":[1.166E3,1.161E3,5E0,1.157E3,4E0,1E0,4E0,6.72E2,4.85E2,1E0,3E0,6.63E2,9E0,8.9E1,3.96E2],"tree_param":{"num_deleted":"0","num_feature":"8","num_nodes":"15","size_leaf_vector":"1"}},{"base_weights":[-8.245461E-3,-1.5986823E-2,2.2581644E-1,-2.1249124E-1,4.9309283E-2,-2.4292472E-1,1.2786583E0,2.1689387E-1,-1.4117347E-1,-2.0690981E-2,-9.30436E-2,3.950107E-2,2.8484482E-1,6.5681795E-3,1.5699705E-1,-9.194237E-2,-7.764748E-3],"categories":[],"categories_nodes":[],"categories_segments":[],"categories_sizes":[],"default_left":[1,0,0,1,0,1,0,0,0,0,0,0,0,0,0,0,0],"id":27,"left_children":[1,3,-1,5,7,9,11,13,15,-1,-1,-1,-1,-1,-1,-1,-1],"loss_changes":[2.06165E1,1.5022717E1,0E0,1.3561826E1,2.8090034E1,6.9137897E0,7.1976767E0,9.5650406E1,2.0297525E1,0E0,0E0,0E0,0E0,0E0,0E0,0E0,0E0],"parents":[2147483647,0,0,1,1,3,3,4,4,5,5,6,6,7,7,8,8],"right_children":[2,4,-1,6,8,10,12,14,16,-1,-1,-1,-1,-1,-1,-1,-1],"split_conditions":[1.8E1,4.67E2,2.2581644E-1,8E0,7.93E2,4E0,5E-1,7.7E2,7.98E2,-2.0690981E-2,-9.30436E-2,3.950107E-2,2.8484482E-1,6.5681795E-3,1.5699705E-1,-9.194237E-2,-7.764748E-3],"split_indices":[5,2,0,4,2,5,7,2,2,0,0,0,0,0,0,0,0],"split_type":[0,0,0,0,0,0,0,0,0,0,0,0,0,0,0,0,0],"sum_hessian":[1.172E3,1.169E3,3E0,2.91E2,8.78E2,2.86E2,5E0,4.67E2,4.11E2,2.73E2,1.3E1,4E0,1E0,4.21E2,4.6E1,3E1,3.81E2],"tree_param":{"num_deleted":"0","num_feature":"8","num_nodes":"17","size_leaf_vector":"1"}},{"base_weights":[5.0570536E-3,-5.9413508E-2,2.0208308E-1,-3.944423E-2,-1.1203122E0,-9.610624E-2,7.270187E-1,1.3756852E-1,-1.6590425E-1,4.7678033E-1,-2.1262457E0,-1.4475739E-1,8.551612E-1,-2.3836198E-1,1.1459794E0,-2.7131213E-2,3.0058129E-2,-1.7845107E-2,1.9638038E-1,1.3009384E-1,-4.665729E-2,-5.577473E-2,-2.4486521E-1,1.2609099E-2,-2.7436418E-2,3.3484852E-1,-3.3557218E-2,-4.6579774E-2,8.248258E-2,2.0547178E-1,-2.7231267E-2],"categories":[],"categories_nodes":[],"categories_segments":[],"categories_sizes":[],"default_left":[0,0,0,0,0,0,0,0,1,0,0,0,0,0,0,0,0,0,0,0,0,0,0,0,0,0,0,0,0,0,0],"id":28,"left_children":[1,3,5,7,9,11,13,15,17,19,21,23,25,27,29,-1,-1,-1,-1,-1,-1,-1,-1,-1,-1,-1,-1,-1,-1,-1,-1],"loss_changes":[1.4632444E1,1.8344719E1,4.452445E1,1.911726E1,2.6718857E1,8.546797E0,4.1932175E1,2.3809937E1,1.3657527E1,6.049288E0,3.691208E0,6.1426544E0,2.7843615E1,8.122022E0,9.335719E1,0E0,0E0,0E0,0E0,0E0,0E0,0E0,0E0,0E0,0E0,0E0,0E0,0E0,0E0,0E0,0E0],"parents":[2147483647,0,0,1,1,2,2,3,3,4,4,5,5,6,6,7,7,8,8,9,9,10,10,11,11,12,12,13,13,14,14],"right_children":[2,4,6,8,10,12,14,16,18,20,22,24,26,28,30,-1,-1,-1,-1,-1,-1,-1,-1,-1,-1,-1,-1,-1,-1,-1,-1],"split_conditions":[8.660254E-1,1.1E1,3E0,2.024E3,7E0,1.048E3,6.53E2,1.32E2,1.8E1,1E1,7.48E2,2E0,2.023E3,2.024E3,8.1E2,-2.7131213E-2,3.0058129E-2,-1.7845107E-2,1.9638038E-1,1.3009384E-1,-4.665729E-2,-5.577473E-2,-2.4486521E-1,1.2609099E-2,-2.7436418E-2,3.3484852E-1,-3.3557218E-2,-4.6579774E-2,8.248258E-2,2.0547178E-1,-2.7231267E-2],"split_indices":[7,3,3,1,0,2,2,2,5,5,2,0,1,1,2,0,0,0,0,0,0,0,0,0,0,0,0,0,0,0,0],"split_type":[0,0,0,0,0,0,0,0,0,0,0,0,0,0,0,0,0,0,0,0,0,0,0,0,0,0,0,0,0,0,0],"sum_hessian":[1.15E3,8.67E2,2.83E2,8.52E2,1.5E1,1.81E2,1.02E2,3.55E2,4.97E2,6E0,9E0,1.73E2,8E0,3.1E1,7.1E1,1.01E2,2.54E2,4.95E2,2E0,3E0,3E0,2E0,7E0,5.6E1,1.17E2,2E0,6E0,2.6E1,5E0,4.3E1,2.8E1],"tree_param":{"num_deleted":"0","num_feature":"8","num_nodes":"31","size_leaf_vector":"1"}},{"base_weights":[5.6577204E-3,-1.0885147E-1,1.4215237E-1,-5.3180728E-2,-4.050447E-1,6.3955265E-1,-1.3233978E-1,-7.154974E-2,1.9045709E0,-3.4702796E-1,-1.7106901E-1,2.181089E0,5.132966E-1,1.5628238E-1,-1.9657768E-1,-1.2880056E-2,2.1357847E-2,1.1619282E-2,3.0580923E-1,-1.2354449E-1,-2.8531566E-2,3.7260973E-1,-4.999386E-2,2.6898002E-2,1.2863787E-1,4.630552E-2,-9.5049776E-2,5.792664E-3,-3.464442E-2],"categories":[],"categories_nodes":[],"categories_segments":[],"categories_sizes":[],"default_left":[0,0,0,0,0,0,0,0,0,0,0,0,0,1,0,0,0,0,0,0,0,0,0,0,0,0,0,0,0],"id":29,"left_children":[1,3,5,7,9,11,13,15,17,19,-1,21,23,25,27,-1,-1,-1,-1,-1,-1,-1,-1,-1,-1,-1,-1,-1,-1],"loss_changes":[1.8193037E1,1.0416185E1,7.258338E1,1.9339962E1,6.9812737E0,3.566519E1,6.3901086E0,8.679135E0,9.9593315E0,4.9656534E0,0E0,5.985376E1,3.28963E1,2.1830524E1,1.0737881E1,0E0,0E0,0E0,0E0,0E0,0E0,0E0,0E0,0E0,0E0,0E0,0E0,0E0,0E0],"parents":[2147483647,0,0,1,1,2,2,3,3,4,4,5,5,6,6,7,7,8,8,9,9,11,11,12,12,13,13,14,14],"right_children":[2,4,6,8,10,12,14,16,18,20,-1,22,24,26,28,-1,-1,-1,-1,-1,-1,-1,-1,-1,-1,-1,-1,-1,-1],"split_conditions":[7.44E2,6.73E2,8.1E2,6.72E2,6E0,7.46E2,8.43E2,6.07E2,1.1E1,6.74E2,-1.7106901E-1,8E0,8.660254E-1,4E0,-2.4492937E-16,-1.2880056E-2,2.1357847E-2,1.1619282E-2,3.0580923E-1,-1.2354449E-1,-2.8531566E-2,3.7260973E-1,-4.999386E-2,2.6898002E-2,1.2863787E-1,4.630552E-2,-9.5049776E-2,5.792664E-3,-3.464442E-2],"split_indices":[2,2,2,2,3,2,2,2,0,2,0,3,7,5,6,0,0,0,0,0,0,0,0,0,0,0,0,0,0],"split_type":[0,0,0,0,0,0,0,0,0,0,0,0,0,0,0,0,0,0,0,0,0,0,0,0,0,0,0,0,0],"sum_hessian":[1.162E3,6.32E2,5.3E2,5.33E2,9.9E1,1.88E2,3.42E2,5.29E2,4E0,9.6E1,3E0,1.3E1,1.75E2,6.2E1,2.8E2,4.41E2,8.8E1,2E0,2E0,5E0,9.1E1,8E0,5E0,1.34E2,4.1E1,4.9E1,1.3E1,1.04E2,1.76E2],"tree_param":{"num_deleted":"0","num_feature":"8","num_nodes":"29","size_leaf_vector":"1"}},{"base_weights":[5.392213E-3,2.9499775E-1,-5.628307E-2,-8.90034E-2,8.021925E-1,1.4546448E-1,-1.1733392E-1,4.981939E-2,-7.647849E-1,1.9882958E0,5.109988E-1,-4.8267767E-1,3.743856E-1,-1.3341355E-1,7.872041E-1,7.976585E-3,-1.4274935E-1,-8.709614E-2,1.2720235E-2,2.325843E-2,3.5230857E-1,-8.701905E-2,1.13612585E-1,-1.5382759E-2,-1.4589727E-1,6.372621E-2,-3.1380333E-2,3.0464245E-4,-2.1997858E-2,-1.0966531E-1,1.22941926E-1],"categories":[],"categories_nodes":[],"categories_segments":[],"categories_sizes":[],"default_left":[0,0,0,1,0,0,0,0,0,0,0,0,0,0,0,0,0,0,0,0,0,0,0,0,0,0,0,0,0,0,0],"id":30,"left_children":[1,3,5,7,9,11,13,15,17,19,21,23,25,27,29,-1,-1,-1,-1,-1,-1,-1,-1,-1,-1,-1,-1,-1,-1,-1,-1],"loss_changes":[2.075381E1,3.9803123E1,1.1816618E1,1.1014325E1,2.9377937E1,3.2246994E1,1.0809883E1,4.449414E0,2.0049496E0,4.498961E1,6.3154793E1,1.9038853E1,2.9869003E1,8.553036E0,1.217816E1,0E0,0E0,0E0,0E0,0E0,0E0,0E0,0E0,0E0,0E0,0E0,0E0,0E0,0E0,0E0,0E0],"parents":[2147483647,0,0,1,1,2,2,3,3,4,4,5,5,6,6,7,7,8,8,9,9,10,10,11,11,12,12,13,13,14,14],"right_children":[2,4,6,8,10,12,14,16,18,20,22,24,26,28,30,-1,-1,-1,-1,-1,-1,-1,-1,-1,-1,-1,-1,-1,-1,-1,-1],"split_conditions":[2.023E3,6.02E2,-5E-1,3E0,-8.660254E-1,-8.660254E-1,1.2E1,6E0,6E0,5E0,-5E-1,3E0,8.14E2,4E0,5.26E2,7.976585E-3,-1.4274935E-1,-8.709614E-2,1.2720235E-2,2.325843E-2,3.5230857E-1,-8.701905E-2,1.13612585E-1,-1.5382759E-2,-1.4589727E-1,6.372621E-2,-3.1380333E-2,3.0464245E-4,-2.1997858E-2,-1.0966531E-1,1.22941926E-1],"split_indices":[1,2,6,4,6,6,3,3,4,3,6,3,2,0,2,0,0,0,0,0,0,0,0,0,0,0,0,0,0,0,0],"split_type":[0,0,0,0,0,0,0,0,0,0,0,0,0,0,0,0,0,0,0,0,0,0,0,0,0,0,0,0,0,0,0],"sum_hessian":[1.16E3,2.03E2,9.57E2,1.16E2,8.7E1,2.22E2,7.35E2,9.7E1,1.9E1,1.6E1,7.1E1,5.9E1,1.63E2,7.23E2,1.2E1,9.6E1,1E0,1.7E1,2E0,8E0,8E0,2.2E1,4.9E1,4.5E1,1.4E1,1.18E2,4.5E1,2.81E2,4.42E2,2E0,1E1],"tree_param":{"num_deleted":"0","num_feature":"8","num_nodes":"31","size_leaf_vector":"1"}},{"base_weights":[1.7961703E-2,3.7124444E-2,-7.399163E-1,-2.0894673E-2,3.5487258E-1,-1.0085821E0,4.5806614E-1,3.7352297E-2,-1.9821817E-1,4.1952097E-1,-1.9529362E-1,-5.301555E-1,-1.7470537E-1,-4.4986343E-1,1.0244968E0,-6.443826E-3,5.946178E-2,-1.2179274E-2,-1.7781848E-1,7.72995E-4,9.7032614E-2,9.023338E-2,-1.08284645E-1,-7.2416784E-3,-6.0237836E-2,3.9345264E-3,1.3397656E-1],"categories":[],"categories_nodes":[],"categories_segments":[],"categories_sizes":[],"default_left":[1,1,0,0,0,0,0,0,0,0,0,0,0,0,0,0,0,0,0,0,0,0,0,0,0,0,0],"id":31,"left_children":[1,3,5,7,9,11,13,15,17,19,-1,21,-1,23,25,-1,-1,-1,-1,-1,-1,-1,-1,-1,-1,-1,-1],"loss_changes":[1.7077496E1,2.113446E1,9.795848E0,1.0026104E1,2.722701E1,7.553093E0,3.5465589E0,4.150383E1,2.876334E1,3.9231766E1,0E0,1.3644667E1,0E0,1.2907648E-1,1.1896362E0,0E0,0E0,0E0,0E0,0E0,0E0,0E0,0E0,0E0,0E0,0E0,0E0],"parents":[2147483647,0,0,1,1,2,2,3,3,4,4,5,5,6,6,7,7,8,8,9,9,11,11,13,13,14,14],"right_children":[2,4,6,8,10,12,14,16,18,20,-1,22,-1,24,26,-1,-1,-1,-1,-1,-1,-1,-1,-1,-1,-1,-1],"split_conditions":[1.1E1,4E0,1E1,8.43E2,1.073E3,1.6E1,2.023E3,7.7E2,6E0,7.7E2,-1.9529362E-1,7.5E2,-1.7470537E-1,1E1,2E0,-6.443826E-3,5.946178E-2,-1.2179274E-2,-1.7781848E-1,7.72995E-4,9.7032614E-2,9.023338E-2,-1.08284645E-1,-7.2416784E-3,-6.0237836E-2,3.9345264E-3,1.3397656E-1],"split_indices":[4,4,3,2,2,4,1,2,3,2,0,2,0,0,0,0,0,0,0,0,0,0,0,0,0,0,0],"split_type":[0,0,0,0,0,0,0,0,0,0,0,0,0,0,0,0,0,0,0,0,0,0,0,0,0,0,0],"sum_hessian":[1.173E3,1.145E3,2.8E1,9.69E2,1.76E2,2.3E1,5E0,7.3E2,2.39E2,1.72E2,4E0,1.5E1,8E0,2E0,3E0,6.18E2,1.12E2,2.29E2,1E1,9.9E1,7.3E1,4E0,1.1E1,1E0,1E0,1E0,2E0],"tree_param":{"num_deleted":"0","num_feature":"8","num_nodes":"27","size_leaf_vector":"1"}},{"base_weights":[3.6179728E-3,2.649133E-1,-5.158137E-2,9.305639E-1,-3.4383878E-2,1.9634144E-2,-2.0335525E-1,1.2102821E0,-1.9284724E0,-1.0040487E-1,2.2519365E-1,-9.534715E-2,6.663508E-1,-1.340907E-1,-5.836679E-1,1.4400135E-1,-1.5128742E-1,-2.1145742E-2,-2.7341157E-1,-1.06488466E-1,1.7075789E-3,7.118323E-3,-2.3217823E-2,1.7763625E-1,1.3419314E-2,-1.7752113E-2,5.4203272E-2,-6.826893E-2,7.969606E-3],"categories":[],"categories_nodes":[],"categories_segments":[],"categories_sizes":[],"default_left":[0,0,0,0,0,0,1,0,0,0,0,0,0,1,0,0,0,0,0,0,0,0,0,0,0,0,0,0,0],"id":32,"left_children":[1,3,5,7,9,11,13,15,17,19,-1,21,23,25,27,-1,-1,-1,-1,-1,-1,-1,-1,-1,-1,-1,-1,-1,-1],"loss_changes":[1.6787998E1,4.0475147E1,1.039111E1,5.271664E1,2.1509369E1,4.8769543E1,8.008784E0,3.8463043E1,7.7216587E0,1.565465E1,0E0,1.2708625E1,5.8241043E1,7.76031E0,3.1417084E0,0E0,0E0,0E0,0E0,0E0,0E0,0E0,0E0,0E0,0E0,0E0,0E0,0E0,0E0],"parents":[2147483647,0,0,1,1,2,2,3,3,4,4,5,5,6,6,7,7,8,8,9,9,11,11,12,12,13,13,14,14],"right_children":[2,4,6,8,10,12,14,16,18,20,-1,22,24,26,28,-1,-1,-1,-1,-1,-1,-1,-1,-1,-1,-1,-1,-1,-1],"split_conditions":[2.023E3,8E0,8.1E2,1.1E1,1.089E3,7.78E2,3E0,1.055E3,-8.660254E-1,1.8E1,2.2519365E-1,2.024E3,7.9E2,4E0,1E0,1.4400135E-1,-1.5128742E-1,-2.1145742E-2,-2.7341157E-1,-1.06488466E-1,1.7075789E-3,7.118323E-3,-2.3217823E-2,1.7763625E-1,1.3419314E-2,-1.7752113E-2,5.4203272E-2,-6.826893E-2,7.969606E-3],"split_indices":[1,5,2,4,2,2,5,2,6,5,0,1,2,4,6,0,0,0,0,0,0,0,0,0,0,0,0,0,0],"split_type":[0,0,0,0,0,0,0,0,0,0,0,0,0,0,0,0,0,0,0,0,0,0,0,0,0,0,0,0,0],"sum_hessian":[1.162E3,2.02E2,9.6E2,6.2E1,1.4E2,6.54E2,3.06E2,5.7E1,5E0,1.37E2,3E0,5.56E2,9.8E1,2.6E2,4.6E1,5.3E1,4E0,2E0,3E0,1.4E1,1.23E2,2.51E2,3.05E2,3.1E1,6.7E1,2.45E2,1.5E1,4E1,6E0],"tree_param":{"num_deleted":"0","num_feature":"8","num_nodes":"29","size_leaf_vector":"1"}},{"base_weights":[3.736305E-2,2.7801704E-1,-1.774143E-2,-9.317611E-2,7.343589E-1,-4.437541E-1,1.0647384E-2,1.9745661E-2,-6.944837E-1,9.288692E-1,-7.208282E-1,-1.6567323E-2,-9.161192E-1,3.4593517E-1,-6.0919706E-2,6.295732E-2,-1.2743862E-2,-4.3341454E-2,-1.18789785E-1,1.1747004E-1,-8.54043E-2,-1.7847179E-1,2.9405281E-2,4.6748113E-2,-2.2630287E-2,-1.0431265E-1,1.256539E-1,1.9903734E-2,3.0386657E-1,2.2724777E-2,-1.07478695E-2],"categories":[],"categories_nodes":[],"categories_segments":[],"categories_sizes":[],"default_left":[0,0,0,1,1,1,0,0,0,1,0,0,0,1,0,0,0,0,0,0,0,0,0,0,0,0,0,0,0,0,0],"id":33,"left_children":[1,3,5,7,9,11,13,15,17,19,21,23,25,27,29,-1,-1,-1,-1,-1,-1,-1,-1,-1,-1,-1,-1,-1,-1,-1,-1],"loss_changes":[1.5374562E1,3.6656876E1,1.1421456E1,8.161799E0,2.8125294E1,1.1890322E1,2.1281149E1,9.235448E0,1.9326363E0,3.869664E1,1.3481459E1,3.3545012E0,9.0371475E0,6.110197E1,9.832094E0,0E0,0E0,0E0,0E0,0E0,0E0,0E0,0E0,0E0,0E0,0E0,0E0,0E0,0E0,0E0,0E0],"parents":[2147483647,0,0,1,1,2,2,3,3,4,4,5,5,6,6,7,7,8,8,9,9,10,10,11,11,12,12,13,13,14,14],"right_children":[2,4,6,8,10,12,14,16,18,20,22,24,26,28,30,-1,-1,-1,-1,-1,-1,-1,-1,-1,-1,-1,-1,-1,-1,-1,-1],"split_conditions":[2.023E3,6.02E2,-8.660254E-1,3E0,1.2E1,2E0,-5E-1,4E0,5.21E2,8E0,6E0,4.2E2,1.039E3,5E0,2E0,6.295732E-2,-1.2743862E-2,-4.3341454E-2,-1.18789785E-1,1.1747004E-1,-8.54043E-2,-1.7847179E-1,2.9405281E-2,4.6748113E-2,-2.2630287E-2,-1.0431265E-1,1.256539E-1,1.9903734E-2,3.0386657E-1,2.2724777E-2,-1.07478695E-2],"split_indices":[1,2,6,4,4,4,6,5,2,5,5,2,2,5,0,0,0,0,0,0,0,0,0,0,0,0,0,0,0,0,0],"split_type":[0,0,0,0,0,0,0,0,0,0,0,0,0,0,0,0,0,0,0,0,0,0,0,0,0,0,0,0,0,0,0],"sum_hessian":[1.158E3,2.15E2,9.43E2,1.19E2,9.6E1,5.8E1,8.85E2,1.01E2,1.8E1,8.5E1,1.1E1,3.1E1,2.7E1,1.55E2,7.3E2,1.9E1,8.2E1,1.3E1,5E0,7.5E1,1E1,5E0,6E0,9E0,2.2E1,2.6E1,1E0,1.48E2,7E0,1.01E2,6.29E2],"tree_param":{"num_deleted":"0","num_feature":"8","num_nodes":"31","size_leaf_vector":"1"}},{"base_weights":[-5.580746E-3,5.1908433E-2,-1.4064758E-1,-5.965249E-2,4.1059977E-1,1.2301212E-1,-2.324325E-1,-5.6201057E-4,-3.5339496E-1,1.6060685E0,3.0083516E-1,2.977736E0,-1.16345964E-1,-6.9028996E-2,-3.3106443E-1,-1.6081128E-3,1.5949158E-1,-1.5966682E-2,-6.8566844E-2,-8.923809E-4,2.3409672E-1,-1.1430074E-2,5.9054203E-2,4.588649E-1,-6.9969736E-2,1.397604E-1,-2.2985678E-2,4.5930943E-3,-4.0654924E-2,-3.704247E-2,-5.289784E-3],"categories":[],"categories_nodes":[],"categories_segments":[],"categories_sizes":[],"default_left":[0,0,0,0,0,0,0,0,0,0,0,0,0,0,0,0,0,0,0,0,0,0,0,0,0,0,0,0,0,0,0],"id":34,"left_children":[1,3,5,7,9,11,13,15,17,19,21,23,25,27,29,-1,-1,-1,-1,-1,-1,-1,-1,-1,-1,-1,-1,-1,-1,-1,-1],"loss_changes":[8.999033E0,3.2557446E1,8.401787E0,1.0778737E1,2.484233E1,6.1843555E1,4.1191664E0,1.285154E1,6.5850735E0,1.9010578E1,2.1475153E1,4.467883E1,1.4756623E1,3.821201E0,1.7321968E0,0E0,0E0,0E0,0E0,0E0,0E0,0E0,0E0,0E0,0E0,0E0,0E0,0E0,0E0,0E0,0E0],"parents":[2147483647,0,0,1,1,2,2,3,3,4,4,5,5,6,6,7,7,8,8,9,9,10,10,11,11,12,12,13,13,14,14],"right_children":[2,4,6,8,10,12,14,16,18,20,22,24,26,28,30,-1,-1,-1,-1,-1,-1,-1,-1,-1,-1,-1,-1,-1,-1,-1,-1],"split_conditions":[8.1E2,7.44E2,2.024E3,6.73E2,7.46E2,2E0,2E0,6.72E2,5E0,-5E-1,7E0,1.2E1,2E0,5E-1,1.1E1,-1.6081128E-3,1.5949158E-1,-1.5966682E-2,-6.8566844E-2,-8.923809E-4,2.3409672E-1,-1.1430074E-2,5.9054203E-2,4.588649E-1,-6.9969736E-2,1.397604E-1,-2.2985678E-2,4.5930943E-3,-4.0654924E-2,-3.704247E-2,-5.289784E-3],"split_indices":[2,2,1,2,2,5,4,2,4,7,0,0,0,7,0,0,0,0,0,0,0,0,0,0,0,0,0,0,0,0,0],"split_type":[0,0,0,0,0,0,0,0,0,0,0,0,0,0,0,0,0,0,0,0,0,0,0,0,0,0,0,0,0,0,0],"sum_hessian":[1.157E3,8.12E2,3.45E2,6.2E2,1.92E2,8.9E1,2.56E2,5.17E2,1.03E2,1.5E1,1.77E2,6E0,8.3E1,9.7E1,1.59E2,5.13E2,4E0,6.6E1,3.7E1,5E0,1E1,7.3E1,1.04E2,4E0,2E0,5E0,7.8E1,7.3E1,2.4E1,1.39E2,2E1],"tree_param":{"num_deleted":"0","num_feature":"8","num_nodes":"31","size_leaf_vector":"1"}},{"base_weights":[8.106171E-3,-4.887364E-2,1.8036571E-1,-3.4843013E-2,-8.69681E-1,-4.2075317E-2,5.623708E-1,-4.988055E-2,1.2799145E0,-1.0965221E0,1.15304664E-1,-2.3036033E-1,4.3700773E-2,-1.4600164E-2,8.5907245E-1,-2.893279E-3,-7.584333E-2,-9.698093E-2,2.9413652E-1,-1.5079817E-1,-5.429845E-3,-7.871116E-3,-6.6995054E-2,5.0513327E-2,-2.0878538E-3,-8.91242E-2,6.6346854E-2,1.11337654E-1,-6.5237485E-2],"categories":[],"categories_nodes":[],"categories_segments":[],"categories_sizes":[],"default_left":[0,1,0,1,0,0,0,0,1,0,0,0,0,0,1,0,0,0,0,0,0,0,0,0,0,0,0,0,0],"id":35,"left_children":[1,3,5,7,9,11,13,15,17,19,-1,21,23,25,27,-1,-1,-1,-1,-1,-1,-1,-1,-1,-1,-1,-1,-1,-1],"loss_changes":[1.1689042E1,1.0276915E1,2.5175846E1,1.7481844E1,8.146905E0,3.0463333E0,1.8672062E1,1.2920795E1,4.0230618E1,5.9217796E0,0E0,3.880414E0,3.8844151E0,2.3179401E1,2.8400772E1,0E0,0E0,0E0,0E0,0E0,0E0,0E0,0E0,0E0,0E0,0E0,0E0,0E0,0E0],"parents":[2147483647,0,0,1,1,2,2,3,3,4,4,5,5,6,6,7,7,8,8,9,9,11,11,12,12,13,13,14,14],"right_children":[2,4,6,8,10,12,14,16,18,20,-1,22,24,26,28,-1,-1,-1,-1,-1,-1,-1,-1,-1,-1,-1,-1,-1,-1],"split_conditions":[8.660254E-1,1.1E1,3E0,1E1,1E1,2E0,3E0,1E1,4E0,8E0,1.15304664E-1,2E0,2E0,4E0,8E0,-2.893279E-3,-7.584333E-2,-9.698093E-2,2.9413652E-1,-1.5079817E-1,-5.429845E-3,-7.871116E-3,-6.6995054E-2,5.0513327E-2,-2.0878538E-3,-8.91242E-2,6.6346854E-2,1.11337654E-1,-6.5237485E-2],"split_indices":[7,4,3,4,3,4,4,3,5,5,0,3,5,5,5,0,0,0,0,0,0,0,0,0,0,0,0,0,0],"split_type":[0,0,0,0,0,0,0,0,0,0,0,0,0,0,0,0,0,0,0,0,0,0,0,0,0,0,0,0,0],"sum_hessian":[1.189E3,8.94E2,2.95E2,8.8E2,1.4E1,1.87E2,1.08E2,8.71E2,9E0,1.3E1,1E0,5.8E1,1.29E2,3.7E1,7.1E1,8.47E2,2.4E1,4E0,5E0,9E0,4E0,4.4E1,1.4E1,1.5E1,1.14E2,1.6E1,2.1E1,6.1E1,1E1],"tree_param":{"num_deleted":"0","num_feature":"8","num_nodes":"29","size_leaf_vector":"1"}},{"base_weights":[8.600681E-3,1.9127708E-4,1.9696354E0,8.523091E-3,-1.0727824E0,-3.3518564E-2,2.629637E-1,2.7764954E-3,1.6671585E-1,1.0953944E-1,-1.4807289E0,1.8467754E-3,-6.540346E-2,-1.6907398E-1,-5.6713074E-2],"categories":[],"categories_nodes":[],"categories_segments":[],"categories_sizes":[],"default_left":[0,1,0,1,0,0,0,1,0,0,0,0,0,0,0],"id":36,"left_children":[1,3,5,7,9,-1,-1,11,-1,-1,13,-1,-1,-1,-1],"loss_changes":[1.931074E1,1.044191E1,8.487345E0,1.1042386E1,9.582481E0,0E0,0E0,1.1926038E1,0E0,0E0,5.760555E-1,0E0,0E0,0E0,0E0],"parents":[2147483647,0,0,1,1,2,2,3,3,4,4,7,7,10,10],"right_children":[2,4,6,8,10,-1,-1,12,-1,-1,14,-1,-1,-1,-1],"split_conditions":[1.9E1,1.6E1,5.26E2,1.8E1,4E0,-3.3518564E-2,2.629637E-1,1E1,1.6671585E-1,1.0953944E-1,7E0,1.8467754E-3,-6.540346E-2,-1.6907398E-1,-5.6713074E-2],"split_indices":[3,4,2,5,0,0,0,5,0,0,5,0,0,0,0],"split_type":[0,0,0,0,0,0,0,0,0,0,0,0,0,0,0],"sum_hessian":[1.17E3,1.166E3,4E0,1.158E3,8E0,1E0,3E0,1.155E3,3E0,1E0,7E0,1.129E3,2.6E1,5E0,2E0],"tree_param":{"num_deleted":"0","num_feature":"8","num_nodes":"15","size_leaf_vector":"1"}},{"base_weights":[2.1092508E-2,-4.8323072E-2,1.4595607E-1,1.3877358E-2,-1.9586562E-1,5.160876E-2,6.9108707E-1,7.2978836E-1,-2.945169E-2,-1.21615835E-1,-1.9313477E0,8.666743E-2,-1.0494633E0,1.589525E0,-1.1939134E-1,2.985389E-2,2.4050298E-1,-6.9887596E-3,8.051601E-2,-1.5682321E-2,1.757175E-1,-2.0931597E-1,-3.1842638E-2,1.1284436E-2,-1.1896856E-1,-1.4668187E-1,4.7613382E-3,2.4774252E-1,-3.4522764E-2,-1.07854664E-1,8.46787E-2],"categories":[],"categories_nodes":[],"categories_segments":[],"categories_sizes":[],"default_left":[0,0,1,0,0,1,0,0,0,0,0,0,0,0,0,0,0,0,0,0,0,0,0,0,0,0,0,0,0,0,0],"id":37,"left_children":[1,3,5,7,9,11,13,15,17,19,21,23,25,27,29,-1,-1,-1,-1,-1,-1,-1,-1,-1,-1,-1,-1,-1,-1,-1,-1],"loss_changes":[1.0043991E1,6.839739E0,2.1257034E1,1.630686E1,2.8242996E1,1.3756107E1,4.460781E1,2.0955418E1,1.679542E1,1.4364935E1,1.6823883E0,1.1627636E1,5.1064196E0,5.0673424E1,3.1494894E1,0E0,0E0,0E0,0E0,0E0,0E0,0E0,0E0,0E0,0E0,0E0,0E0,0E0,0E0,0E0,0E0],"parents":[2147483647,0,0,1,1,2,2,3,3,4,4,5,5,6,6,7,7,8,8,9,9,10,10,11,11,12,12,13,13,14,14],"right_children":[2,4,6,8,10,12,14,16,18,20,22,24,26,28,30,-1,-1,-1,-1,-1,-1,-1,-1,-1,-1,-1,-1,-1,-1,-1,-1],"split_conditions":[6E0,9E0,4E0,2.023E3,1E1,1E1,7E0,5E0,7E0,9E0,2.1E1,1.1E1,6E0,1.1E1,1E1,2.985389E-2,2.4050298E-1,-6.9887596E-3,8.051601E-2,-1.5682321E-2,1.757175E-1,-2.0931597E-1,-3.1842638E-2,1.1284436E-2,-1.1896856E-1,-1.4668187E-1,4.7613382E-3,2.4774252E-1,-3.4522764E-2,-1.07854664E-1,8.46787E-2],"split_indices":[4,0,5,1,3,4,5,4,3,3,3,3,3,4,4,0,0,0,0,0,0,0,0,0,0,0,0,0,0,0,0],"split_type":[0,0,0,0,0,0,0,0,0,0,0,0,0,0,0,0,0,0,0,0,0,0,0,0,0,0,0,0,0,0,0],"sum_hessian":[1.157E3,7.44E2,4.13E2,5.24E2,2.2E2,3.53E2,6E1,2.9E1,4.95E2,2.12E2,8E0,3.43E2,1E1,2.8E1,3.2E1,2.4E1,5E0,4.73E2,2.2E1,2.09E2,3E0,7E0,1E0,3.37E2,6E0,7E0,3E0,1.9E1,9E0,1.6E1,1.6E1],"tree_param":{"num_deleted":"0","num_feature":"8","num_nodes":"31","size_leaf_vector":"1"}},{"base_weights":[8.835205E-3,2.0757879E-3,1.9668575E-1,2.228372E-1,-4.359323E-2,-1.2185198E-1,6.679756E-1,-8.163491E-2,2.0945819E-1,5.4161817E-2,-2.1351928E-2,1.048192E-1,-1.7063027E-2,-2.7540147E-3,-2.3322096E-2,-1.1893895E-3,1.2012477E-1],"categories":[],"categories_nodes":[],"categories_segments":[],"categories_sizes":[],"default_left":[0,0,0,0,1,0,0,0,0,0,0,0,0,0,0,0,0],"id":38,"left_children":[1,3,-1,5,7,9,11,13,15,-1,-1,-1,-1,-1,-1,-1,-1],"loss_changes":[1.5388326E1,1.1704783E1,0E0,3.0614838E1,9.277794E0,6.988138E0,2.7918953E1,6.8569856E0,2.7675655E1,0E0,0E0,0E0,0E0,0E0,0E0,0E0,0E0],"parents":[2147483647,0,0,1,1,3,3,4,4,5,5,6,6,7,7,8,8],"right_children":[2,4,-1,6,8,10,12,14,16,-1,-1,-1,-1,-1,-1,-1,-1],"split_conditions":[1.089E3,2.023E3,1.9668575E-1,6.02E2,4E0,-8.660254E-1,8.35E2,9E0,8E0,5.4161817E-2,-2.1351928E-2,1.048192E-1,-1.7063027E-2,-2.7540147E-3,-2.3322096E-2,-1.1893895E-3,1.2012477E-1],"split_indices":[2,1,0,2,5,7,2,0,0,0,0,0,0,0,0,0,0],"split_type":[0,0,0,0,0,0,0,0,0,0,0,0,0,0,0,0,0],"sum_hessian":[1.162E3,1.159E3,3E0,1.98E2,9.61E2,1.12E2,8.6E1,8.36E2,1.25E2,1.3E1,9.9E1,5.9E1,2.7E1,6.17E2,2.19E2,1.03E2,2.2E1],"tree_param":{"num_deleted":"0","num_feature":"8","num_nodes":"17","size_leaf_vector":"1"}},{"base_weights":[9.350821E-3,-4.2369287E-2,1.6758497E-1,-2.655974E-2,-7.856991E-1,-3.0108027E-3,6.4944345E-1,-5.715128E-2,7.0841837E-1,2.4310394E-1,-2.102091E0,1.00006275E-1,-1.1784403E0,8.2391754E-2,1.278947E0,2.930873E-4,-2.4850486E-2,1.0577273E-1,-2.3569569E-2,-1.02307476E-1,1.1127881E-1,-2.3948412E-1,-2.6420117E-3,-3.2463993E-3,1.0863054E-1,-4.6312742E-2,-2.802566E-1,4.5524355E-2,-8.255328E-2,2.6189622E-1,3.6807626E-2],"categories":[],"categories_nodes":[],"categories_segments":[],"categories_sizes":[],"default_left":[0,0,1,0,0,0,0,0,0,0,0,0,0,0,0,0,0,0,0,0,0,0,0,0,0,0,0,0,0,0,0],"id":39,"left_children":[1,3,5,7,9,11,13,15,17,19,21,23,25,27,29,-1,-1,-1,-1,-1,-1,-1,-1,-1,-1,-1,-1,-1,-1,-1,-1],"loss_changes":[9.402204E0,1.0156113E1,2.3265408E1,1.91295E1,2.4888569E1,2.5546608E1,2.6309748E1,9.382228E0,1.1462074E1,1.3251396E1,4.7979507E0,2.5382399E1,1.8451942E1,1.391667E1,4.175633E1,0E0,0E0,0E0,0E0,0E0,0E0,0E0,0E0,0E0,0E0,0E0,0E0,0E0,0E0,0E0,0E0],"parents":[2147483647,0,0,1,1,2,2,3,3,4,4,5,5,6,6,7,7,8,8,9,9,10,10,11,11,12,12,13,13,14,14],"right_children":[2,4,6,8,10,12,14,16,18,20,22,24,26,28,30,-1,-1,-1,-1,-1,-1,-1,-1,-1,-1,-1,-1,-1,-1,-1,-1],"split_conditions":[8.660254E-1,1.1E1,3E0,8E0,9E0,6E0,7.7E2,3E0,8.07E2,-5E-1,1E1,4E0,7.8E2,1E1,8.14E2,2.930873E-4,-2.4850486E-2,1.0577273E-1,-2.3569569E-2,-1.02307476E-1,1.1127881E-1,-2.3948412E-1,-2.6420117E-3,-3.2463993E-3,1.0863054E-1,-4.6312742E-2,-2.802566E-1,4.5524355E-2,-8.255328E-2,2.6189622E-1,3.6807626E-2],"split_indices":[7,3,4,3,0,3,2,3,2,7,4,3,2,5,2,0,0,0,0,0,0,0,0,0,0,0,0,0,0,0,0],"split_type":[0,0,0,0,0,0,0,0,0,0,0,0,0,0,0,0,0,0,0,0,0,0,0,0,0,0,0,0,0,0,0],"sum_hessian":[1.147E3,8.65E2,2.82E2,8.48E2,1.7E1,2.09E2,7.3E1,8.15E2,3.3E1,1E1,7E0,1.93E2,1.6E1,3.9E1,3.4E1,6.21E2,1.94E2,2.4E1,9E0,4E0,6E0,6E0,1E0,1.71E2,2.2E1,1.2E1,4E0,2.8E1,1.1E1,1.3E1,2.1E1],"tree_param":{"num_deleted":"0","num_feature":"8","num_nodes":"31","size_leaf_vector":"1"}},{"base_weights":[-2.352998E-2,-2.9831037E-2,1.8159601E-1,1.6077148E-2,-1.7829815E-1,-1.001687E-1,3.0594492E-1,-4.3329813E-2,-3.9307472E-1,-4.1342597E-3,-2.6379531E-2,1.6104075E-1,2.2348484E-2,9.0371136E-4,-1.7732458E-1,1.3225679E-1,-4.733212E-2],"categories":[],"categories_nodes":[],"categories_segments":[],"categories_sizes":[],"default_left":[0,0,0,0,0,0,0,0,0,0,0,0,0,0,0,0,0],"id":40,"left_children":[1,3,-1,5,7,9,11,13,15,-1,-1,-1,-1,-1,-1,-1,-1],"loss_changes":[1.3580556E1,7.936522E0,0E0,3.0020021E1,7.9546785E0,6.1109223E0,2.7069456E1,1.541639E1,1.5219465E1,0E0,0E0,0E0,0E0,0E0,0E0,0E0,0E0],"parents":[2147483647,0,0,1,1,3,3,4,4,5,5,6,6,7,7,8,8],"right_children":[2,4,-1,6,8,10,12,14,16,-1,-1,-1,-1,-1,-1,-1,-1],"split_conditions":[1.089E3,8.43E2,1.8159601E-1,7.44E2,6E0,6.25E2,7.46E2,8E0,-8.660254E-1,-4.1342597E-3,-2.6379531E-2,1.6104075E-1,2.2348484E-2,9.0371136E-4,-1.7732458E-1,1.3225679E-1,-4.733212E-2],"split_indices":[2,2,0,2,4,2,2,3,6,0,0,0,0,0,0,0,0],"split_type":[0,0,0,0,0,0,0,0,0,0,0,0,0,0,0,0,0],"sum_hessian":[1.166E3,1.163E3,3E0,8.89E2,2.74E2,6.35E2,2.54E2,1.69E2,1.05E2,4.68E2,1.67E2,1.4E1,2.4E2,1.65E2,4E0,4E0,1.01E2],"tree_param":{"num_deleted":"0","num_feature":"8","num_nodes":"17","size_leaf_vector":"1"}},{"base_weights":[-1.2027956E-2,-1.8499263E-2,1.0463624E0,-7.753917E-3,-4.1689315E-1,-8.5625124E-1,1.9786581E0,-2.5098342E-2,4.4677454E-1,-1.5900889E-1,-2.0533887E-1,-1.0187564E-1,-2.6562048E-2,2.3673566E-1,2.119322E-2,-8.711125E-3,6.6196728E-3,2.856882E-1,-4.8011937E-3,-6.092825E-2,4.5460667E-2],"categories":[],"categories_nodes":[],"categories_segments":[],"categories_sizes":[],"default_left":[0,1,0,1,0,0,0,0,0,0,0,0,0,0,0,0,0,0,0,0,0],"id":41,"left_children":[1,3,5,7,9,11,13,15,17,19,-1,-1,-1,-1,-1,-1,-1,-1,-1,-1,-1],"loss_changes":[7.889053E0,4.889814E0,1.4110819E1,8.793471E0,1.2334286E1,1.733923E-2,2.931898E0,6.0861874E0,4.9029194E1,7.7369456E0,0E0,0E0,0E0,0E0,0E0,0E0,0E0,0E0,0E0,0E0,0E0],"parents":[2147483647,0,0,1,1,2,2,3,3,4,4,5,5,6,6,7,7,8,8,9,9],"right_children":[2,4,6,8,10,12,14,16,18,20,-1,-1,-1,-1,-1,-1,-1,-1,-1,-1,-1],"split_conditions":[1.9E1,1E1,5.26E2,7E0,1E1,5.23E2,1.2E1,5E-1,-5E-1,7E0,-2.0533887E-1,-1.0187564E-1,-2.6562048E-2,2.3673566E-1,2.119322E-2,-8.711125E-3,6.6196728E-3,2.856882E-1,-4.8011937E-3,-6.092825E-2,4.5460667E-2],"split_indices":[3,5,2,5,3,2,0,7,6,0,0,0,0,0,0,0,0,0,0,0,0],"split_type":[0,0,0,0,0,0,0,0,0,0,0,0,0,0,0,0,0,0,0,0,0],"sum_hessian":[1.148E3,1.142E3,6E0,1.113E3,2.9E1,2E0,4E0,1.073E3,4E1,2.6E1,3E0,1E0,1E0,3E0,1E0,6.39E2,4.34E2,6E0,3.4E1,1.5E1,1.1E1],"tree_param":{"num_deleted":"0","num_feature":"8","num_nodes":"21","size_leaf_vector":"1"}},{"base_weights":[1.01745445E-2,-2.1316509E-1,4.7424838E-2,-9.603726E-2,-3.7018245E-1,7.545254E-1,2.779495E-2,-2.1727961E-1,1.249429E-1,-6.988846E-1,-2.6185304E-1,-2.4452323E-2,2.9836693E0,1.9056757E-1,-5.887336E-2,1.4607707E-2,-3.896799E-2,1.908276E-2,-6.414365E-2,-7.3091775E-2,-9.317708E-3,-2.082046E-2,-1.122358E-1,5.110658E-2,-9.585525E-2,4.946992E-1,2.7442927E-2,9.657883E-2,3.0449242E-3,-3.540365E-2,6.831229E-4],"categories":[],"categories_nodes":[],"categories_segments":[],"categories_sizes":[],"default_left":[0,0,0,0,0,0,0,0,0,0,0,1,1,0,0,0,0,0,0,0,0,0,0,0,0,0,0,0,0,0,0],"id":42,"left_children":[1,3,5,7,9,11,13,15,17,19,21,23,25,27,29,-1,-1,-1,-1,-1,-1,-1,-1,-1,-1,-1,-1,-1,-1,-1,-1],"loss_changes":[9.718926E0,3.0357623E0,1.3873214E1,2.6259866E0,2.345171E0,4.6957203E1,1.3765765E1,4.003419E0,1.8896477E0,2.6174164E-1,2.3053813E0,1.0994661E1,3.587619E1,4.204966E1,1.2356123E1,0E0,0E0,0E0,0E0,0E0,0E0,0E0,0E0,0E0,0E0,0E0,0E0,0E0,0E0,0E0,0E0],"parents":[2147483647,0,0,1,1,2,2,3,3,4,4,5,5,6,6,7,7,8,8,9,9,10,10,11,11,12,12,13,13,14,14],"right_children":[2,4,6,8,10,12,14,16,18,20,22,24,26,28,30,-1,-1,-1,-1,-1,-1,-1,-1,-1,-1,-1,-1,-1,-1,-1,-1],"split_conditions":[2.3E2,3E0,3.84E2,5E-1,2.3E1,2.024E3,2.024E3,2.023E3,4E0,4E0,4E0,3E0,5E0,5.26E2,5.83E2,1.4607707E-2,-3.896799E-2,1.908276E-2,-6.414365E-2,-7.3091775E-2,-9.317708E-3,-2.082046E-2,-1.122358E-1,5.110658E-2,-9.585525E-2,4.946992E-1,2.7442927E-2,9.657883E-2,3.0449242E-3,-3.540365E-2,6.831229E-4],"split_indices":[2,4,2,6,2,1,1,1,3,3,3,5,4,2,2,0,0,0,0,0,0,0,0,0,0,0,0,0,0,0,0],"split_type":[0,0,0,0,0,0,0,0,0,0,0,0,0,0,0,0,0,0,0,0,0,0,0,0,0,0,0,0,0,0,0],"sum_hessian":[1.166E3,1.66E2,1E3,9.6E1,7E1,2.6E1,9.74E2,6.2E1,3.4E1,1.6E1,5.4E1,2E1,6E0,3.38E2,6.36E2,2E1,4.2E1,3.2E1,2E0,1.5E1,1E0,5.2E1,2E0,1.3E1,7E0,3E0,3E0,5.7E1,2.81E2,1.15E2,5.21E2],"tree_param":{"num_deleted":"0","num_feature":"8","num_nodes":"31","size_leaf_vector":"1"}},{"base_weights":[3.3762224E-2,5.072827E-2,-6.8320394E-1,2.6810348E-1,4.9840887E-3,-1.5620472E0,-2.975064E-1,3.648405E-1,-1.1366035E0,2.9481748E-2,-6.925894E-1,-1.7727332E0,-4.3622735E-3,4.6509606E-1,-6.575572E-1,7.303783E-3,1.0767833E-1,-2.1851555E-1,-2.0811414E-2,6.0946E-4,1.18940555E-1,-1.8626957E-1,-4.069143E-2,-3.5217233E-2,-1.950798E-1,7.153445E-2,-5.181971E-2,-1.12188E-1,4.0259972E-2],"categories":[],"categories_nodes":[],"categories_segments":[],"categories_sizes":[],"default_left":[1,0,0,1,0,0,0,0,0,0,0,0,0,0,0,0,0,0,0,0,0,0,0,0,0,0,0,0,0],"id":43,"left_children":[1,3,5,7,9,11,13,15,17,19,21,23,-1,25,27,-1,-1,-1,-1,-1,-1,-1,-1,-1,-1,-1,-1,-1,-1],"loss_changes":[1.4205811E1,1.1324482E1,8.687408E0,2.732034E1,1.6118177E1,2.4819527E0,5.797339E0,3.856226E1,1.2201639E1,2.470573E1,9.938688E0,1.0836468E0,0E0,2.0931618E0,7.343238E0,0E0,0E0,0E0,0E0,0E0,0E0,0E0,0E0,0E0,0E0,0E0,0E0,0E0,0E0],"parents":[2147483647,0,0,1,1,2,2,3,3,4,4,5,5,6,6,7,7,8,8,9,9,10,10,11,11,13,13,14,14],"right_children":[2,4,6,8,10,12,14,16,18,20,22,24,-1,26,28,-1,-1,-1,-1,-1,-1,-1,-1,-1,-1,-1,-1,-1,-1],"split_conditions":[1.1E1,2.023E3,-1.8369701E-16,8E0,9E0,8.35E2,1.4E1,7.13E2,1.1E1,7E0,-5E-1,5.26E2,-4.3622735E-3,1E1,9E0,7.303783E-3,1.0767833E-1,-2.1851555E-1,-2.0811414E-2,6.0946E-4,1.18940555E-1,-1.8626957E-1,-4.069143E-2,-3.5217233E-2,-1.950798E-1,7.153445E-2,-5.181971E-2,-1.12188E-1,4.0259972E-2],"split_indices":[4,1,7,5,3,2,4,2,5,3,6,2,0,3,3,0,0,0,0,0,0,0,0,0,0,0,0,0,0],"split_type":[0,0,0,0,0,0,0,0,0,0,0,0,0,0,0,0,0,0,0,0,0,0,0,0,0,0,0,0,0],"sum_hessian":[1.164E3,1.138E3,2.6E1,1.97E2,9.41E2,7E0,1.9E1,1.85E2,1.2E1,9.1E2,3.1E1,6E0,1E0,6E0,1.3E1,1.32E2,5.3E1,5E0,7E0,8.93E2,1.7E1,5E0,2.6E1,1E0,5E0,5E0,1E0,9E0,4E0],"tree_param":{"num_deleted":"0","num_feature":"8","num_nodes":"29","size_leaf_vector":"1"}},{"base_weights":[8.114574E-4,-1.9493291E-1,3.4383647E-2,-1.515025E-1,-1.0608896E0,7.5889313E-1,1.6495958E-2,3.480744E-2,-2.8718874E-1,-9.217012E-3,-1.1861109E-1,-5.9065044E-2,2.7538009E0,1.4427768E-1,-7.743704E-2,1.4149261E-2,-1.5117871E-2,-3.291425E-2,2.1020107E-2,-3.801068E-2,1.672846E-1,3.885606E-1,-5.0474484E-3,1.942575E-2,-8.475386E-2,-3.2588565E-3,-5.0753683E-2],"categories":[],"categories_nodes":[],"categories_segments":[],"categories_sizes":[],"default_left":[0,0,0,0,0,0,0,0,1,0,0,0,1,0,1,0,0,0,0,0,0,0,0,0,0,0,0],"id":44,"left_children":[1,3,5,7,9,11,13,15,17,-1,-1,19,21,23,25,-1,-1,-1,-1,-1,-1,-1,-1,-1,-1,-1,-1],"loss_changes":[7.675721E0,6.270386E0,1.2908403E1,4.1558666E0,8.611107E-1,3.932468E1,1.1702017E1,1.410328E0,2.0515862E0,0E0,0E0,1.0644141E1,2.241338E1,2.0637379E1,1.0824059E1,0E0,0E0,0E0,0E0,0E0,0E0,0E0,0E0,0E0,0E0,0E0,0E0],"parents":[2147483647,0,0,1,1,2,2,3,3,4,4,5,5,6,6,7,7,8,8,11,11,12,12,13,13,14,14],"right_children":[2,4,6,8,10,12,14,16,18,-1,-1,20,22,24,26,-1,-1,-1,-1,-1,-1,-1,-1,-1,-1,-1,-1],"split_conditions":[2.3E2,4E0,3.84E2,7E0,-2.4492937E-16,2.024E3,-2.4492937E-16,2E0,3E0,-9.217012E-3,-1.1861109E-1,6E0,8E0,1E1,6E0,1.4149261E-2,-1.5117871E-2,-3.291425E-2,2.1020107E-2,-3.801068E-2,1.672846E-1,3.885606E-1,-5.0474484E-3,1.942575E-2,-8.475386E-2,-3.2588565E-3,-5.0753683E-2],"split_indices":[2,3,2,0,6,1,6,3,5,0,0,3,5,3,5,0,0,0,0,0,0,0,0,0,0,0,0],"split_type":[0,0,0,0,0,0,0,0,0,0,0,0,0,0,0,0,0,0,0,0,0,0,0,0,0,0,0],"sum_hessian":[1.166E3,1.7E2,9.96E2,1.63E2,7E0,2.3E1,9.73E2,6.9E1,9.4E1,1E0,6E0,1.7E1,6E0,4.12E2,5.61E2,4.4E1,2.5E1,8.7E1,7E0,1.5E1,2E0,4E0,2E0,3.93E2,1.9E1,5.09E2,5.2E1],"tree_param":{"num_deleted":"0","num_feature":"8","num_nodes":"27","size_leaf_vector":"1"}},{"base_weights":[1.0004916E-2,-1.9458723E-1,4.0177416E-2,-1.6745324E-1,-1.4592908E-1,1.9471857E-1,-5.0620966E-2,-3.2452166E-1,-9.038586E-2,5.687125E-1,7.765503E-2,1.0665278E0,-7.560407E-2,-2.2727782E-2,-6.713205E-2,-1.1233963E-2,3.492036E-2,1.488844E-2,4.800861E-1,-6.670182E-2,2.0857017E-2,-1.8547652E-2,2.0287156E-1,-8.83014E-3,1.0561893E-1],"categories":[],"categories_nodes":[],"categories_segments":[],"categories_sizes":[],"default_left":[0,0,0,0,0,0,0,0,1,0,0,0,0,0,0,0,0,0,0,0,0,0,0,0,0],"id":45,"left_children":[1,3,5,7,-1,9,11,13,15,17,19,21,23,-1,-1,-1,-1,-1,-1,-1,-1,-1,-1,-1,-1],"loss_changes":[7.156218E0,4.8687897E0,1.4182265E1,1.7500811E0,0E0,1.6329948E1,1.7859211E1,1.4661779E0,1.0042938E0,1.5741817E2,2.8020971E1,1.7241566E1,9.060613E0,0E0,0E0,0E0,0E0,0E0,0E0,0E0,0E0,0E0,0E0,0E0,0E0],"parents":[2147483647,0,0,1,1,2,2,3,3,5,5,6,6,7,7,8,8,9,9,10,10,11,11,12,12],"right_children":[2,4,6,8,-1,10,12,14,16,18,20,22,24,-1,-1,-1,-1,-1,-1,-1,-1,-1,-1,-1,-1],"split_conditions":[1.32E2,5E0,2.024E3,-5E-1,-1.4592908E-1,5.26E2,3.84E2,6.2E1,3E0,5.21E2,5.71E2,2.3E2,1.4E1,-2.2727782E-2,-6.713205E-2,-1.1233963E-2,3.492036E-2,1.488844E-2,4.800861E-1,-6.670182E-2,2.0857017E-2,-1.8547652E-2,2.0287156E-1,-8.83014E-3,1.0561893E-1],"split_indices":[2,3,1,6,0,2,2,2,5,2,2,2,3,0,0,0,0,0,0,0,0,0,0,0,0],"split_type":[0,0,0,0,0,0,0,0,0,0,0,0,0,0,0,0,0,0,0,0,0,0,0,0,0],"sum_hessian":[1.157E3,1.48E2,1.009E3,1.46E2,2E0,3.73E2,6.36E2,4.7E1,9.9E1,8.8E1,2.85E2,1.3E1,6.23E2,3.8E1,9E0,9.5E1,4E0,8.1E1,7E0,4.2E1,2.43E2,6E0,7E0,6.17E2,6E0],"tree_param":{"num_deleted":"0","num_feature":"8","num_nodes":"25","size_leaf_vector":"1"}},{"base_weights":[-4.554381E-2,1.2335239E-2,-1.8190172E-1,-1.3305573E-2,8.66515E-1,-5.614762E-2,-3.6266533E-1,1.8125586E-2,-5.6706166E-1,2.2680929E0,-7.240706E-1,-8.177441E-2,1.7137326E-1,-9.12556E-1,-2.6583308E-1,-4.344296E-3,9.720441E-2,-2.8507654E-3,-1.6806017E-1,2.958928E-1,-2.601862E-3,-1.4345394E-1,-1.1658669E-3,-4.623647E-3,-9.511169E-2,9.807451E-4,-1.2821554E-1,1.6821168E-1,-3.119324E-2],"categories":[],"categories_nodes":[],"categories_segments":[],"categories_sizes":[],"default_left":[0,0,0,0,0,0,0,0,0,0,0,0,0,0,0,0,0,0,0,0,0,0,0,0,0,0,0,0,0],"id":46,"left_children":[1,3,5,7,9,11,13,15,17,19,21,23,-1,25,27,-1,-1,-1,-1,-1,-1,-1,-1,-1,-1,-1,-1,-1,-1],"loss_changes":[9.244087E0,1.803676E1,7.913023E0,1.3934436E1,5.514617E1,9.528904E0,7.3717575E0,4.4560608E1,2.573925E1,2.0680077E1,6.057033E0,6.2894263E0,0E0,7.1715755E0,1.1570002E1,0E0,0E0,0E0,0E0,0E0,0E0,0E0,0E0,0E0,0E0,0E0,0E0,0E0,0E0],"parents":[2147483647,0,0,1,1,2,2,3,3,4,4,5,5,6,6,7,7,8,8,9,9,10,10,11,11,13,13,14,14],"right_children":[2,4,6,8,10,12,14,16,18,20,22,24,-1,26,28,-1,-1,-1,-1,-1,-1,-1,-1,-1,-1,-1,-1,-1,-1],"split_conditions":[8.1E2,8.02E2,5E-1,7.91E2,6E0,1.089E3,8.33E2,7.7E2,4E0,7E0,3E0,1.087E3,1.7137326E-1,2E0,8.35E2,-4.344296E-3,9.720441E-2,-2.8507654E-3,-1.6806017E-1,2.958928E-1,-2.601862E-3,-1.4345394E-1,-1.1658669E-3,-4.623647E-3,-9.511169E-2,9.807451E-4,-1.2821554E-1,1.6821168E-1,-3.119324E-2],"split_indices":[2,2,7,2,5,2,2,2,3,4,3,2,0,3,2,0,0,0,0,0,0,0,0,0,0,0,0,0,0],"split_type":[0,0,0,0,0,0,0,0,0,0,0,0,0,0,0,0,0,0,0,0,0,0,0,0,0,0,0,0,0],"sum_hessian":[1.17E3,8.22E2,3.48E2,7.99E2,2.3E1,2.06E2,1.42E2,7.57E2,4.2E1,1.2E1,1.1E1,2.04E2,2E0,2E1,1.22E2,7.12E2,4.5E1,2.9E1,1.3E1,9E0,3E0,5E0,6E0,1.97E2,7E0,6E0,1.4E1,2E0,1.2E2],"tree_param":{"num_deleted":"0","num_feature":"8","num_nodes":"29","size_leaf_vector":"1"}},{"base_weights":[2.0714125E-2,1.0317009E-1,-4.4023402E-2,-1.8294814E-1,2.238135E-1,-5.1210444E-2,1.535031E-1,-5.490035E-2,-5.6901646E-1,2.640016E0,1.4057066E-1,-3.3008214E-2,-7.738238E-1,-1.090769E-2,2.0221089E-1,-2.9026255E-2,-1.4349721E-1,6.125433E-1,-7.2462946E-2,-8.693631E-3,3.9755996E-2,-1.1064717E-5,-2.999469E-2,-1.0522558E-1,7.834668E-2],"categories":[],"categories_nodes":[],"categories_segments":[],"categories_sizes":[],"default_left":[0,0,1,0,0,1,0,1,1,0,0,0,0,0,0,0,0,0,0,0,0,0,0,0,0],"id":47,"left_children":[1,3,5,7,9,11,-1,13,15,17,19,21,23,-1,-1,-1,-1,-1,-1,-1,-1,-1,-1,-1,-1],"loss_changes":[6.23932E0,1.7783344E1,7.5120306E0,7.532345E0,7.243854E1,8.563481E0,0E0,1.3273487E1,8.756245E0,1.45165E2,2.0556427E1,5.6026487E0,7.761999E0,0E0,0E0,0E0,0E0,0E0,0E0,0E0,0E0,0E0,0E0,0E0,0E0],"parents":[2147483647,0,0,1,1,2,2,3,3,4,4,5,5,7,7,8,8,9,9,10,10,11,11,12,12],"right_children":[2,4,6,8,10,12,-1,14,16,18,20,22,24,-1,-1,-1,-1,-1,-1,-1,-1,-1,-1,-1,-1],"split_conditions":[-2.4492937E-16,4.91E2,1.8E1,4.25E2,5.26E2,1E1,1.535031E-1,5E0,3E0,3E0,3E0,9.99E2,1.055E3,-1.090769E-2,2.0221089E-1,-2.9026255E-2,-1.4349721E-1,6.125433E-1,-7.2462946E-2,-8.693631E-3,3.9755996E-2,-1.1064717E-5,-2.999469E-2,-1.0522558E-1,7.834668E-2],"split_indices":[6,2,5,2,2,5,0,5,4,3,4,2,2,0,0,0,0,0,0,0,0,0,0,0,0],"split_type":[0,0,0,0,0,0,0,0,0,0,0,0,0,0,0,0,0,0,0,0,0,0,0,0,0],"sum_hessian":[1.167E3,5.13E2,6.54E2,1.52E2,3.61E2,6.52E2,2E0,1.15E2,3.7E1,1.1E1,3.5E2,6.37E2,1.5E1,1.13E2,2E0,2.9E1,8E0,5E0,6E0,1.86E2,1.64E2,5.68E2,6.9E1,1.3E1,2E0],"tree_param":{"num_deleted":"0","num_feature":"8","num_nodes":"25","size_leaf_vector":"1"}},{"base_weights":[-2.2183875E-2,-9.710795E-3,-4.8136276E-1,8.1758555E-3,-3.3270112E-1,-8.052256E-1,2.7927184E-1,-2.836122E-3,4.563877E-1,-2.3828319E-1,-1.0300136E-1,-1.4415325E0,-3.787032E-2,9.8213214E-1,-6.2001485E-1,2.2160735E-2,-2.467344E-3,1.300794E-1,-6.371524E-2,3.6015034E-2,-8.700161E-2,-2.7702203E-2,-1.7989226E-1,-5.6776237E-2,4.9833346E-2,1.4523183E-1,2.783998E-3,-2.1135379E-2,-8.220043E-2],"categories":[],"categories_nodes":[],"categories_segments":[],"categories_sizes":[],"default_left":[1,0,0,1,0,0,0,0,0,0,0,0,0,0,0,0,0,0,0,0,0,0,0,0,0,0,0,0,0],"id":48,"left_children":[1,3,5,7,9,11,13,15,17,-1,19,21,23,25,27,-1,-1,-1,-1,-1,-1,-1,-1,-1,-1,-1,-1,-1,-1],"loss_changes":[6.713536E0,6.606077E0,7.8614564E0,5.3515916E0,2.8009436E1,1.0687427E1,6.929665E0,5.1958847E0,2.4837002E1,0E0,1.9851767E1,4.4958706E0,3.4083662E0,2.6517367E0,2.3899233E-1,0E0,0E0,0E0,0E0,0E0,0E0,0E0,0E0,0E0,0E0,0E0,0E0,0E0,0E0],"parents":[2147483647,0,0,1,1,2,2,3,3,4,4,5,5,6,6,7,7,8,8,10,10,11,11,12,12,13,13,14,14],"right_children":[2,4,6,8,10,12,14,16,18,-1,20,22,24,26,28,-1,-1,-1,-1,-1,-1,-1,-1,-1,-1,-1,-1,-1,-1],"split_conditions":[1.1E1,8E0,9E0,8E0,2E0,6E0,7.9E2,2E0,7.45E2,-2.3828319E-1,7E0,3E0,7.93E2,1.9E1,8.33E2,2.2160735E-2,-2.467344E-3,1.300794E-1,-6.371524E-2,3.6015034E-2,-8.700161E-2,-2.7702203E-2,-1.7989226E-1,-5.6776237E-2,4.9833346E-2,1.4523183E-1,2.783998E-3,-2.1135379E-2,-8.220043E-2],"split_indices":[4,3,3,4,0,5,2,0,2,0,4,3,2,4,2,0,0,0,0,0,0,0,0,0,0,0,0,0,0],"split_type":[0,0,0,0,0,0,0,0,0,0,0,0,0,0,0,0,0,0,0,0,0,0,0,0,0,0,0,0,0],"sum_hessian":[1.172E3,1.142E3,3E1,1.083E3,5.9E1,2.1E1,9E0,1.058E3,2.5E1,5E0,5.4E1,1.1E1,1E1,5E0,4E0,9.3E1,9.65E2,1.4E1,1.1E1,3.4E1,2E1,3E0,8E0,5E0,5E0,3E0,2E0,2E0,2E0],"tree_param":{"num_deleted":"0","num_feature":"8","num_nodes":"29","size_leaf_vector":"1"}},{"base_weights":[1.1206105E-2,2.0556962E-2,-8.8507235E-1,3.2075945E-2,-4.5930883E-1,8.707839E-2,-1.5919055E0,1.6936012E-2,6.7021334E-1,-8.310814E-1,2.558127E-1,-3.0588305E-1,1.0259428E-1,6.642437E-2,-2.2685223E0,3.0362632E-3,-4.97237E-2,-2.3730233E-2,1.4650342E-1,-1.4947553E-1,-1.5066679E-2,9.0858825E-2,-5.7868052E-2,-1.7702738E-3,-4.9210235E-2,-4.627676E-2,5.6240417E-2,-5.5789676E-2,-2.5567046E-1],"categories":[],"categories_nodes":[],"categories_segments":[],"categories_sizes":[],"default_left":[0,1,0,1,0,0,0,0,1,0,0,0,0,0,0,0,0,0,0,0,0,0,0,0,0,0,0,0,0],"id":49,"left_children":[1,3,5,7,9,11,13,15,17,19,21,23,-1,25,27,-1,-1,-1,-1,-1,-1,-1,-1,-1,-1,-1,-1,-1,-1],"loss_changes":[9.740123E0,6.365907E0,8.3844E0,1.0838354E1,7.3908906E0,2.5274436E0,8.005062E0,7.595256E0,1.9101776E1,7.9031105E0,5.97315E0,2.5961205E-1,0E0,1.0476679E0,1.0384827E0,0E0,0E0,0E0,0E0,0E0,0E0,0E0,0E0,0E0,0E0,0E0,0E0,0E0,0E0],"parents":[2147483647,0,0,1,1,2,2,3,3,4,4,5,5,6,6,7,7,8,8,9,9,10,10,11,11,13,13,14,14],"right_children":[2,4,6,8,10,12,14,16,18,20,22,24,-1,26,28,-1,-1,-1,-1,-1,-1,-1,-1,-1,-1,-1,-1,-1,-1],"split_conditions":[1.087E3,1.1E1,3E0,9E0,9E0,9E0,3E0,1E1,4E0,6E0,7.9E2,2E0,1.0259428E-1,5E0,3E0,3.0362632E-3,-4.97237E-2,-2.3730233E-2,1.4650342E-1,-1.4947553E-1,-1.5066679E-2,9.0858825E-2,-5.7868052E-2,-1.7702738E-3,-4.9210235E-2,-4.627676E-2,5.6240417E-2,-5.5789676E-2,-2.5567046E-1],"split_indices":[2,4,4,4,3,0,3,3,5,5,2,3,0,0,0,0,0,0,0,0,0,0,0,0,0,0,0,0,0],"split_type":[0,0,0,0,0,0,0,0,0,0,0,0,0,0,0,0,0,0,0,0,0,0,0,0,0,0,0,0,0],"sum_hessian":[1.159E3,1.148E3,1.1E1,1.122E3,2.6E1,5E0,6E0,1.097E3,2.5E1,1.7E1,9E0,4E0,1E0,2E0,4E0,1.07E3,2.7E1,1.2E1,1.3E1,8E0,9E0,5E0,4E0,2E0,2E0,1E0,1E0,1E0,3E0],"tree_param":{"num_deleted":"0","num_feature":"8","num_nodes":"29","size_leaf_vector":"1"}},{"base_weights":[-9.792652E-4,1.3578616E-1,-3.0926878E-2,7.308164E-1,2.4708714E-2,-6.7725945E-3,-5.3307223E-1,7.404938E-2,2.2339756E0,-5.004497E-1,2.7623335E-1,-2.9470183E-2,4.7834593E-1,-1.0073583E0,3.5988817E-1,4.1318204E-2,-8.0858454E-2,2.761376E-1,-1.2563132E-1,-1.3342964E-2,-1.6444108E-1,4.8544616E-2,-4.701166E-2,-9.664072E-3,8.359789E-3,-2.974436E-2,1.5910749E-1,-1.9993429E-1,-3.800326E-2,5.4206103E-2,-1.1863523E-1],"categories":[],"categories_nodes":[],"categories_segments":[],"categories_sizes":[],"default_left":[0,0,0,0,0,1,0,0,1,1,0,0,1,0,0,0,0,0,0,0,0,0,0,0,0,0,0,0,0,0,0],"id":50,"left_children":[1,3,5,7,9,11,13,15,17,19,21,23,25,27,29,-1,-1,-1,-1,-1,-1,-1,-1,-1,-1,-1,-1,-1,-1,-1,-1],"loss_changes":[4.788091E0,1.3861775E1,1.1628063E1,3.2413017E1,2.365031E1,1.0100191E1,1.8997356E1,7.518012E0,2.187695E1,2.413227E1,1.9121876E1,6.6611614E0,3.5866238E1,1.7286808E1,5.150004E0,0E0,0E0,0E0,0E0,0E0,0E0,0E0,0E0,0E0,0E0,0E0,0E0,0E0,0E0,0E0,0E0],"parents":[2147483647,0,0,1,1,2,2,3,3,4,4,5,5,6,6,7,7,8,8,9,9,10,10,11,11,12,12,13,13,14,14],"right_children":[2,4,6,8,10,12,14,16,18,20,22,24,26,28,30,-1,-1,-1,-1,-1,-1,-1,-1,-1,-1,-1,-1,-1,-1,-1,-1],"split_conditions":[2.023E3,-8.660254E-1,8E0,5E0,-5E-1,7E0,8.660254E-1,3E0,8E0,5E0,1.2E1,5E-1,4E0,1E1,1.9E1,4.1318204E-2,-8.0858454E-2,2.761376E-1,-1.2563132E-1,-1.3342964E-2,-1.6444108E-1,4.8544616E-2,-4.701166E-2,-9.664072E-3,8.359789E-3,-2.974436E-2,1.5910749E-1,-1.9993429E-1,-3.800326E-2,5.4206103E-2,-1.1863523E-1],"split_indices":[1,6,3,3,6,4,6,3,5,4,0,7,5,3,4,0,0,0,0,0,0,0,0,0,0,0,0,0,0,0,0],"split_type":[0,0,0,0,0,0,0,0,0,0,0,0,0,0,0,0,0,0,0,0,0,0,0,0,0,0,0,0,0,0,0],"sum_hessian":[1.167E3,2.09E2,9.58E2,3.2E1,1.77E2,9.15E2,4.3E1,2.3E1,9E0,5.7E1,1.2E2,8.75E2,4E1,2.8E1,1.5E1,1.7E1,6E0,8E0,1E0,4.4E1,1.3E1,9.4E1,2.6E1,5.49E2,3.26E2,2.4E1,1.6E1,1E1,1.8E1,1.4E1,1E0],"tree_param":{"num_deleted":"0","num_feature":"8","num_nodes":"31","size_leaf_vector":"1"}},{"base_weights":[-8.649836E-3,-1.4181191E-3,-8.387091E-1,-4.9235795E-2,1.6065636E-1,1.06098466E-1,-1.1676733E0,7.0316824E-3,-6.505019E-1,6.3971746E-1,-6.1136577E-2,-1.2579125E0,-2.2288037E-2,-1.2962918E-2,7.7898637E-3,-1.25531405E-2,-1.2618808E-1,-4.9603958E-2,1.1101278E-1,-1.7177384E-2,4.7617715E-2,-1.373552E-1,-2.242179E-2],"categories":[],"categories_nodes":[],"categories_segments":[],"categories_sizes":[],"default_left":[1,1,0,0,0,0,0,0,0,0,0,0,0,0,0,0,0,0,0,0,0,0,0],"id":51,"left_children":[1,3,5,7,9,-1,11,13,15,17,19,21,-1,-1,-1,-1,-1,-1,-1,-1,-1,-1,-1],"loss_changes":[6.9499993E0,8.912688E0,7.488198E0,3.004715E1,2.787723E1,0E0,4.8695087E-1,7.8837905E0,2.4234234E1,4.4895233E1,1.078224E1,6.4831257E-1,0E0,0E0,0E0,0E0,0E0,0E0,0E0,0E0,0E0,0E0,0E0],"parents":[2147483647,0,0,1,1,2,2,3,3,4,4,6,6,7,7,8,8,9,9,10,10,11,11],"right_children":[2,4,6,8,10,-1,12,14,16,18,20,22,-1,-1,-1,-1,-1,-1,-1,-1,-1,-1,-1],"split_conditions":[1.6E1,3E0,2E0,5E0,3E0,1.06098466E-1,2.3E1,3E0,5E-1,2E0,1.1E1,9E0,-2.2288037E-2,-1.2962918E-2,7.7898637E-3,-1.25531405E-2,-1.2618808E-1,-4.9603958E-2,1.1101278E-1,-1.7177384E-2,4.7617715E-2,-1.373552E-1,-2.242179E-2],"split_indices":[4,4,0,3,5,0,4,5,7,3,0,3,0,0,0,0,0,0,0,0,0,0,0],"split_type":[0,0,0,0,0,0,0,0,0,0,0,0,0,0,0,0,0,0,0,0,0,0,0],"sum_hessian":[1.157E3,1.148E3,9E0,8.87E2,2.61E2,1E0,8E0,8.12E2,7.5E1,8.2E1,1.79E2,7E0,1E0,2.77E2,5.35E2,4.1E1,3.4E1,2.4E1,5.8E1,1.49E2,3E1,6E0,1E0],"tree_param":{"num_deleted":"0","num_feature":"8","num_nodes":"23","size_leaf_vector":"1"}},{"base_weights":[1.316611E-2,2.0822093E-2,-7.2545743E-1,1.9469935E-1,-1.7533569E-2,-1.0850317E0,7.1494293E-1,-4.700574E-2,5.21122E-1,8.096078E-4,-4.9605158E-1,-1.1585383E0,-2.1173632E-2,1.00793555E-1,6.4478875E-3,8.459904E-3,-6.777237E-2,9.060093E-2,-2.6602328E-2,-1.2942309E-3,5.8620986E-2,-1.7189784E-1,-2.3493117E-2,-1.250104E-1,-2.1300698E-2],"categories":[],"categories_nodes":[],"categories_segments":[],"categories_sizes":[],"default_left":[1,0,0,0,0,0,0,1,0,0,0,0,0,0,0,0,0,0,0,0,0,0,0,0,0],"id":52,"left_children":[1,3,5,7,9,11,13,15,17,19,21,23,-1,-1,-1,-1,-1,-1,-1,-1,-1,-1,-1,-1,-1],"loss_changes":[6.6143613E0,7.712982E0,6.990908E0,1.6514181E1,8.321509E0,3.9662457E-1,5.0675285E-1,1.0101E1,2.7204655E1,7.3656297E0,1.0772751E1,5.129223E-1,0E0,0E0,0E0,0E0,0E0,0E0,0E0,0E0,0E0,0E0,0E0,0E0,0E0],"parents":[2147483647,0,0,1,1,2,2,3,3,4,4,5,5,6,6,7,7,8,8,9,9,10,10,11,11],"right_children":[2,4,6,8,10,12,14,16,18,20,22,24,-1,-1,-1,-1,-1,-1,-1,-1,-1,-1,-1,-1,-1],"split_conditions":[1.6E1,2.023E3,1.8E1,6.02E2,9E0,2.3E1,2E0,3E0,8.38E2,7E0,2E0,1E1,-2.1173632E-2,1.00793555E-1,6.4478875E-3,8.459904E-3,-6.777237E-2,9.060093E-2,-2.6602328E-2,-1.2942309E-3,5.8620986E-2,-1.7189784E-1,-2.3493117E-2,-1.250104E-1,-2.1300698E-2],"split_indices":[4,1,3,2,3,4,0,4,2,3,0,3,0,0,0,0,0,0,0,0,0,0,0,0,0],"split_type":[0,0,0,0,0,0,0,0,0,0,0,0,0,0,0,0,0,0,0,0,0,0,0,0,0],"sum_hessian":[1.166E3,1.155E3,1.1E1,2.08E2,9.47E2,9E0,2E0,1.2E2,8.8E1,9.13E2,3.4E1,8E0,1E0,1E0,1E0,1E2,2E1,5.9E1,2.9E1,8.93E2,2E1,5E0,2.9E1,7E0,1E0],"tree_param":{"num_deleted":"0","num_feature":"8","num_nodes":"25","size_leaf_vector":"1"}},{"base_weights":[3.1902052E-2,2.733627E-2,1.3422969E-1,8.5729934E-2,-8.183932E-2,1.5863761E-2,1.0891976E0,-6.4886695E-1,-2.7834427E-2,7.4239555E-3,-1.4506455E-2,5.233061E-1,6.0456406E-2,-1.4073507E-1,1.4566483E-2,9.348823E-2,-7.9868E-3],"categories":[],"categories_nodes":[],"categories_segments":[],"categories_sizes":[],"default_left":[0,0,0,0,0,0,0,1,0,0,0,0,0,0,0,0,0],"id":53,"left_children":[1,3,-1,5,7,9,11,13,15,-1,-1,-1,-1,-1,-1,-1,-1],"loss_changes":[6.8915977E0,7.3703284E0,0E0,5.2774384E1,1.2322716E1,6.6337633E0,9.5240814E1,2.1297379E1,1.85592E1,0E0,0E0,0E0,0E0,0E0,0E0,0E0,0E0],"parents":[2147483647,0,0,1,1,3,3,4,4,5,5,6,6,7,7,8,8],"right_children":[2,4,-1,6,8,10,12,14,16,-1,-1,-1,-1,-1,-1,-1,-1],"split_conditions":[1.089E3,7.93E2,1.3422969E-1,7.7E2,7.98E2,3E0,2E0,2E0,8.07E2,7.4239555E-3,-1.4506455E-2,5.233061E-1,6.0456406E-2,-1.4073507E-1,1.4566483E-2,9.348823E-2,-7.9868E-3],"split_indices":[2,2,0,2,2,3,0,5,2,0,0,0,0,0,0,0,0],"split_type":[0,0,0,0,0,0,0,0,0,0,0,0,0,0,0,0,0],"sum_hessian":[1.157E3,1.154E3,3E0,7.52E2,4.02E2,7.04E2,4.8E1,3.4E1,3.68E2,5.17E2,1.87E2,4E0,4.4E1,1.7E1,1.7E1,1.8E1,3.5E2],"tree_param":{"num_deleted":"0","num_feature":"8","num_nodes":"17","size_leaf_vector":"1"}},{"base_weights":[3.0651897E-2,4.2573124E-2,-5.428442E-1,-3.1414177E-2,1.3287249E-1,-8.6564595E-1,3.6476675E-1,8.735799E-2,-1.762396E-1,6.2642986E-1,-7.6015065E-3,-1.2750385E0,-1.9452545E-1,7.7419204E-1,-4.391977E-2,-1.7043225E-3,5.190538E-1,-5.9109516E-2,-7.713057E-3,9.827521E-3,1.2872852E-1,-4.128245E-2,2.8269698E-3,-9.353662E-3,-1.7064098E-1,-9.870748E-2,2.3417013E-2,1.0652919E-1,-1.9510364E-2],"categories":[],"categories_nodes":[],"categories_segments":[],"categories_sizes":[],"default_left":[1,0,0,0,0,0,0,0,0,0,0,0,0,0,0,0,0,0,0,0,0,0,0,0,0,0,0,0,0],"id":54,"left_children":[1,3,5,7,9,11,13,15,17,19,21,23,25,27,-1,-1,-1,-1,-1,-1,-1,-1,-1,-1,-1,-1,-1,-1,-1],"loss_changes":[8.056324E0,7.7006936E0,7.3472404E0,1.0920976E1,3.598806E1,4.697504E0,2.6441672E0,1.8602805E2,1.1713563E1,4.0012383E1,5.8986845E0,5.4467106E0,2.9492424E0,1.6186514E0,0E0,0E0,0E0,0E0,0E0,0E0,0E0,0E0,0E0,0E0,0E0,0E0,0E0,0E0,0E0],"parents":[2147483647,0,0,1,1,2,2,3,3,4,4,5,5,6,6,7,7,8,8,9,9,10,10,11,11,12,12,13,13],"right_children":[2,4,6,8,10,12,14,16,18,20,22,24,26,28,-1,-1,-1,-1,-1,-1,-1,-1,-1,-1,-1,-1,-1,-1,-1],"split_conditions":[1.2E1,7.44E2,9E0,5.26E2,7.93E2,7.93E2,7.9E2,5.21E2,5.71E2,5E0,7.98E2,3E0,4E0,1.9E1,-4.391977E-2,-1.7043225E-3,5.190538E-1,-5.9109516E-2,-7.713057E-3,9.827521E-3,1.2872852E-1,-4.128245E-2,2.8269698E-3,-9.353662E-3,-1.7064098E-1,-9.870748E-2,2.3417013E-2,1.0652919E-1,-1.9510364E-2],"split_indices":[4,2,3,2,2,2,2,2,2,4,2,3,3,4,0,0,0,0,0,0,0,0,0,0,0,0,0,0,0],"split_type":[0,0,0,0,0,0,0,0,0,0,0,0,0,0,0,0,0,0,0,0,0,0,0,0,0,0,0,0,0],"sum_hessian":[1.174E3,1.151E3,2.3E1,6.33E2,5.18E2,1.7E1,6E0,3.48E2,2.85E2,1.14E2,4.04E2,1E1,7E0,4E0,2E0,3.42E2,6E0,5.4E1,2.31E2,6.4E1,5E1,3.2E1,3.72E2,3E0,7E0,2E0,5E0,3E0,1E0],"tree_param":{"num_deleted":"0","num_feature":"8","num_nodes":"29","size_leaf_vector":"1"}}]},"name":"gbtree"},"learner_model_param":{"base_score":"2.7407408E0","boost_from_average":"1","num_class":"0","num_feature":"8","num_target":"1"},"objective":{"name":"reg:squarederror","reg_loss_param":{"scale_pos_weight":"1"}}},"version":[2,1,4]}